//Numpy array shape [64]
//Min 0.000000000000
//Max 0.000000000000
//Number of zeros 64

#ifndef B22_H_
#define B22_H_

#ifndef __SYNTHESIS__
bias22_t b22[64];
#else
bias22_t b22[64] = {0.4510945678, 1.0340015888, 1.3504655361, -0.8278379440, 0.9284092784, -0.3533316851, 0.1671880037, -0.4719018340, 0.0639313757, -1.2695015669, -0.7070273161, -0.3532849252, -0.6314504147, 0.5489046574, 0.0590051711, 1.8225870132, 0.7888908982, -0.5233990550, -0.3927459717, -0.1642964482, 1.2469992638, -0.0623363554, 0.9937938452, 0.5921262503, 0.9010590315, 0.2361586243, -1.1861121655, -1.5716037750, -1.3736584187, 0.0540393032, 0.4976730943, 0.4876565635, -0.1498183906, 0.9133941531, 0.1052945331, -0.1377531737, 0.3048713207, -0.7439834476, -0.1028155833, 0.1996358633, 1.0475407839, -0.5619229078, -0.0668634698, 1.5280627012, 2.4895546436, -0.2756316662, -0.0947064012, -0.7130610943, 1.4184303284, -0.6971127987, -0.6253775358, 0.8756880760, -0.8839229345, 0.1744539589, -0.0187355839, 0.4878899455, -0.2515866458, 1.1164617538, 0.1392267644, -0.3578631878, 1.1784384251, 0.4337977171, 0.1300586015, 0.5963968039};
#endif

#endif
