//Numpy array shape [64]
//Min 0.000000000000
//Max 0.000000000000
//Number of zeros 64

#ifndef B22_H_
#define B22_H_

#ifndef __SYNTHESIS__
bias22_t b22[64];
#else
bias22_t b22[64] = {2.1678586006, 0.2815140188, 0.4993188381, 1.1871843338, -0.4466845393, 0.7788609862, 1.3396281004, -0.4222870171, 1.1331732273, 0.2910141945, -1.0950449705, 2.2708113194, 0.2092152685, 1.0709384680, 0.0727186501, 1.8933625221, 0.6294155121, 0.5858706236, -1.4170824289, 1.2872853279, -0.4346821904, 1.8955301046, 2.1185219288, 1.5040230751, -0.5480068326, 1.3823457956, -0.5046979189, -0.5545148849, 0.9035050869, 1.7665290833, 1.7254970074, 1.2699873447, 0.5923146605, -0.4961459041, 1.0092341900, -0.3037872910, -0.3369219899, 0.2725073397, 0.5153249502, -1.3417456150, 0.9937999249, -0.5895559192, 0.7513864636, -0.3147051632, 1.0258607864, 0.3645566106, 0.8053280115, -0.4587354362, -0.7763571739, -0.8903159499, -1.7291432619, -0.2471523434, 1.9282742739, 0.8408460617, 2.0998604298, -0.0301916003, 0.6845538616, 0.4428432286, 0.7360661030, -1.4114303589, 0.1657664180, -0.0104789287, -0.7782171369, 2.1966691017};
#endif

#endif
