//Numpy array shape [3, 3, 16, 24]
//Min -0.447901785374
//Max 0.429912030697
//Number of zeros 1728

#ifndef W12_H_
#define W12_H_

#ifndef __SYNTHESIS__
conv_2_weight_t w12[3456];
#else
conv_2_weight_t w12[3456] = {-0.0000000000, 0.0000000000, 0.0495676696, 0.0525272042, 0.0000000000, 0.2644638419, 0.1461186409, -0.1849960834, 0.0000000000, -0.0000000000, 0.2617068887, -0.1471088380, 0.0000000000, 0.0432885475, -0.0000000000, 0.1878991574, -0.0512542315, -0.0903329104, 0.0000000000, -0.0000000000, 0.0542178713, -0.0000000000, -0.0850606188, -0.1090047508, 0.0000000000, -0.0177680440, 0.1736574471, 0.0000000000, 0.0000000000, -0.0000000000, -0.0000000000, 0.0660279170, -0.0192897227, 0.0000000000, 0.0000000000, 0.0545312762, 0.0000000000, -0.2980059981, 0.1580599099, -0.0441570058, -0.0000000000, -0.0000000000, -0.1747471541, -0.2131275237, 0.0000000000, 0.0330144875, 0.0000000000, -0.0000000000, 0.0000000000, -0.1399871260, 0.1022812650, 0.1567928493, 0.0000000000, -0.0252075773, 0.0000000000, -0.0000000000, -0.1138505638, 0.0732094124, -0.0000000000, -0.0000000000, 0.0000000000, -0.0000000000, -0.0668337196, 0.1175095066, 0.0000000000, -0.0000000000, 0.0000000000, -0.0000000000, -0.0000000000, -0.0689983666, -0.0000000000, -0.1159784421, 0.0000000000, -0.0000000000, -0.1651571542, 0.0000000000, 0.1640703827, 0.0182333998, 0.0000000000, -0.0374191888, 0.0000000000, 0.0000000000, -0.0000000000, -0.0000000000, -0.0010394125, 0.1280745715, 0.1227383241, 0.0000000000, -0.1082082540, -0.1472222656, 0.0359952487, 0.0623513311, -0.0000000000, 0.2096387893, -0.0000000000, 0.1078648344, 0.0000000000, 0.0000000000, -0.0000000000, -0.0000000000, 0.0000000000, -0.0887020677, -0.0000000000, -0.0000000000, 0.0000000000, -0.1417999417, -0.2118619829, 0.1143803224, -0.0000000000, -0.0000000000, 0.0000000000, 0.0901737288, -0.1498828232, -0.0000000000, -0.0000000000, 0.0000000000, -0.0000000000, 0.0122569827, -0.0251029097, -0.1696623564, -0.0000000000, 0.0000000000, -0.0087612495, -0.0127076395, -0.0000000000, -0.1733021587, -0.1038949788, -0.0000000000, 0.1111290455, -0.1110262275, -0.0000000000, -0.0125522241, 0.0000000000, 0.1153965667, -0.1531934887, 0.0905104876, -0.0764421895, 0.0000000000, -0.0000000000, -0.0537959263, -0.0000000000, -0.2272424102, -0.0000000000, -0.0571457744, -0.0684693903, -0.0000000000, 0.0000000000, 0.0000000000, -0.0332438834, -0.0000000000, -0.0289759412, -0.1241820902, -0.0000000000, -0.0000000000, 0.0000000000, 0.1180871576, 0.0000000000, 0.1203849837, 0.1365724206, 0.0000000000, 0.0796674341, 0.0400057174, 0.0000000000, -0.0000000000, -0.0000628104, 0.0000000000, -0.1593067944, 0.0000000000, 0.0000000000, -0.0000000000, -0.0000000000, -0.0000000000, 0.0000000000, 0.0604131743, 0.0000000000, 0.0000000000, -0.0000000000, 0.0000000000, 0.0315615274, -0.0000000000, -0.1838709563, -0.1198401898, 0.0483406708, 0.0000000000, -0.0005391664, 0.1549983621, 0.0000000000, -0.0000000000, 0.0000000000, -0.0000000000, -0.0625469908, -0.0036780429, -0.0000000000, 0.0000000000, -0.0000000000, 0.1217369810, -0.1706185043, -0.0000000000, -0.1456625909, 0.2502092719, -0.0000000000, -0.0000000000, -0.0000000000, -0.1155604273, -0.0000000000, -0.1825714558, 0.0000000000, -0.0000000000, -0.0000000000, -0.0603479333, 0.1317389309, 0.0000000000, 0.1554553658, -0.0559135117, 0.0000000000, -0.0189705491, -0.0000000000, 0.3569202423, -0.0000000000, -0.0000000000, -0.0000000000, -0.1066181362, 0.1156108603, 0.1045734212, -0.0000000000, -0.0000000000, -0.0000000000, 0.1060733795, -0.1609048694, 0.0000000000, -0.0000000000, -0.0000000000, 0.1440456361, 0.0799870640, 0.0000000000, 0.0000000000, -0.0000000000, 0.0000000000, 0.0000000000, 0.0000000000, -0.0654496327, -0.0000000000, -0.1993501037, -0.0316484869, -0.0000000000, -0.1705584377, -0.0000000000, -0.0000000000, 0.0000000000, -0.0000000000, 0.0000000000, -0.0000000000, 0.0000000000, -0.0000000000, 0.1777500361, -0.0532008111, 0.0000000000, -0.0654201806, -0.0428145081, 0.0000000000, -0.0000000000, -0.0745833069, -0.0000000000, -0.0000000000, 0.0519625619, 0.0951162279, -0.1296708733, -0.1996083409, 0.0000000000, -0.1630037427, 0.0372166745, 0.0000000000, 0.1964312792, 0.0000000000, 0.0268596131, -0.0000000000, 0.0000000000, -0.2250351608, 0.0000000000, -0.0296826903, 0.0000000000, -0.0000000000, -0.1104283482, -0.0000000000, -0.0000000000, -0.0000000000, -0.0116876895, -0.0000000000, 0.0334234200, -0.0000000000, 0.0000000000, 0.0000000000, -0.1206240952, -0.0000000000, 0.0000000000, -0.1113032997, -0.0000000000, -0.0000000000, 0.0743337274, -0.0000000000, 0.0000000000, -0.0000000000, -0.0000000000, -0.1034698486, -0.0000000000, -0.0000000000, -0.1434495598, -0.0000000000, 0.0000000000, 0.0000000000, 0.0000000000, 0.0000000000, 0.0509536266, -0.0000000000, -0.0000000000, 0.1160496473, 0.0889238194, 0.1187865064, 0.0022587737, 0.0000000000, -0.0000000000, -0.1746251583, 0.0000000000, -0.0000000000, -0.0000000000, 0.1181073636, -0.0583853796, -0.0365328416, -0.0587677285, -0.2380132377, 0.1061810106, -0.0000000000, 0.0584621988, 0.0525425300, -0.0054834844, 0.0000000000, 0.0000000000, 0.0000000000, -0.0000000000, -0.0411711074, 0.0451794118, 0.0000000000, -0.0756452605, -0.1053642184, -0.0000000000, -0.1098705456, 0.1216802895, -0.0000000000, -0.0000000000, -0.0000000000, -0.0000000000, -0.0000000000, 0.0631499887, -0.0000000000, 0.0000000000, 0.0946649089, -0.1788544804, 0.0000000000, 0.0000000000, 0.0200029630, -0.0978293940, 0.0000000000, 0.0069260378, -0.0000000000, 0.0000000000, 0.0801855177, -0.0000000000, -0.0150604919, -0.1113027632, 0.0000000000, 0.0606817305, 0.0704501644, 0.1684950888, -0.0000000000, -0.1795317829, 0.0572396144, 0.0001151396, -0.0126856398, -0.1117215380, -0.0000000000, -0.0987390056, -0.2005277425, -0.0000000000, 0.0000000000, -0.1034050062, -0.2905803621, -0.0000000000, 0.0964892879, 0.0000000000, 0.0457788818, -0.0000000000, 0.0208123419, 0.0151477475, 0.0000000000, 0.0000000000, -0.1092125624, 0.0000000000, -0.2120829970, 0.0191190802, 0.0997648761, -0.0000000000, -0.2154574543, -0.0548513643, -0.2392609417, 0.0000000000, -0.0000000000, 0.1334593296, 0.0000000000, -0.1757052690, -0.3101240396, -0.2370326370, 0.0017960690, 0.0690755844, 0.0000000000, -0.0000000000, 0.0000000000, 0.0000000000, 0.0000000000, -0.0000000000, 0.0345138162, -0.0000000000, -0.0755600780, -0.0175249372, 0.1030587628, -0.0340565629, 0.1507233828, -0.1043245122, 0.1566246301, -0.2880009115, -0.0000000000, -0.0000000000, -0.2050098330, 0.0393167064, 0.1276932210, -0.0000000000, 0.0000000000, 0.0080538066, 0.0000000000, 0.0000000000, -0.2039879113, -0.0730314627, -0.1440753192, 0.1933108270, -0.1804102510, -0.0030281276, -0.0000000000, 0.1664298773, 0.1279967427, 0.0000000000, -0.0000000000, 0.0000000000, 0.1018947065, 0.0997141749, -0.2913612723, -0.0000000000, -0.0000000000, 0.1059090719, 0.0733068585, -0.0000000000, 0.0000000000, 0.0000000000, 0.0000000000, 0.1443261206, -0.0000000000, 0.0645220205, 0.0000000000, 0.0000000000, 0.0000000000, -0.0000000000, -0.2001122981, 0.0000000000, -0.0666959137, -0.0000000000, -0.0000000000, 0.0000000000, -0.0000000000, -0.0000000000, 0.0000000000, 0.0000000000, -0.1446999311, 0.0000000000, -0.0288128741, -0.2840145826, -0.0000000000, -0.2060208768, -0.0889485478, 0.0000000000, -0.0000000000, -0.1444726288, 0.0483753197, -0.0391073674, -0.0000000000, 0.0371756330, 0.2285031229, -0.2365078926, 0.0000000000, 0.0370421670, -0.0399775133, 0.1116998494, -0.0000000000, 0.0617518574, -0.1165674254, 0.0000000000, -0.3467605114, -0.0293712653, -0.0847979859, 0.1266253442, -0.0000000000, 0.0302035417, 0.2542780638, -0.0000000000, 0.0000000000, -0.0000000000, -0.0000000000, -0.0000000000, -0.0763107017, 0.0000000000, 0.0000000000, 0.0376477428, 0.0234280564, -0.0391776673, 0.0000000000, -0.0000000000, 0.0324311405, 0.0519454256, 0.0213832874, 0.0000000000, 0.0000000000, -0.0000000000, 0.0000000000, -0.0000000000, -0.0000000000, -0.1759632677, 0.0982861593, 0.0000000000, 0.2260798216, -0.0000000000, -0.1034550741, 0.0000000000, 0.0000000000, 0.0000000000, -0.0000000000, 0.0000000000, -0.2561633289, 0.0000000000, -0.2216696590, 0.0900347084, -0.4203791320, 0.0000000000, 0.1941853911, 0.0000000000, 0.1849847585, 0.0000000000, 0.1512609869, 0.1582106203, -0.0045033828, 0.1713632792, 0.0000000000, -0.0887561813, 0.1404486448, -0.0000000000, -0.1249618530, -0.0000000000, 0.0125116045, 0.0452217124, 0.1413624883, -0.0000000000, -0.1567129046, 0.1418837607, 0.0000000000, 0.1972132176, -0.1579067558, -0.0000000000, 0.3040503263, -0.0000000000, 0.0742368326, -0.0291465465, -0.0317866579, 0.0126992278, 0.0190420803, -0.0000000000, 0.0800975114, -0.2067546248, -0.2173700631, -0.0000000000, -0.0000000000, -0.0254035443, -0.0266038999, 0.0000000000, 0.0000000000, -0.0193272531, 0.0000000000, 0.0990754962, 0.0063326363, -0.1289519668, 0.2397798896, -0.0839836076, -0.1620414555, 0.0000000000, 0.0000000000, 0.0000000000, 0.0056693587, 0.0000000000, -0.0711908266, 0.0000000000, 0.2199752927, 0.0000000000, 0.0260677971, 0.0000000000, -0.1362982988, 0.0000000000, 0.0000000000, 0.1494335681, 0.4311564565, 0.0332192108, -0.1052147448, 0.0050190073, 0.0301226657, -0.0000000000, -0.0644984618, 0.1114348695, 0.0000000000, 0.0000000000, 0.1484000981, 0.0007994584, -0.0000000000, -0.0000000000, -0.0015088576, 0.0000000000, -0.2259932458, -0.0281795841, -0.2904438674, -0.2058823407, 0.0734165087, 0.0883352458, -0.0000000000, 0.0000000000, -0.1342077255, -0.0000000000, 0.0000000000, 0.0000000000, 0.0982620120, -0.1262297928, 0.0589263663, -0.0000000000, 0.0264387541, 0.2344109416, -0.0000000000, 0.0000000000, -0.0000000000, -0.0324112400, 0.0000000000, 0.3061045706, -0.0680120289, 0.0000000000, -0.0056400909, -0.0000000000, -0.0000000000, -0.0000000000, 0.1418233812, -0.0007988521, 0.0456755124, 0.0439769775, -0.0000000000, 0.0000000000, -0.0232607927, 0.0000000000, 0.1395853907, -0.0695242509, 0.0000000000, 0.2049721330, -0.0000000000, 0.0000000000, -0.0000000000, 0.0000000000, -0.0000000000, -0.0000000000, -0.0000000000, 0.0000000000, -0.0000000000, -0.0109582962, 0.0000000000, -0.0000000000, -0.0902287886, 0.2276462018, -0.0338047408, -0.0000000000, -0.4932727218, -0.0413623489, -0.1731543541, -0.0000000000, -0.0000000000, -0.1747554541, -0.0000000000, 0.0211803876, 0.0165673867, 0.0246959496, -0.0889599025, 0.1860770732, 0.0766448677, -0.0000000000, -0.2483263761, -0.0624865852, 0.0000000000, -0.0000000000, 0.0000000000, 0.0489565358, 0.0000000000, 0.0833712593, -0.0000000000, 0.2661878169, -0.0000000000, -0.0000000000, -0.0649160743, 0.0446370654, -0.0988888592, -0.0000000000, -0.1939810961, -0.0244501885, -0.1060760766, 0.0408788286, 0.1643168628, -0.0000000000, -0.0000000000, -0.0000000000, -0.0000000000, 0.0861965045, -0.1501637399, -0.0000000000, 0.0000000000, 0.0000000000, 0.1112505049, -0.2496770173, -0.0802007765, -0.0212714728, -0.0000000000, 0.0000000000, -0.0000000000, -0.0441554077, 0.4154100418, 0.0000000000, -0.2760151923, 0.0000000000, -0.0217089169, 0.0363879725, 0.0000000000, 0.1435969174, -0.2043695003, -0.0851425305, 0.0972921103, -0.0182533935, -0.0813275799, 0.2495494038, 0.2711360753, -0.0000000000, -0.0999044180, -0.2786710858, 0.0000000000, -0.1817204356, 0.0000000000, 0.0000000000, 0.2162311375, -0.0000000000, 0.5773730278, 0.0618583448, -0.0715094209, 0.2780066431, 0.0000000000, -0.1046009660, -0.0000000000, 0.2291022539, -0.0000000000, 0.0000000000, -0.0235588737, -0.0695687532, -0.0000000000, 0.1682997495, 0.0000000000, -0.1116796210, 0.1223053560, -0.1169805154, -0.0000000000, -0.0726230964, -0.0000000000, -0.0000000000, -0.0000000000, 0.0000000000, -0.0000000000, 0.0000000000, -0.0000000000, 0.1118828058, 0.0152556356, -0.0000000000, -0.0000000000, -0.1520365924, -0.0000000000, 0.0372580513, 0.0000000000, 0.0476789027, 0.0000000000, -0.0000000000, -0.0000000000, -0.0629390329, -0.0000000000, -0.0136985229, -0.0975818336, -0.0368742831, 0.0787109733, 0.0903368518, -0.0000000000, 0.0000000000, -0.0000000000, 0.0005769519, 0.0000000000, 0.0000000000, -0.1923547834, -0.0000000000, 0.0000000000, -0.0000000000, -0.1114677265, 0.0000000000, 0.0000000000, 0.0000000000, -0.0811262876, 0.1962594986, 0.1979545951, -0.0211891588, -0.0000000000, -0.1320863515, -0.0000000000, 0.0905320346, -0.1376442760, 0.0000000000, -0.1219997928, -0.1661627442, -0.0000000000, 0.0000000000, -0.0071424767, 0.2061621845, 0.1703069061, -0.0795451775, 0.0000000000, 0.2748447657, -0.0851352364, 0.0000000000, 0.0000000000, -0.0000000000, -0.1133070588, 0.1556115597, -0.0604921132, 0.0837991834, 0.0000000000, 0.1621695161, 0.0000000000, 0.0000000000, -0.0000000000, 0.0000000000, -0.0660538822, -0.1549800336, -0.0003974550, -0.0000000000, -0.2023467273, -0.1273961663, 0.1918614507, 0.1645371169, 0.0000000000, 0.0000000000, 0.0000000000, -0.0000000000, -0.0000000000, -0.1853964627, -0.0420265570, 0.0000000000, -0.0000000000, 0.0000000000, -0.0000000000, 0.0603859462, -0.0000000000, 0.0553592294, -0.1312408298, -0.0118174180, 0.0000000000, -0.0000000000, -0.1007281840, 0.0000000000, 0.0000000000, -0.2016165853, 0.2228660583, -0.0000000000, 0.0000000000, -0.0000000000, -0.0000000000, 0.0000000000, -0.0486897193, -0.1456803083, -0.0000000000, -0.0585448295, -0.0000000000, -0.0000000000, 0.0000000000, 0.0601767227, 0.0000000000, -0.0712845325, 0.0000000000, -0.0708799884, 0.0594208091, -0.0000000000, 0.0000000000, 0.0000000000, -0.1295068115, -0.0120523227, 0.0000000000, 0.0000000000, -0.1962195337, -0.0000000000, 0.0000000000, 0.0000000000, 0.0000000000, 0.0000000000, 0.1478542238, 0.0342122912, -0.0000000000, 0.0000000000, 0.0970539376, 0.0265695564, 0.0000000000, 0.0000000000, -0.0096922871, -0.0000000000, -0.0601198450, 0.1551240236, -0.0657792091, -0.0399941728, 0.0000000000, 0.0000000000, 0.0000000000, 0.0000000000, 0.0000000000, 0.0000000000, -0.0231577829, 0.3187900782, -0.0062659802, 0.0000000000, -0.1377753019, 0.1076093987, 0.0000000000, 0.0488768481, -0.0588398390, 0.0000000000, 0.1499844193, 0.0550992563, -0.0275922660, 0.0000000000, 0.1026675254, 0.0593635961, -0.0000000000, -0.0000000000, 0.0634932965, 0.0000000000, -0.0000000000, -0.0000000000, 0.0000000000, -0.0000000000, -0.0566659160, -0.0000000000, 0.0000000000, -0.0750434622, -0.0000000000, 0.0000000000, -0.0000000000, -0.0000000000, 0.0000000000, -0.1363406926, -0.0000000000, -0.0000000000, 0.0055604624, 0.0000000000, 0.0000000000, -0.0000000000, 0.1203436628, 0.0007454411, -0.0000000000, -0.0000000000, 0.1479555070, 0.0000000000, 0.1183684543, -0.1494846940, -0.0000000000, 0.0000000000, 0.0000000000, 0.0585852638, -0.0000000000, -0.1205265075, 0.0000000000, -0.0000000000, 0.0023762838, 0.0962601677, -0.0358689763, 0.1075930893, -0.0000000000, -0.2676180303, -0.0000000000, 0.0000000000, -0.0000000000, 0.0000000000, -0.0000000000, -0.2119966298, -0.0571543314, 0.0374138542, 0.0000000000, -0.6176816225, 0.0179540347, -0.0460199118, 0.0000000000, 0.0815457702, -0.0000000000, 0.0000000000, -0.1008473858, 0.0757188573, -0.0000000000, 0.0000000000, -0.0031946248, 0.1289039403, -0.0780983791, -0.0335014872, 0.0000000000, -0.0000000000, 0.0272454340, 0.0000000000, -0.0000000000, 0.0427839495, 0.1340330839, -0.0000000000, 0.0000000000, 0.0000000000, -0.1470919102, -0.1840481013, 0.0000000000, -0.0000000000, 0.1524045616, -0.0000000000, 0.0727459490, -0.0000000000, -0.0000000000, 0.0000000000, -0.0000000000, -0.0815023109, -0.0000000000, 0.0523023233, 0.0000000000, 0.2404297739, -0.1167643815, 0.0391335450, -0.0000000000, 0.0008397811, -0.0000000000, 0.1377396882, -0.0000000000, -0.0331334248, -0.0000000000, -0.1248611659, -0.0145457471, 0.2232459933, -0.0000000000, -0.2617390156, -0.0852255970, -0.0000000000, -0.1072731987, 0.0000000000, 0.0000000000, -0.1780383438, 0.0000000000, 0.0000000000, 0.0000345126, 0.0000000000, -0.0364641398, -0.0000000000, 0.0424722768, 0.2005766481, -0.0546258353, -0.0649702772, -0.0000000000, 0.1137921810, -0.0000000000, 0.1573773175, 0.0000000000, 0.1339622885, -0.0000000000, 0.2199807167, 0.1981740594, -0.0000000000, 0.0704301745, 0.0000000000, -0.0000000000, 0.1499573588, 0.0730178878, 0.1628149152, 0.0000000000, 0.0000000000, -0.0000000000, -0.0000000000, -0.0144476164, 0.0908224806, -0.0000000000, 0.0000000000, -0.0000000000, 0.0000000000, -0.0000000000, -0.0657481626, 0.0000000000, 0.2374641448, -0.0000000000, -0.0517724790, -0.1037807390, -0.0000000000, 0.0257254336, 0.0246612001, -0.0000000000, 0.0000000000, -0.0593292303, 0.1911828220, -0.0000000000, 0.0000000000, 0.1443785727, -0.0911128297, -0.0108885542, 0.0000000000, -0.2697729766, 0.0963666365, 0.1407165974, 0.0248850733, 0.0000000000, 0.0000000000, 0.0000000000, 0.1852337271, 0.0888255984, 0.3166535795, 0.0000000000, -0.2191773206, -0.0000000000, 0.0000000000, 0.0525714383, -0.0958129615, 0.0000000000, -0.0000000000, -0.0000000000, -0.0000000000, 0.1577712148, 0.0000000000, -0.2247033268, 0.2850427926, 0.0000000000, -0.0000000000, 0.1070804670, 0.0000000000, -0.0000000000, -0.2959851623, -0.0985855088, 0.0000000000, -0.1332592070, -0.0000000000, -0.1449519992, 0.2107026875, -0.0574694648, 0.0399353355, -0.0732784718, 0.2281113565, 0.0872009099, -0.1257834285, -0.0861819312, 0.1443705708, -0.0241006147, -0.0000000000, -0.0397079848, -0.0000000000, -0.0917662829, -0.1855311543, -0.1642475426, -0.0000000000, 0.0000000000, -0.0000000000, 0.0104961200, -0.0000000000, -0.0000000000, 0.0000000000, -0.0000000000, 0.0000000000, -0.1392756701, 0.0848351568, -0.0000000000, -0.0152405063, 0.0000000000, 0.0097658681, -0.1768263876, -0.0000000000, -0.0000000000, -0.0310656093, 0.0483590849, 0.1269694120, 0.0923374742, 0.0000000000, 0.0016275899, -0.0000000000, -0.1181056574, -0.1590353996, 0.1247574389, -0.1997361332, -0.0685439184, -0.0000000000, 0.0000000000, 0.2472681552, -0.0000000000, -0.1565558314, 0.1836607903, 0.0000000000, 0.1113232449, 0.0000000000, -0.1983156949, -0.0414103791, -0.0000000000, -0.0000000000, 0.0762932673, -0.0000000000, -0.1357206255, 0.0000000000, -0.0000000000, -0.0000000000, 0.0853243917, -0.0000000000, -0.0641123205, 0.0182609130, 0.0948328376, -0.0000000000, 0.0315706767, -0.1975593269, 0.0036274120, 0.1178665310, -0.0000000000, -0.0884151608, -0.0728316903, -0.1033572182, 0.1204890385, 0.0881933793, -0.0000000000, 0.0000000000, 0.0000000000, -0.0086513003, -0.0000000000, 0.0000000000, -0.1364990324, -0.0000000000, -0.0000000000, 0.0000000000, -0.0000000000, -0.1352704316, 0.0810307935, -0.0217011329, 0.0000000000, 0.0000000000, 0.0000000000, -0.0000000000, -0.0000000000, 0.0360174514, 0.0000000000, -0.0477517806, -0.0000000000, -0.0000000000, -0.0000000000, -0.0000000000, -0.0000000000, -0.0970792100, -0.1263343990, 0.0762171298, 0.0000000000, -0.0000000000, 0.0503657721, 0.0000000000, 0.0000000000, -0.0321509652, -0.0000000000, 0.0396493860, -0.0000000000, 0.0000000000, -0.0085549615, 0.0000000000, 0.0000000000, -0.0000000000, 0.0000000000, -0.2220027596, 0.1236886159, -0.0000000000, -0.0247168913, -0.0000000000, -0.0000000000, 0.2395764142, 0.0000000000, 0.0000000000, -0.0000000000, -0.0000000000, -0.0892300680, -0.0000000000, -0.1186010018, -0.0159883145, 0.0007916545, 0.0667087510, 0.1087458581, 0.0000000000, 0.0000000000, -0.0224430654, -0.0000000000, -0.0251182728, -0.0000000000, 0.0943605676, 0.0000000000, 0.0000000000, 0.0000000000, -0.0000000000, -0.0000000000, -0.1257977039, -0.0000000000, 0.0000000000, -0.0000000000, 0.0464093313, -0.0000000000, 0.0000000000, 0.1300388426, -0.1314109862, 0.0000000000, -0.0000000000, 0.1242315024, 0.0000000000, 0.1820056289, -0.1076262146, -0.0000000000, -0.0000000000, -0.0000000000, 0.0929905027, -0.0000000000, 0.1227273196, -0.0103613827, 0.0000000000, 0.2813007236, -0.0685654804, 0.2315206528, 0.0000000000, 0.0000000000, 0.0000000000, -0.0000000000, 0.0000000000, -0.1063667089, -0.0159160886, -0.0732813329, -0.0773413256, -0.0979489014, 0.0119689079, -0.0000000000, 0.0000000000, -0.0000000000, -0.0000498253, 0.0983116254, -0.1298045665, -0.1020432338, 0.0266945194, -0.1633749902, -0.0000000000, 0.0244772285, -0.0000000000, -0.0000000000, 0.0000000000, 0.0000000000, 0.0000000000, -0.0000000000, -0.0000000000, 0.0574234091, -0.0000000000, 0.0000000000, -0.0430433489, 0.0772400796, -0.0000000000, -0.0000000000, 0.0000000000, 0.0000000000, 0.0000000000, 0.0557770543, -0.0000000000, 0.0577939227, 0.0000000000, 0.0000000000, -0.0000000000, 0.0334699117, 0.0000000000, 0.0000000000, -0.1784694642, -0.0188923329, 0.0836557075, -0.0000000000, 0.0399666540, 0.0387701839, -0.0000000000, -0.0000000000, 0.0000000000, 0.0509507619, 0.0000000000, -0.0000000000, 0.0698613152, 0.0000000000, 0.0000000000, -0.0963917300, 0.0435839035, -0.0000000000, -0.2383651435, 0.0000000000, -0.1208219454, -0.0000000000, -0.0744941384, -0.0000000000, -0.0000000000, -0.2317400724, -0.2189883590, 0.0000000000, -0.0403004736, 0.0000000000, 0.0000000000, 0.0000000000, -0.0000000000, -0.0000000000, -0.0000000000, -0.0000000000, 0.0000000000, -0.0000000000, 0.0000000000, -0.0000000000, 0.0000000000, -0.0000000000, -0.0453124531, -0.0610772893, -0.0372503959, 0.0000000000, -0.0935358256, -0.3074806631, 0.0000000000, -0.0000000000, -0.0729792789, 0.0000000000, -0.0000000000, -0.0000000000, -0.1362016648, -0.0000000000, 0.0321424529, 0.0593257286, -0.0000000000, -0.0000000000, 0.0000000000, -0.0000000000, -0.0802208260, -0.0480499864, 0.0000000000, -0.0000000000, 0.0000000000, 0.1225279868, -0.0000000000, 0.0000000000, 0.0000000000, -0.0000000000, 0.0695840418, 0.0716086999, 0.1369996071, 0.0000000000, 0.0000000000, 0.2023824900, -0.1508602798, -0.0975065604, 0.0000000000, -0.0893604830, 0.1014109030, -0.1446837634, -0.0325691812, -0.0000000000, 0.0000000000, -0.0000000000, -0.1954531670, -0.2560307384, 0.0000000000, -0.0000000000, 0.0000000000, 0.0000000000, 0.0618377849, -0.0000000000, 0.0000000000, -0.0000000000, 0.0874619260, 0.0000000000, 0.0000000000, 0.0000000000, 0.0531769432, -0.0288472399, -0.0000000000, -0.0000000000, 0.0000000000, -0.0000000000, -0.0000000000, -0.0000000000, -0.0338843204, -0.0971440375, 0.0632416829, -0.0000000000, 0.0269967094, 0.0883598924, 0.1370338202, 0.0000000000, -0.3088045716, 0.0000000000, -0.1716933399, -0.0047432990, -0.0000000000, -0.0000000000, 0.0000000000, -0.0000000000, -0.0000000000, -0.0538749956, 0.0830512196, 0.0000000000, 0.0000000000, -0.1551983207, 0.1527679116, -0.0198236424, 0.1028913334, 0.0000000000, -0.0000000000, 0.0000000000, -0.0000000000, 0.0000000000, 0.1891042441, -0.0000000000, -0.0417130366, -0.0000000000, -0.0000000000, 0.0047621084, -0.0000000000, -0.2235038579, 0.0000000000, 0.0969804525, 0.0619388446, 0.0073954235, -0.0494975261, -0.1044334322, -0.0000000000, -0.4379642904, -0.1881225556, -0.0000000000, 0.2062192261, 0.0000000000, -0.1673311889, 0.0000000000, 0.0000000000, -0.0000000000, -0.0000000000, -0.2079486996, -0.0000000000, -0.0000000000, -0.2318948954, -0.2836018503, -0.0403716862, 0.3509712219, 0.1705219597, -0.1377056986, -0.0000000000, 0.2441415340, 0.0000000000, 0.0000000000, -0.2714624107, 0.1300317943, 0.1587106436, -0.0471151732, -0.0000000000, 0.0786328167, -0.2814680040, 0.2669520378, 0.0000000000, -0.0000000000, 0.1868364513, -0.0000000000, -0.1071614549, -0.0000000000, 0.0000000000, 0.2392853200, -0.2368751168, -0.0000000000, -0.3343297839, -0.1165978983, -0.1139977500, 0.1519258469, -0.1438546479, -0.0000000000, 0.0000000000, -0.4940892756, -0.3445156515, 0.0000000000, 0.3191282451, 0.0128524564, 0.0000000000, 0.0909260064, -0.0977155864, -0.0000000000, 0.0044653378, -0.0088606812, -0.0000000000, -0.0000000000, 0.0812503621, -0.0000000000, -0.0000000000, 0.2106122226, 0.0038330087, -0.1890916526, 0.0967321694, 0.0000000000, -0.0000000000, -0.4220323861, 0.1189952493, -0.1687396318, -0.0000000000, -0.0717804506, 0.0765444487, -0.0000000000, -0.0000000000, 0.0000000000, -0.0000000000, -0.0513331182, 0.1420873553, 0.0877810717, 0.0898747221, -0.0818484724, 0.1260083318, -0.1647068113, -0.0000000000, -0.0000000000, -0.0000000000, 0.0000000000, -0.2113861442, -0.0000000000, -0.0401056670, -0.0218272582, 0.0517529584, -0.1398368627, -0.0718494281, -0.0000000000, 0.0000000000, 0.0778406635, -0.0000000000, 0.0000000000, 0.0021357848, 0.0000000000, -0.0254103299, -0.1614853442, -0.1680212766, 0.0129541708, 0.1023934484, 0.0000000000, 0.0421812572, -0.0000000000, -0.3364101350, -0.0000000000, -0.0000000000, 0.1251507699, -0.0025003853, 0.0000000000, 0.0023747785, 0.0000000000, 0.0000000000, 0.0000000000, 0.0535136387, 0.0461882614, -0.0605117269, 0.0666286871, -0.0000000000, 0.0000000000, 0.0000000000, 0.0000000000, 0.0000000000, 0.0000000000, 0.0523372293, 0.0000000000, -0.0000000000, -0.0000000000, 0.0000000000, 0.1438764185, -0.1675582826, -0.1767110974, -0.0000000000, 0.0000000000, -0.1301358044, 0.0000000000, -0.0000000000, -0.0000000000, -0.0795462206, -0.1444441974, 0.0256841555, -0.1805769503, 0.0000000000, 0.2565727830, -0.1002828702, -0.0000000000, -0.0197117012, 0.0379707105, 0.1150003225, -0.0000000000, 0.2597757876, -0.2526776493, 0.0000000000, 0.2879050076, -0.1194361076, -0.0000000000, -0.1238519177, 0.0099395160, 0.0000000000, 0.0354404040, -0.0770640075, -0.0000000000, -0.1390373558, -0.0786121786, 0.2273089588, -0.0767510831, 0.1270860136, 0.2083267421, -0.1271450967, -0.0543233640, -0.1057058349, 0.0000000000, 0.0000000000, 0.1202565208, -0.0949382856, -0.0520249605, 0.0000000000, 0.0000000000, -0.0000000000, -0.1538061500, -0.0000000000, -0.0173550621, -0.0000000000, -0.0092071192, -0.1718982607, 0.0000000000, 0.0000000000, 0.0000000000, -0.0000000000, -0.1007842645, -0.0000000000, 0.0231884532, 0.0000000000, 0.0000000000, 0.2605009079, 0.0000000000, -0.1003717855, 0.0124061778, 0.0000000000, -0.1115813777, 0.0000000000, 0.0000000000, -0.3209850192, -0.0498843491, -0.0114452690, -0.0000000000, 0.0000000000, -0.0966414437, -0.1398599744, 0.0000000000, -0.1630501896, -0.2815950513, -0.0000000000, 0.0025421854, -0.0000000000, 0.0000000000, -0.0621723682, 0.0780856013, -0.0000000000, 0.0417540111, -0.1342076808, -0.1256200075, -0.0000000000, -0.0000000000, 0.0000000000, -0.1084271967, -0.0000000000, 0.2401684821, 0.1393773854, 0.1971734911, -0.1329521388, 0.2000097632, -0.0164683964, 0.0000000000, -0.0014920457, -0.0000000000, -0.1004984379, 0.0970948488, -0.1132574677, 0.0017502599, -0.0899482891, 0.1817710698, -0.2161811739, -0.0000000000, 0.0590125956, -0.0000000000, 0.2330347449, -0.1343799382, 0.0000000000, -0.1345054209, 0.0031978395, 0.3314619660, -0.0000000000, -0.1878843158, -0.2507766485, -0.0605588108, -0.1850166768, 0.0603491813, -0.0000000000, 0.0593550727, 0.0534408577, 0.0213418547, 0.0000000000, -0.0000000000, 0.0000000000, 0.0000000000, 0.0000000000, -0.1197401583, 0.0000000000, 0.0000000000, -0.2225262374, -0.0000000000, 0.0000000000, -0.0000000000, 0.1196573004, -0.0354882106, 0.0000000000, 0.0000000000, 0.1080336794, 0.0248660315, 0.0000000000, -0.0104659852, -0.0067695519, -0.0334234722, 0.0000000000, -0.1352835596, 0.0201731119, 0.0830961391, 0.0000000000, -0.0000000000, -0.0930994004, 0.1852514595, 0.1168387756, -0.0000000000, 0.1122630537, -0.0000000000, 0.0000000000, 0.0907794535, -0.0147668850, 0.0000000000, -0.3256306648, -0.0000000000, -0.0000000000, -0.1534841806, -0.1051302627, -0.0000000000, -0.0000000000, 0.0000000000, 0.0000000000, -0.1314510703, 0.0000000000, -0.0000000000, -0.0474217907, 0.0000000000, 0.0835535228, -0.2851079404, -0.2876939178, -0.1504480690, -0.1351996213, 0.0000000000, 0.0000000000, -0.2043915391, 0.2038434893, 0.0000000000, 0.1674211323, 0.0503307283, 0.1771659404, -0.0000000000, 0.0343802236, 0.1491751373, -0.1715545803, -0.0000000000, 0.0081508774, 0.1321903914, 0.0000000000, -0.0000000000, -0.0000000000, -0.0000000000, -0.3830600679, -0.1225333661, -0.0748856068, 0.2339583188, -0.1395893097, -0.1524394900, -0.0812656209, -0.0000000000, -0.0000000000, 0.0390441008, 0.1707172096, -0.0000000000, 0.0000000000, -0.1407168508, -0.0000000000, 0.0619809031, 0.1557252705, -0.0503112786, -0.1344756782, 0.0000000000, -0.2387878299, -0.1412408054, 0.4435728490, -0.0110056195, 0.0000000000, 0.0000000000, -0.0000000000, -0.0000000000, -0.0000000000, -0.0502675734, 0.1277740747, 0.0000000000, 0.0000000000, -0.0000000000, 0.1224361733, 0.0000000000, -0.0000000000, -0.0000000000, 0.0000000000, -0.0000000000, -0.1724146158, -0.1235315353, 0.0000000000, -0.0511979461, -0.0010931637, -0.0356241986, -0.1293465644, -0.0856543928, -0.0000000000, 0.0086445985, -0.0004964393, 0.0000000000, -0.0000000000, 0.0000000000, -0.1174520329, 0.0000000000, -0.0000000000, -0.0000000000, -0.0000000000, 0.0000000000, -0.0055292891, -0.0000000000, 0.0000000000, -0.1430929154, -0.2312093526, 0.0349891819, 0.0000000000, 0.0000000000, 0.0359226167, -0.0000000000, -0.0000000000, 0.0000000000, -0.0275669545, -0.0000000000, -0.0000000000, 0.0000000000, -0.3219321668, -0.0000000000, -0.0000000000, 0.0000000000, -0.0000000000, 0.0000000000, -0.0000000000, -0.1040857658, -0.0000000000, -0.0896252617, -0.1303890496, 0.1465080529, -0.1010108665, -0.0000000000, -0.0017592269, -0.0000000000, -0.1984710842, -0.0000000000, -0.0000000000, -0.1899148822, -0.0000000000, -0.0000000000, 0.0000000000, -0.0000000000, 0.0235928055, 0.0843951479, -0.0000000000, 0.0000000000, -0.0065381229, -0.2717845142, 0.0000000000, 0.0000000000, -0.0000000000, -0.1366096735, 0.0480788164, -0.0000000000, 0.1249915212, -0.0000000000, -0.0000000000, 0.0453983955, -0.1276340783, -0.0000000000, -0.0000000000, -0.1386072934, 0.0822470039, -0.0000000000, 0.0006396517, -0.0000000000, 0.0000000000, -0.0737004355, -0.1738996059, -0.0000000000, 0.0000000000, 0.0126542524, -0.3424090743, -0.2067873776, 0.0000000000, -0.0986711234, -0.0356825367, -0.0000000000, -0.0000000000, -0.2222632766, -0.0000000000, -0.0000000000, -0.0000000000, 0.0000000000, -0.3475705683, 0.0000000000, 0.0000000000, -0.0243022218, 0.0000000000, 0.0000000000, 0.0080755940, -0.0000000000, -0.0000000000, 0.0815966800, 0.2326210588, -0.0000000000, 0.0000000000, 0.0392085277, -0.0000000000, 0.0000000000, -0.0466857180, 0.0063282754, -0.0000000000, 0.1001084745, -0.0000000000, 0.0000000000, -0.0000000000, 0.0000000000, -0.0000000000, -0.0732938945, 0.0091843242, -0.0211681947, 0.0343358777, 0.1806145161, -0.0000000000, -0.1175189540, -0.0000000000, 0.0000000000, -0.2230805010, -0.0175797101, -0.1331721395, -0.1272539198, -0.0720321164, 0.0000000000, 0.0258803219, -0.0000000000, -0.0000000000, -0.0000000000, -0.0949693099, -0.0000000000, -0.1249799579, -0.0000000000, 0.0004379121, 0.0000000000, 0.1459532082, 0.0000000000, -0.1255874783, -0.0000000000, -0.0325740576, -0.0000000000, -0.1019017845, 0.0000000000, 0.0628758669, -0.2569522560, -0.1036360189, 0.0000000000, -0.1203692108, 0.0000000000, 0.0000000000, 0.1024996936, -0.2933697402, -0.0276820343, -0.1059063151, 0.0832032934, 0.1516836882, 0.1772507429, -0.0000000000, 0.0000000000, -0.0000000000, -0.0000000000, -0.0005377173, 0.0209696908, -0.0000000000, -0.1842459142, 0.0000000000, 0.2218612283, 0.1354698092, -0.0000000000, -0.1284234822, -0.0000000000, -0.0000000000, 0.0000000000, -0.0000000000, 0.0000000000, 0.0674589649, 0.0715930462, 0.0000000000, -0.0932584181, -0.0000000000, 0.0000000000, 0.0000000000, -0.0000000000, 0.0000000000, 0.0000000000, -0.0000000000, 0.1080799326, -0.0614791662, -0.0000000000, 0.0000000000, 0.0000000000, -0.0282302182, -0.0000000000, 0.0000000000, 0.0000000000, -0.0000000000, -0.1403492689, -0.0000000000, -0.0000000000, 0.0039162817, 0.0000000000, 0.0000000000, 0.0000000000, 0.0000000000, 0.1517057568, -0.0682217926, -0.0000000000, -0.1627585292, -0.0921905413, 0.0000000000, 0.0000000000, 0.0000000000, 0.0000000000, 0.0000000000, -0.0219072439, 0.0000000000, -0.0000000000, 0.1185790673, 0.1191974282, 0.0000000000, 0.0311226789, -0.0000559785, -0.0000000000, -0.0000000000, -0.0852335766, -0.0000000000, 0.0000000000, 0.0000000000, -0.1260608882, 0.0061559649, 0.2981224656, 0.0000000000, -0.0000000000, 0.0000000000, -0.0305507369, -0.1322648227, -0.0361595340, 0.0000000000, 0.0000000000, -0.0510972552, 0.0000000000, -0.0118804071, 0.0000000000, -0.0000000000, -0.0206535570, -0.0937135518, -0.0000000000, -0.1875545532, -0.0526882038, -0.0395912156, -0.0000000000, -0.1839213371, 0.1155652776, 0.0000000000, -0.0000000000, -0.2112048864, 0.0000000000, 0.0000000000, 0.0000000000, -0.0000000000, -0.0000000000, 0.0000000000, 0.0000000000, -0.1106060520, 0.0523707345, -0.1048255414, -0.0000000000, 0.0672232434, 0.0000000000, 0.0000000000, -0.0000000000, 0.2362677604, 0.0817388520, 0.0000000000, -0.0000000000, 0.0000000000, 0.0147104785, -0.0205829069, -0.0000000000, 0.0000000000, 0.0000000000, -0.1752384305, -0.0000000000, -0.0000000000, 0.1762606353, 0.0000000000, -0.0827491954, 0.0000000000, 0.0013038599, 0.1382689029, 0.0000000000, -0.0000000000, -0.2413709462, 0.0000000000, -0.0000000000, -0.1528848708, 0.0977101624, 0.0000000000, -0.0000000000, 0.0000000000, -0.1576446146, 0.0000000000, 0.0028394931, -0.0663592964, 0.0000000000, 0.0000000000, -0.1092856303, 0.0000000000, -0.0000000000, -0.1300883442, -0.0918303952, 0.0000000000, 0.0826350600, 0.1368959993, -0.0000000000, 0.1231614947, -0.0000000000, -0.0000000000, 0.0000000000, -0.1400893480, 0.3077647984, -0.0229747817, -0.1711535156, 0.0000000000, -0.0000000000, 0.1685111225, -0.0000000000, -0.0000000000, 0.0000000000, 0.0000000000, 0.0000000000, 0.0000000000, -0.1751846820, 0.0743113533, -0.0000000000, 0.0298582483, 0.0000000000, -0.0000000000, -0.0000000000, 0.0000000000, -0.0000000000, 0.0000000000, 0.0000000000, 0.0000000000, -0.0000000000, -0.0023356930, -0.1758386940, -0.0000000000, 0.0000000000, 0.1739427447, 0.0000000000, 0.0000000000, 0.0000000000, 0.1830287576, -0.0000000000, -0.1732051522, -0.0000000000, -0.1644629389, 0.0000000000, -0.1127646416, -0.0168839134, -0.2949444354, 0.0000000000, 0.0000000000, -0.0585427769, -0.0682955235, 0.0000000000, 0.1409087926, 0.0000000000, -0.2583197951, 0.1480526328, 0.0000000000, -0.0000000000, -0.0000000000, 0.0000000000, -0.1165707335, -0.0512374006, 0.0000000000, -0.0460133590, -0.1663992554, 0.0000000000, -0.0797564983, 0.1059202328, 0.0627534762, -0.0000000000, -0.1042255238, 0.1025078818, 0.2082945257, -0.1941757798, 0.0000000000, -0.0000000000, -0.0000000000, -0.0445614643, 0.0000000000, -0.0000000000, -0.1253053397, 0.0615680590, 0.0000000000, 0.2838636935, -0.0000000000, -0.0000000000, 0.0000000000, -0.0000000000, -0.0825392604, -0.0753880888, -0.1307040006, 0.1164470166, -0.1299666315, 0.0280948039, 0.0000000000, 0.0000000000, 0.2230823785, -0.0630917400, 0.0000000000, -0.0000000000, -0.0000000000, 0.0366385169, -0.0930849165, -0.0000000000, -0.0000000000, -0.0000000000, -0.0000000000, 0.2396474034, -0.0000000000, -0.1217059866, 0.2261540890, -0.0396811850, 0.0000000000, 0.0000000000, -0.1478400230, 0.0000000000, -0.2345066071, 0.0000000000, 0.0000000000, 0.0000000000, -0.0000000000, 0.1123689041, -0.1605933458, -0.0000000000, -0.0000000000, -0.0982124805, -0.2591833472, -0.0738863051, -0.0844143704, 0.0000000000, -0.0000000000, 0.2333031744, -0.0000000000, -0.0000000000, -0.0000000000, -0.0136640584, -0.0030356064, -0.0000000000, -0.0008984659, -0.2124675512, -0.0000000000, 0.1323024482, 0.0000000000, 0.0000000000, -0.0812102854, -0.0871186703, 0.0020571805, -0.0000000000, 0.0002036778, 0.0747962296, -0.0000000000, -0.0000000000, -0.2991913855, 0.0000000000, -0.0856472552, -0.3206115663, -0.0000000000, 0.0286424644, 0.0330828056, 0.0081683267, 0.0000000000, -0.1766114980, -0.0000000000, 0.0952518806, 0.0478007980, 0.0177284814, -0.0300433300, 0.0282345694, -0.1287331581, -0.1734935939, 0.0000000000, -0.0132085150, 0.0023908666, 0.1183444560, 0.0000000000, 0.0000000000, -0.0734378099, 0.0000000000, -0.1780631393, 0.0000000000, 0.0000000000, -0.0534709729, 0.0985742360, 0.0631009266, 0.0000000000, -0.0289861728, 0.0000000000, 0.1124194637, 0.0411948077, -0.0774657354, 0.1245834902, -0.0000000000, 0.0087171849, -0.0000000000, -0.0899944976, -0.0000000000, -0.0000000000, -0.0000000000, -0.0000000000, 0.0000000000, -0.0000000000, -0.0000000000, 0.0000000000, -0.1389784366, -0.1811382025, 0.0000000000, 0.0000000000, 0.1535071880, 0.2739794850, -0.0000000000, -0.0000000000, 0.0000000000, 0.0000000000, -0.0000000000, 0.0000000000, -0.0000000000, 0.0000000000, 0.0069508618, -0.0000000000, -0.0000000000, -0.1361791342, -0.0000000000, -0.0000000000, 0.0000000000, 0.1801311076, -0.0000000000, -0.0000000000, 0.0088193137, -0.1478826255, -0.1088592783, -0.1045920551, -0.1067438126, 0.1608071774, 0.2725205719, 0.0608025119, 0.0000000000, -0.0000000000, -0.0000000000, -0.0000000000, 0.0000000000, 0.0000000000, 0.0867176577, -0.0000000000, 0.1081717759, -0.0878711939, -0.0203147400, 0.0000000000, -0.0000000000, -0.0000000000, 0.0000000000, -0.0041832356, 0.1079596579, 0.0000000000, 0.0000000000, 0.0000000000, 0.0000000000, 0.0000000000, -0.0000000000, 0.0000000000, 0.1381428838, -0.0000000000, 0.0000000000, -0.0000000000, 0.1259385496, 0.0000000000, -0.0046549798, 0.2151262760, 0.0000000000, -0.1589572877, -0.0000000000, 0.2689299881, 0.0421382338, 0.0000000000, -0.0000000000, -0.0000000000, 0.0667597577, -0.0000000000, -0.0000000000, 0.0000000000, 0.0609073155, -0.0000000000, -0.0000000000, 0.0794036984, -0.0000000000, 0.1789032072, -0.1155007929, 0.0000000000, -0.0000000000, 0.0000000000, 0.0023963668, 0.0380819365, -0.0696225017, -0.0039123953, 0.0000000000, 0.0022686147, -0.0000000000, 0.0857815817, 0.0000000000, -0.0000000000, -0.0000000000, -0.0000000000, -0.0588340759, -0.1431340575, -0.0000000000, 0.0000000000, -0.2368707508, -0.0000000000, 0.0000000000, 0.0000000000, 0.0212355293, -0.1711870879, -0.0000000000, -0.1933402866, -0.0000000000, 0.0598055534, -0.0000000000, 0.0000000000, 0.0098927924, 0.0000000000, -0.0000000000, 0.0000000000, -0.0000000000, 0.0236512236, -0.0000000000, 0.0217971914, 0.1221279576, -0.1451052874, -0.2551492453, -0.1430244446, -0.0042862566, 0.0000000000, -0.2105142325, 0.1499561369, -0.0000000000, -0.0000000000, -0.1033119336, -0.0923706442, -0.0000000000, 0.0000000000, -0.0000000000, 0.0000000000, 0.0000000000, 0.0000000000, -0.0489208661, -0.0635630265, -0.1257656515, 0.0000000000, -0.4241847396, -0.1969977170, -0.2328830361, 0.2055815011, -0.1728610247, 0.1466098130, 0.2149910182, -0.0000000000, -0.0754028335, 0.0000000000, -0.2069270313, -0.0247691236, 0.0000000000, -0.0969619006, 0.0656611621, -0.2032091171, 0.0000000000, 0.1058707535, -0.1442042738, -0.2302040756, -0.0000000000, -0.0972293317, 0.0538890995, 0.0087371487, 0.0247752815, -0.0000000000, -0.0455176979, 0.0000000000, 0.0094342632, -0.0000000000, 0.1484587491, -0.0000000000, 0.0000000000, -0.1211073920, 0.0516960956, -0.0000000000, -0.0000000000, -0.0000000000, -0.0000000000, 0.0000000000, 0.0690038279, 0.0000000000, 0.0000000000, -0.0898585171, 0.0000000000, 0.0000000000, 0.0000000000, 0.0909468010, 0.0045225550, -0.0576510839, -0.1437798738, -0.1089623272, 0.1994247586, -0.0000000000, 0.0000000000, 0.0000000000, 0.0893738940, -0.0587428212, -0.0000000000, -0.0613428727, -0.0000000000, 0.0000000000, 0.0000000000, -0.0000000000, 0.0000000000, -0.0064487844, 0.0000000000, -0.0000000000, 0.2042854577, 0.1608496010, 0.0000000000, 0.1746128052, 0.1442127228, -0.0000000000, 0.0329171233, 0.0000000000, -0.0000000000, -0.1691954732, 0.3481274247, -0.0000000000, -0.2646161616, 0.1860103458, 0.1691535711, 0.0000000000, 0.0000000000, -0.2170835286, -0.1185451075, -0.1435288191, 0.1367701143, -0.0000000000, 0.0000000000, -0.2170175165, 0.2458547652, -0.2822201252, -0.1725106388, -0.1086441576, -0.0986062214, 0.0017120207, 0.0275540501, 0.0000000000, 0.0000000000, -0.1316950917, 0.0000000000, 0.0000000000, 0.1643681228, -0.0000000000, 0.0000000000, 0.0000000000, -0.2850967348, 0.0000000000, -0.0000000000, 0.2122279853, 0.0000000000, -0.0000000000, 0.2267347127, -0.1432440728, -0.0000000000, 0.0000000000, -0.1642165184, 0.1518114358, -0.1209782884, 0.0000000000, 0.2315011024, 0.1448185295, 0.0539813861, -0.0861297771, 0.0228143372, 0.0000000000, 0.0556236915, 0.2844663858, 0.0000000000, -0.1152521297, 0.0000000000, -0.0000000000, -0.2263134718, -0.3791336119, 0.1248800233, 0.1228884980, -0.0000000000, -0.2624895871, 0.1956253350, -0.1407686472, -0.2441854179, -0.0000000000, 0.0639453009, 0.0000000000, -0.0259003434, -0.0000000000, -0.0411196388, 0.0000000000, 0.0000000000, 0.0000000000, 0.0000000000, 0.0019489727, -0.0561411306, -0.1660645604, -0.0696323738, -0.0000000000, -0.1467962861, -0.0000000000, -0.0000000000, -0.0789926052, -0.0102694659, 0.0000000000, -0.0000000000, -0.0000000000, -0.0000000000, 0.1039357483, 0.0000000000, 0.1069972515, -0.1886640191, 0.0000000000, -0.3932331502, -0.0000000000, -0.0000000000, -0.0000000000, -0.1437144727, -0.0665181056, 0.0000000000, -0.0000000000, -0.2620194256, 0.0552618206, -0.0000000000, -0.0000000000, -0.0000000000, -0.0741338506, -0.1048489809, -0.0000000000, -0.2387245744, -0.0000000000, 0.1187159121, -0.2435631454, -0.1183913946, 0.1724353135, -0.0533070825, 0.0000000000, 0.0193569344, 0.0059452043, -0.0000000000, -0.0000000000, 0.0000000000, -0.0000000000, 0.0000000000, 0.0771056861, -0.0950050279, -0.0000000000, 0.0000000000, 0.0000000000, 0.0000000000, 0.1342892945, -0.1003617048, -0.0139884874, 0.0000000000, -0.0126922401, 0.1444117874, -0.0000000000, 0.0000000000, 0.0346409604, 0.0000000000, 0.2095465660, -0.0000000000, -0.0877024084, -0.0000000000, 0.0000000000, -0.1680305749, -0.0000000000, -0.0000000000, 0.0000000000, 0.3791168928, 0.0000000000, 0.1923735738, -0.2336204052, 0.0287810490, 0.0820206255, -0.1561327279, -0.1156498194, -0.0637190565, -0.2220657468, -0.0000000000, -0.0000000000, -0.2157015502, 0.0328742452, 0.2937571108, 0.0000000000, 0.0000000000, 0.0000000000, 0.0000000000, 0.1390803605, 0.0630456358, 0.1077119559, 0.1714825332, -0.0000000000, 0.3199107051, -0.0000000000, 0.1417733729, 0.0286354311, -0.0000000000, -0.0000000000, -0.1074099466, 0.0000000000, -0.1496052295, -0.2058576792, -0.0000000000, 0.0041082278, 0.0000000000, 0.0000000000, -0.0000000000, -0.0000000000, -0.0000000000, 0.0000000000, 0.0000000000, -0.0420076326, -0.1990849674, 0.1853686124, 0.1577361077, -0.0418249518, 0.2621350884, 0.0858824551, 0.1622058302, -0.0000000000, 0.1063501462, -0.1231918409, -0.1645275354, -0.0711611733, 0.0311088432, -0.2118833065, -0.2351957709, 0.0000000000, 0.0187558588, 0.0000000000, 0.0000000000, 0.0000000000, 0.0938247964, -0.1641781926, -0.0000000000, 0.1048576906, 0.0000000000, -0.0599764623, -0.1688132286, 0.0000000000, 0.2599613369, 0.0000000000, 0.0000000000, 0.0894023478, -0.1170861423, -0.1996818334, 0.0000000000, 0.1782736778, 0.0000000000, -0.0232700165, 0.2049215883, -0.0000000000, -0.0000000000, -0.2024145424, -0.0000000000, 0.1024584845, -0.0000000000, -0.0000000000, 0.0000000000, 0.0000000000, 0.1020005271, -0.2128720582, -0.0000000000, 0.2599684298, -0.1838792562, 0.0000000000, -0.0000000000, 0.1847123504, -0.0000000000, -0.0854020268, 0.0429061651, 0.0286384821, 0.0188201517, 0.2897587717, 0.0000000000, -0.0000000000, 0.0000000000, 0.0000000000, -0.0000000000, 0.0000000000, -0.0000000000, -0.1857626885, -0.0000000000, -0.0000000000, 0.0000000000, 0.0000000000, 0.0331685767, -0.0000000000, -0.0000000000, -0.0000000000, 0.0000000000, 0.0000000000, 0.0191620085, -0.0000000000, 0.0334299579, 0.0000000000, 0.0530697517, -0.0248041525, 0.0143963750, -0.0000000000, -0.3406484127, 0.0527352877, -0.0211439095, 0.0000000000, 0.0000000000, 0.0480127409, 0.0252573658, -0.1346575618, -0.0000000000, -0.2195471972, 0.0000000000, -0.1148188859, -0.0000000000, 0.1321712136, -0.0000000000, 0.0000000000, -0.0190830827, -0.0000000000, 0.1585459709, -0.0000000000, -0.0000000000, -0.0251472015, -0.0021947536, -0.0000000000, -0.0000000000, -0.2716569602, -0.0146108149, -0.0000000000, -0.0720228627, 0.0000000000, 0.0107115349, 0.1837363541, 0.0000000000, 0.2848751545, 0.0411703587, -0.2964173555, 0.0508984849, -0.0000000000, -0.0859824046, 0.0000000000, -0.0000000000, -0.0000000000, -0.2103126943, -0.0993452370, 0.1895012259, -0.1187292561, -0.3703294396, -0.0000000000, 0.3405565917, -0.0000000000, -0.0000000000, 0.0000000000, 0.0000000000, 0.1052711830, -0.4673233628, -0.1131469905, -0.0000000000, -0.2077351213, -0.1594729871, -0.0206172243, -0.3000454009, 0.0510278791, -0.1544069350, 0.1134124026, -0.0000000000, -0.0000000000, -0.1044382378, 0.0000000000, -0.0000000000, 0.2400763035, 0.0000000000, 0.3063796461, 0.1006292924, -0.0000000000, -0.0537079573, 0.0000000000, 0.2900206745, -0.0000000000, 0.1170173660, -0.3772462308, -0.0000000000, -0.2426798195, 0.0000000000, 0.0255197231, -0.0484773219, -0.1509492993, -0.1042690650, 0.0000000000, 0.0000000000, 0.0000000000, -0.1712577194, -0.0000000000, -0.0687869042, 0.3700428307, 0.0542888157, -0.3171094358, 0.0206431821, 0.0014449701, -0.1902464777, 0.0000000000, 0.0000000000, 0.0000000000, -0.0000000000, -0.0000000000, 0.0000000000, -0.0000000000, -0.0000000000, 0.1115090623, 0.0000000000, -0.0742943212, -0.1397348493, 0.0000000000, -0.0000000000, -0.1672814190, -0.0000000000, 0.0983578116, 0.0000000000, -0.0000000000, 0.0000000000, -0.0277338605, -0.0000000000, -0.0509895682, -0.0000000000, 0.0000000000, -0.0000000000, -0.0000000000, -0.0790520087, -0.1184103265, 0.0000000000, -0.0418625586, -0.0000000000, 0.1746432781, 0.0000000000, 0.0000000000, 0.0030516607, 0.0000000000, 0.2096945941, 0.0000000000, -0.0000000000, 0.0000000000, -0.0000000000, 0.0000000000, 0.0660795718, -0.0000000000, -0.0770875365, 0.0453375392, 0.0000000000, 0.0000000000, 0.2064845264, -0.2582387328, 0.0712768212, 0.0000000000, -0.2568514943, 0.0237340778, 0.2490811348, 0.0327823795, 0.0000000000, -0.0000000000, -0.0000000000, -0.0791010261, 0.1091237292, -0.0000000000, -0.1665622592, 0.1270793080, 0.1637732834, -0.1189497709, -0.1950947195, -0.0000000000, -0.0451746657, 0.0547674932, 0.0605389662, -0.0000000000, 0.0000000000, 0.0471581891, 0.0800204054, 0.1953182667, -0.1366090477, 0.0000000000, 0.0312519930, -0.2196090519, -0.0000000000, -0.0000000000, -0.0000000000, 0.0000000000, 0.0000000000, -0.0000000000, -0.1294700056, 0.1377852559, -0.0000000000, -0.1803639829, -0.0825869143, 0.0457230695, 0.0519281775, -0.0000000000, -0.1103068367, 0.0000000000, -0.0000000000, 0.0287991390, -0.1132830158, -0.1349493563, 0.0000000000, 0.0475026928, -0.0000000000, 0.0022611273, -0.1760734618, 0.0000000000, -0.0000000000, 0.1001057029, -0.0000000000, -0.0997485369, 0.0112331295, -0.0000000000, -0.0703045130, -0.1809923649, -0.0386187024, 0.0000000000, 0.0000000000, 0.1671991497, -0.0760232434, 0.0000000000, 0.0000000000, -0.1512128711, -0.1409492344, -0.0000000000, -0.0310145244, -0.0000000000, -0.0000000000, 0.0000000000, -0.0000000000, -0.0000000000, 0.1166347116, 0.0000000000, -0.0000000000, -0.0000000000, 0.0663828403, 0.1328924000, 0.0000000000, -0.0000000000, -0.0000000000, -0.0365739204, 0.0998776555, -0.0000000000, 0.1389459223, 0.1770402193, -0.0000000000, -0.0000000000, 0.0881182700, 0.0000000000, 0.0000000000, -0.0000000000, -0.1585436910, 0.0000000000, 0.1597706228, 0.0082288021, 0.0000000000, 0.0000000000, 0.2359612584, -0.0270346049, 0.0308267232, 0.0000000000, -0.0167982336, -0.0832644850, 0.0312835127, 0.1291729957, 0.0000000000, 0.0234970227, 0.0000000000, 0.0000000000, 0.0051175286, -0.0000000000, 0.0000000000, 0.1024861410, 0.0000000000, 0.1617088914, 0.1706471443, 0.0000000000, 0.1059778333, 0.3029465377, 0.1907632649, 0.0000000000, 0.1703915000, 0.1905388981, 0.0000000000, -0.0000000000, -0.0968200490, -0.1089373901, -0.0000000000, -0.0000000000, -0.0902261138, 0.1289250702, 0.0685883835, 0.0000000000, 0.0000000000, 0.0000000000, 0.0616394691, -0.0000000000, 0.0000000000, 0.0000000000, -0.0000000000, -0.1399205774, 0.0000000000, 0.1825662553, 0.0000000000, 0.2058917731, -0.0000000000, -0.0000000000, 0.0630574375, 0.0382349975, -0.0000000000, -0.1179151088, -0.0698258281, 0.0789696053, -0.0000000000, 0.0000000000, 0.0000000000, -0.0068720505, -0.1203212515, -0.1353056580, -0.1200881749, 0.0080979830, 0.0000000000, -0.0000000000, -0.0000000000, -0.0000000000, -0.0286381058, -0.0231732987, 0.0353607759, -0.0000000000, -0.0000000000, -0.0000000000, 0.0000000000, 0.0760508031, -0.0724740177, 0.0000000000, -0.0001498506, 0.0000000000, -0.0000000000, -0.0459715463, 0.0000000000, -0.0020631724, -0.0837277547, 0.1774758548, -0.1579549164, -0.0697819665, 0.0592766069, -0.0587628633, -0.1175741553, 0.0000000000, -0.0303717144, 0.0676680356, -0.0000000000, -0.0019571229, -0.0000000000, 0.0000000000, 0.1613842845, -0.0000000000, 0.0000000000, 0.1215460226, 0.0000000000, -0.1047559753, 0.0185992364, 0.2176251858, -0.0435539000, 0.1572770029, 0.1401462406, 0.0000000000, -0.0000000000, -0.1880296171, 0.0000000000, -0.2085516006, -0.0501431264, -0.0000000000, -0.0000000000, 0.0000000000, -0.0000000000, 0.1041945666, -0.0000000000, 0.1415062249, -0.0000000000, 0.0000000000, -0.0182940979, 0.0000000000, -0.0000000000, -0.0000000000, -0.0000000000, -0.1731873155, -0.0116260611, 0.0100457501, -0.0651670620, -0.0000000000, -0.2222643793, -0.0053449715, 0.0711353198, -0.0000000000, -0.0000000000, -0.0000000000, -0.2250570953, 0.0000000000, 0.1972679645, 0.0000000000, -0.1511648297, 0.1157123893, -0.0018898881, 0.0000000000, -0.0000000000, 0.0000000000, 0.0866568685, -0.1204446033, 0.0000000000, -0.0000000000, -0.0000000000, -0.0000000000, -0.3331401348, -0.0837011263, 0.0000000000, 0.3751176000, 0.0000000000, 0.0781616345, -0.1001227945, -0.0000000000, 0.0000000000, -0.0229511503, 0.0000000000, 0.0000000000, 0.0000000000, -0.1024655104, -0.0000000000, 0.2134073675, -0.0000000000, 0.0942861140, -0.0919837132, 0.0000000000, -0.0000000000, 0.0000000000, -0.0000000000, -0.0000000000, 0.0000000000, -0.0000000000, -0.0622427836, 0.0000000000, 0.0000000000, -0.1222254038, 0.0913821310, -0.2038997561, -0.0855151787, -0.0000000000, -0.0000000000, -0.0000000000, -0.0000000000, 0.1258726120, 0.1009697765, 0.0000000000, -0.1711991131, 0.0000000000, -0.0000000000, -0.0396438166, -0.1094336510, -0.0261799861, 0.0000000000, 0.0000000000, 0.0775748342, 0.0000000000, -0.0298151989, -0.0000000000, 0.0000000000, -0.2100357860, -0.2101472169, -0.0480536222, 0.1019188836, 0.0000000000, 0.1834390461, 0.0000000000, 0.0000000000, -0.0102115478, -0.0929620266, -0.0795711279, -0.0000000000, -0.0000000000, 0.0000000000, 0.0150219593, 0.0964927077, -0.0000000000, -0.1629421711};
#endif

#endif
