//Numpy array shape [3, 3, 3, 16]
//Min -0.488383561373
//Max 0.418537139893
//Number of zeros 216

#ifndef W2_H_
#define W2_H_

#ifndef __SYNTHESIS__
conv_0_weight_t w2[432];
#else
conv_0_weight_t w2[432] = {1.9112203121, -0.0000000000, 0.0000000000, -0.0000000000, 1.0656694174, 0.0000000000, 4.0585289001, -3.8998713493, 1.8624809980, 3.2762157917, 0.0000000000, -4.2027301788, 0.0000000000, -0.0000000000, -0.0000000000, -0.0000000000, 3.1088106632, -1.1647421122, 4.0620203018, -0.0000000000, -0.0000000000, -0.0000000000, -0.0000000000, 0.0000000000, -2.8004276752, -0.0000000000, -4.4915766716, -3.5918581486, 0.0000000000, -0.0000000000, -0.0000000000, 3.0386686325, -1.4050116539, 0.4513559043, 2.2292582989, -0.0000000000, 0.0000000000, 0.0000000000, -0.0000000000, 0.0000000000, -0.0000000000, 3.4679481983, 0.0000000000, -2.6884477139, 3.6908404827, -0.0000000000, -1.7313201427, -0.5971091986, 1.5187058449, 0.7623887658, 0.0000000000, -0.0000000000, 2.4515280724, -0.0000000000, -0.0000000000, -0.0000000000, -4.2865567207, -3.4404404163, -4.9951190948, 0.0000000000, 2.1005089283, 0.0000000000, -1.7949224710, -0.3875681162, 1.1460819244, -0.0000000000, 0.0000000000, -0.0000000000, -0.0000000000, -0.0000000000, 1.8951810598, 4.1241798401, -0.0000000000, -0.0000000000, 0.0000000000, 0.0000000000, 2.9286537170, 0.0000000000, 0.9054983854, 1.2132463455, -1.6298497915, 0.9001181722, 0.0000000000, -3.0003066063, -1.0372554064, -1.0879986286, -1.3523397446, 3.0278251171, -0.0000000000, -1.8207523823, -5.4359645844, 0.0000000000, 0.0000000000, 0.0000000000, 2.9275698662, -0.0000000000, -1.6945892572, 0.2086102217, 0.0000000000, -2.1900599003, 1.3730931282, -0.0000000000, -0.0000000000, 0.0000000000, 0.0000000000, -0.0000000000, 0.0000000000, -1.9827078581, 2.9825687408, 0.0000000000, -0.0000000000, 2.0713987350, 0.9224148393, -1.0504884720, 0.0000000000, -0.0000000000, 0.0000000000, -0.0000000000, -0.0000000000, 3.1207327843, 4.4427886009, -2.9339902401, 1.5718709230, 0.0000000000, 3.8059165478, 1.9729858637, 1.5520769358, -1.2966600657, -0.0000000000, 0.8161679506, 2.7392578125, -2.9234004021, 0.0000000000, 0.0000000000, -0.0000000000, 0.0000000000, 2.4038741589, 1.3680261374, -4.1859183311, 2.3832929134, 0.0000000000, 0.0000000000, -0.0000000000, 3.2633273602, -0.0000000000, 0.3889044523, -2.9518098831, -2.0922052860, 0.6457869411, 0.0000000000, 2.8238396645, 0.0000000000, -0.0000000000, 2.8844428062, 0.0000000000, 3.1055066586, 1.6158159971, -2.3178670406, -2.5403115749, 0.9186467528, 1.9475167990, 0.0816787630, 0.0000000000, -0.0000000000, -0.0000000000, 1.8130904436, -2.1323935986, 0.0000000000, 3.4706444740, -0.0000000000, 3.3827786446, 2.2707755566, -1.9574872255, -2.1883621216, -0.0000000000, 0.0000000000, -1.4374806881, 0.7752234936, 0.0000000000, 3.0280663967, -0.0000000000, 0.0000000000, 1.8287287951, 0.0000000000, -0.0000000000, -0.0000000000, 0.0000000000, -3.3513693810, 2.5197584629, 3.0165715218, -1.6239912510, 3.3328161240, 1.2668417692, -0.0000000000, 0.0000000000, -0.0000000000, 1.4089601040, -0.0000000000, -2.2041616440, -0.0000000000, -0.0000000000, -0.0000000000, 3.4782171249, 0.0000000000, 0.0000000000, 0.0000000000, -0.0000000000, -0.0000000000, -0.0000000000, -0.0000000000, 0.0000000000, -0.0000000000, 1.4159116745, 0.6407763362, -2.3772749901, 0.0000000000, -4.6359176636, 2.4415614605, 0.0000000000, 0.0000000000, 0.0000000000, 0.0000000000, -0.0000000000, 1.6270008087, -1.1656105518, 0.9997980595, 4.1572504044, -0.0000000000, -1.3699495792, 0.9217454195, 1.6628246307, -1.0877809525, -0.0000000000, -2.4661502838, 2.7722053528, -1.5743213892, -1.3683472872, -1.8917300701, -1.2727338076, -2.2626473904, -3.1226067543, -0.0000000000, 4.1194543839, -1.3613606691, 0.0000000000, -0.0000000000, -0.0000000000, 3.2357640266, 0.0000000000, -2.3928830624, 2.7128009796, 0.0000000000, 0.0000000000, 0.0000000000, 1.8562705517, -0.0000000000, 1.1991360188, -0.0000000000, 2.7329330444, -2.8392932415, 0.0000000000, -0.0000000000, -0.0000000000, 0.0000000000, 2.6775054932, -1.9378143549, -2.9158413410, 2.0952122211, 0.0000000000, 0.6322637796, 2.6359922886, -0.0000000000, -1.1301602125, 0.0000000000, 0.0000000000, -0.0000000000, 0.0000000000, 0.0000000000, 2.0180172920, -4.1949629784, 0.0000000000, 1.4125680923, 0.0000000000, 0.0000000000, -1.9982541800, 0.0000000000, -1.0010633469, -2.9533197880, -0.0000000000, 0.6531407833, 0.0000000000, 3.5633614063, -0.0000000000, 0.8924227953, -0.0000000000, 4.3662300110, 3.7232422829, -0.0000000000, 0.0000000000, 0.0000000000, 0.0000000000, -1.2739423513, -1.7116965055, -2.6704306602, -0.0000000000, -0.0000000000, -4.0333056450, 4.0920991898, -0.0000000000, 0.9188400507, -0.0000000000, 0.0000000000, -1.6893373728, -0.0000000000, 0.0000000000, 1.9191122055, 0.0000000000, -0.0000000000, -2.8119378090, -2.2977576256, 1.7667074203, 0.8205973506, -4.0317263603, -0.0000000000, -1.3248833418, 0.0000000000, -0.0000000000, 0.0000000000, -0.0000000000, 1.9460538626, 4.9345197678, 0.0000000000, 0.0000000000, -0.0000000000, -0.0000000000, 0.0000000000, -0.0000000000, 0.9705372453, -2.5250349045, -0.0000000000, -0.0000000000, 0.2927590013, -1.7454862595, -0.0000000000, 0.0000000000, -0.0000000000, 0.0000000000, 0.0000000000, -3.7024486065, 0.0000000000, -0.0000000000, -0.0000000000, -1.3154292107, -0.0000000000, 0.0000000000, 3.9303333759, -1.0834680796, -0.0000000000, -4.9567818642, 0.0000000000, -0.0000000000, 3.4477472305, 0.0000000000, 3.2423830032, 1.4585131407, 0.0000000000, -1.8060687780, -0.0000000000, -0.0000000000, -0.4678038061, -2.8701312542, -0.0000000000, -1.1062566042, -0.8465046287, -3.3709402084, 0.0000000000, -0.0000000000, -0.0000000000, 0.0000000000, 3.0006103516, -1.4145641327, -0.8415395617, -0.0000000000, -0.0000000000, -0.0000000000, -0.5739344358, 0.0000000000, -0.0000000000, -0.0000000000, -0.7833355665, -1.3048242331, -3.2571136951, 0.0000000000, -0.0000000000, 0.0000000000, 0.0000000000, -3.7652065754, 1.3383092880, 3.1068692207, -0.0000000000, -0.0000000000, -0.9891374707, 0.0000000000, -0.0000000000, -0.0000000000, -0.0000000000, -0.0000000000, -3.6042845249, 2.7065703869, -2.3127362728, -1.1053085327, 2.4364457130, -4.7913479805, -2.7565362453, 2.1866815090, -0.0000000000, -0.0000000000, -0.9825845957, -3.8152012825, -0.0000000000, 0.0000000000, 1.4116293192, 2.6741898060, 0.0000000000, -4.5307388306, -3.0581974983, 4.4802880287, -2.3909568787, -2.3562545776, 0.0000000000, 1.4674316645, -0.0000000000};
#endif

#endif
