//Numpy array shape [42, 64]
//Min -0.342962086201
//Max 0.379379093647
//Number of zeros 1344

#ifndef W22_H_
#define W22_H_

#ifndef __SYNTHESIS__
dense_1_weight_t w22[2688];
#else
dense_1_weight_t w22[2688] = {0.0000000000, -0.1649468839, -1.2198706865, 0.1698834300, -0.0826434791, -0.0000000000, -0.0000000000, -0.7889384031, -0.0000000000, -0.0000000000, -0.0000000000, -0.4907590747, 0.2235403955, -0.4404770732, 0.0000000000, -0.3824770153, -0.0771825686, -0.0000000000, -0.0656915009, 0.6127108932, -0.9471362829, 0.0000000000, -0.0000000000, -0.2910824418, 0.0000000000, 0.0000000000, 0.3552994132, 0.5392769575, -0.3022012115, -1.1645529270, -0.0000000000, -0.0000000000, -0.0000000000, 0.0000000000, -0.7163071632, -0.6481726766, -0.0086631207, -0.3506262004, -0.0000000000, 0.0000000000, -0.0424000137, 0.0000000000, -0.4377329350, -0.2240215093, -0.9142380953, -0.0000000000, -0.0000000000, 0.0687974393, -0.0120133841, -0.0000000000, -0.0000000000, -0.0000000000, -0.0974773765, -0.4429621994, 0.6836802363, -0.6263357401, -0.5830394030, -0.1692636907, 0.0000000000, 0.0000000000, -0.1552347690, 0.3507490456, 0.0000000000, 0.0000000000, 0.0000000000, -0.3889725208, -0.0984205008, 0.0000000000, -0.0000000000, -0.0000000000, -0.0000000000, -0.0000000000, -0.1233951822, -0.0000000000, 0.0000000000, 0.0000000000, -0.0000000000, -1.0645395517, -0.0000000000, -0.3863227963, 0.0000000000, -0.0350604504, 0.0000000000, -0.7751621008, 0.0000000000, -0.0000000000, 0.5926348567, 0.0000000000, -0.6404854059, -0.0000000000, -0.0000000000, 0.1198513135, -0.2116609067, 0.0000000000, -0.0000000000, 0.3652374148, 0.0000000000, -0.0000000000, -0.0149669787, 0.5071872473, -0.4913907945, 0.0000000000, 0.0000000000, 0.0000000000, 0.0000000000, -0.0000000000, 0.0000000000, -0.1972502917, 0.0000000000, -0.0000000000, -0.0000000000, -1.0662370920, 0.0000000000, -0.0000000000, -0.0000000000, -0.0000000000, 0.0000000000, 0.6639728546, -0.0000000000, -0.6758977175, -1.0117417574, -0.1121804565, -0.3394222558, -0.0279777311, 0.0000000000, 0.0000000000, 0.9707958102, -0.0000000000, -0.0000000000, -0.1204488724, 0.2749701142, 0.0140225412, -1.0278844833, -0.0000000000, -0.0548441336, -0.2077159286, -0.0000000000, 0.0000000000, 0.9964262843, 0.6516215801, 0.0000000000, 0.3442298770, 0.1287616044, 0.2779649198, -0.0000000000, -0.2708753049, 0.2441067398, -0.3861505985, 0.6736614108, 0.5747460127, 0.0000000000, -0.0000000000, 0.5055980086, 0.1004571170, -0.1971431524, -0.6279442310, -0.0000000000, -0.0000000000, -0.0055669784, 0.3765476644, 0.2276456654, 0.0374551117, -0.3715286255, -0.0000000000, -0.3691338897, 0.0000000000, -0.0000000000, 0.6925753355, -0.0000000000, 0.0000000000, -0.0000000000, 0.0000000000, -0.0000000000, -0.0000000000, 0.0734504908, 0.1622453183, -0.7756505609, -0.0000000000, 0.0000000000, 0.0000000000, 1.0942621231, -0.2407893687, -0.3621014953, 0.2006843686, 0.4882770479, 0.3375369906, -0.2557071149, -0.0000000000, -0.0000000000, -1.3044341803, 0.5613638759, 0.0000000000, 0.0000000000, 0.0000000000, -0.0197979677, 0.0766645521, 0.6783821583, 0.0000000000, 0.7616798878, 0.6314733624, 0.0000000000, -0.0000000000, -0.0000000000, -0.9027346373, 0.1883247346, 0.1295693070, -0.0000000000, 0.0000000000, 0.6745773554, 1.0226873159, 0.0000000000, 0.1130093038, 0.5439823866, -0.2462889105, 0.0010759699, 0.3718345165, -0.0000000000, -1.1594182253, 1.2243974209, 0.4147142470, 0.0050607724, 0.0000000000, 0.6913786530, -0.0917698070, 0.5418154597, -0.5836290121, -0.5662208200, 0.8160655499, 0.4400082231, -0.0000000000, 0.0000000000, -0.0000000000, 0.7681417465, 0.1801462173, -0.0846518278, -0.2779576182, 0.5772663951, 0.0000000000, 0.0000000000, -0.0000000000, 0.0000000000, 0.1836732477, 0.5984362960, 0.2587562203, -0.1054414064, 0.3760371208, -0.0000000000, 0.0000000000, 0.0000000000, -0.0000000000, -0.0000000000, 0.0000000000, 0.0022906600, -0.0000000000, -0.0000000000, -0.0000000000, -0.4342372119, -0.0000000000, -0.0000000000, 0.0000000000, -0.5854486823, -0.3622249365, 0.6349144578, 0.0000000000, -0.0000000000, 0.0000000000, -0.0000000000, 0.0000000000, -0.0000000000, -0.4778904617, -0.1367271096, -0.0000000000, -0.7298761010, -0.1331447959, 0.7234945297, 0.2856403589, -0.2804447711, -0.0000000000, -0.4417675436, -0.8502190709, 0.0000000000, 0.0000000000, 1.0817731619, 0.0000000000, -0.0000000000, 0.0679581314, 0.4355322421, 0.1151836067, 0.0000000000, -0.0000000000, 0.0020430244, -0.0000000000, -0.0000000000, 0.0000000000, 0.0000000000, 0.0000000000, -0.0531328022, 0.0000000000, -0.8702343106, -0.0000000000, -0.5206570625, -0.0000000000, -0.0000000000, 0.7261191010, 0.6113051176, -0.0000000000, -0.0000000000, 0.0000000000, -0.0000000000, -0.0000000000, -0.0000000000, 0.3102593124, -0.0000000000, 0.7755250335, 0.8388096690, -0.5659681559, -0.0000000000, 0.0000000000, -0.4834416807, 0.0000000000, -0.2707840204, 0.1418658048, 0.3700172007, 0.0000000000, -0.0505606718, 0.0000000000, 0.0000000000, 0.7829067707, 0.0000000000, 0.0580857769, -0.0000000000, 0.0000000000, -0.3403638303, -0.8170620799, -0.2155369967, 0.9606642723, -0.6894306540, 0.0000000000, 0.5521439314, 0.2039254308, 0.0000000000, 0.0000000000, 0.1784072220, 0.0000000000, 0.2399703264, 0.1545381397, -0.0000000000, 0.4384885430, -0.0000000000, 1.1289254427, -0.0000000000, 0.0122568952, -0.0000000000, 1.5341317654, 0.4262039959, 0.0000000000, -0.4602166414, 0.0000000000, 0.6654960513, -0.0000000000, -0.0000000000, -0.2975997627, -0.0000000000, 0.3533537984, -0.0000000000, -0.8477302790, -0.1133100167, 1.0168938637, 0.0000000000, 0.2553402781, 0.8735646009, -0.0000000000, 0.0000000000, -0.0000000000, 0.2499118298, -0.1714073122, 0.0000000000, -0.3937664330, 0.0000000000, 0.0000000000, -0.2960485518, 0.6692975760, -0.0000000000, 0.0000000000, -0.5314406157, 0.2563683689, 0.0000000000, -0.0000000000, -0.0018966654, -0.5176587701, 0.5095292330, -0.0000000000, -0.0000000000, 1.0359331369, -0.0000000000, -0.2472386062, 0.1706647873, 1.3254004717, 0.0000000000, 0.3781843781, -0.0000000000, -0.0000000000, 0.0000000000, 0.0000000000, 0.0000000000, 0.0000000000, 0.3225529790, 0.0000000000, 0.0000000000, 0.0000000000, -0.0000000000, 0.6239915490, -0.0705928355, 0.0000000000, 0.1579930037, 0.0000000000, -0.0000000000, 0.4469508529, 0.4247721732, -0.3869880140, 1.0426410437, 0.0000000000, -0.0000000000, 0.0000000000, -0.0000000000, 0.2182724774, -0.0000000000, 0.2708933055, -0.0870568156, -0.0051588505, -0.0000000000, 0.0000000000, -0.4248157740, 0.0729537010, 0.0000000000, -0.0000000000, 0.0000000000, 0.6749936938, 0.3045482337, 0.6610261798, -0.0000000000, 0.3850544393, -0.0003122140, 0.0000000000, 0.4021298289, 0.5345422626, -0.0000000000, -0.0741591677, -0.0000000000, -0.0000000000, 0.0000000000, -0.3840189874, -0.0000000000, -0.0615171529, 0.0474936180, -0.0000000000, -0.1133375168, -0.4930050373, -0.0000000000, 0.1133364514, -0.0000000000, -0.0000000000, 0.6565482616, -0.0000000000, -0.7094378471, 0.1992204934, 1.0592041016, -0.0294671953, 0.4518703222, 0.0000000000, -0.0000000000, -0.0000000000, -0.0623243563, 0.0073620281, 0.0040339073, 0.0000000000, -0.0000000000, -0.3695869446, -0.0000000000, -0.8559174538, 0.0000000000, -0.0000000000, -0.0000000000, -0.3190043867, -0.0000000000, -0.4401039183, -0.3289825022, 0.0000000000, -0.8767346740, 0.9609695673, 0.9341692328, 0.0000000000, -0.7071937919, -0.0000000000, 0.4735677242, 0.0000000000, 0.0153517369, 0.8105664253, -0.0000000000, -0.0000000000, 0.9303554296, -0.0000000000, -0.0000000000, -0.0000000000, 0.7371897697, 0.0000000000, 0.0000000000, 0.3656472862, -0.0000000000, 0.0000000000, 0.7407491803, 0.0000000000, -0.0000000000, -0.0000000000, 0.6456676722, 0.0000000000, -0.0000000000, 0.0376907513, -0.8852369785, 0.0000000000, -0.2048059553, 1.0424702168, -0.0522075705, 0.0000000000, 0.0000000000, -0.0000000000, -0.0000000000, -0.0000000000, -0.0660608634, 0.0000000000, 0.0000000000, -0.0000000000, -0.0000000000, 0.0000000000, 0.1748337299, -0.0324330181, 0.5618203878, 0.1923267394, 0.0000000000, -0.0137076983, 1.5906487703, 0.0000000000, -0.0000000000, -0.3473204374, 0.0000000000, -0.0000000000, 0.0000000000, 0.0000000000, -0.0000000000, -0.0000000000, -0.4510029554, 0.4346595109, -0.0016842529, -1.1905622482, 0.0000000000, 0.5499348044, 0.0631556213, -0.2218244821, -0.6065061092, -0.0000000000, 0.6760933995, 0.3879225850, -0.0000000000, 0.2945920825, 0.0000000000, 0.3075394332, 0.3792140484, 1.1047784090, -0.0000000000, 0.7367401719, -0.3309245706, -0.2212598324, 0.3937408626, -0.0000000000, 0.0000000000, -0.3138036728, 0.0000000000, -0.3125010729, -0.3248914480, 0.6804401875, 0.0017038373, 0.4119528234, -0.6455442309, 0.0000000000, -0.9282159209, 0.0000000000, -0.0000000000, -0.2312797308, 0.1011196896, 0.0000000000, 0.0000000000, 0.0000000000, 0.9159669280, 0.3038144410, -0.4642758965, 0.7234416008, -0.0000000000, 0.6988276243, 0.0000000000, -0.0000000000, 0.0000000000, 0.0000000000, 0.0000000000, -0.0000000000, 0.1148802117, 0.0000000000, -0.0000000000, -0.0000000000, -0.0006855225, -0.0000000000, 0.0000000000, 0.0000000000, -0.0000000000, 0.5449847579, -0.0000000000, -0.3805612326, -0.3745642900, 0.2550337613, -0.3639401495, -0.1490289867, 0.0000000000, -0.0000000000, -0.0000000000, -0.0000000000, -0.0000000000, 0.2734511495, -0.0000000000, 0.6028225422, 0.6056081057, 0.0000000000, 0.5221055746, 0.4081422687, 0.3020344079, -0.0000000000, 0.1737311631, 0.0000000000, -0.1376779824, -0.0000000000, -0.0000000000, 0.9443809986, 0.9394168854, 0.1190167814, -1.0970023870, -0.0000000000, -0.5830701590, -0.0000000000, 0.0031924553, -0.1369351000, -0.2033053637, -0.4136008918, 0.0000000000, -0.1706677675, 0.2426362932, -0.0000000000, -0.0121447193, -0.2539190948, -0.0000000000, 0.2837878466, 0.0000000000, 0.0000000000, -0.0000000000, 0.5289209485, 0.7582069635, -0.0000000000, -0.0812553316, -0.6042389274, 0.0000000000, 0.0000000000, 0.0021178285, 0.0000000000, -0.0000000000, -0.2754893005, -0.0000000000, 0.0000000000, 0.0214701481, 0.8905242085, 0.0000000000, 0.0000000000, -1.0180972815, 0.0000000000, -0.0000000000, 0.0000000000, 0.4098840058, 0.0000000000, 0.0000000000, -0.0000000000, -0.0000000000, 0.2954736948, 0.2831322849, -0.0000000000, 0.0000000000, -0.1220857352, -0.6388930678, 0.3551246524, 0.0000000000, 0.6381576657, -0.6726220846, -0.1083289534, 0.4543943703, 0.9763842225, -0.0000000000, 0.0000000000, -0.0000000000, 0.0000000000, -0.0000000000, -0.0000000000, -0.0000000000, 0.2590572536, 0.0000000000, -0.4836397469, 0.0000000000, -0.0000000000, -1.0041704178, 0.6351256371, 0.0000000000, -0.4316716790, -0.0000000000, 0.0000000000, -0.0000000000, -0.0000000000, 0.0000000000, -0.0000000000, 0.0000000000, -0.3702392280, 0.0000000000, -0.7330474854, -0.4145086706, -0.0000000000, -0.0000000000, -0.0000000000, 0.0000000000, -0.0000000000, -0.0437030494, -0.1841266751, -1.0813902617, 0.0000000000, 0.0000000000, -0.0000000000, -0.6558063626, 0.0000000000, -0.0000000000, -0.0000000000, 0.0000000000, -0.0000000000, -0.4797417223, -0.8041926026, 0.0000000000, -0.0000000000, -0.1369012296, -0.5376676917, 0.0000000000, -0.0000000000, 0.0000000000, -0.2725577056, 0.0000000000, 0.0000000000, -0.0000000000, 0.0000000000, -0.8529810309, -0.8849540353, 0.3522500694, -0.0000000000, -0.0000000000, -0.0000000000, -0.3714501560, 0.0000000000, -1.4479945898, -0.2185403705, 1.2820125818, -0.4600962698, -0.7567003965, 0.1851413846, -0.2376554161, -0.0000000000, -0.4918605089, -0.0000000000, 0.0005759473, -0.0000000000, 1.0762858391, -0.0000000000, 0.2810927033, 0.0000000000, 0.0000000000, -0.6728689075, 0.0000000000, 0.0033307024, 0.9222334027, 0.0000000000, -0.0000000000, 0.0454787388, 0.0000000000, 0.3158076108, 0.0000000000, -0.2847394347, 0.2973449826, 0.0973110497, -0.0000000000, -0.0528136753, 0.1912499666, -0.0000000000, 0.0000000000, -0.0000000000, 0.3624343276, -0.0000000000, -0.0000000000, 0.1451698244, -0.0000000000, 0.8469153643, -0.0000000000, 0.0588248484, 1.2416455746, -0.6918597221, -0.0000000000, 0.0000000000, -0.1309090555, 0.3011942804, 0.5806680918, 0.0000000000, 0.9668012261, -0.3121612370, -0.2036796510, 0.4158097506, -0.2188228965, 0.0000000000, 0.0000000000, -0.0000000000, 0.0000000000, 0.0000000000, 0.0024397317, -0.1235916317, -0.0000000000, -0.0000000000, 0.0000000000, 0.5725592375, 0.3880273700, -0.0000000000, -0.1873739809, 0.0000000000, -0.2176341563, -0.0000000000, -0.0000000000, 0.5234657526, -0.0000000000, 0.7229874134, -0.0178587213, 0.0000000000, 0.0000000000, 0.0177259110, 0.0637222230, 0.0000000000, -0.0000000000, -0.0000000000, -0.0133531895, -0.0000000000, 0.7629275322, 1.0512894392, 0.0000000000, 0.0000000000, 0.0000000000, -0.0000000000, -0.0000000000, 0.0000000000, -0.3812203407, -0.0000000000, 0.6368381381, 0.0000000000, 0.0000000000, -0.3395389020, -0.0000000000, 0.0182540808, -0.0000000000, -0.0000000000, 1.1089323759, -0.0000000000, 0.0000000000, -0.0000000000, 0.3883559704, 0.0000000000, -0.0000000000, 0.5872892737, 1.0651926994, -0.0000000000, -0.7665225863, 0.0000000000, -0.0000000000, 0.0000000000, 1.1230615377, -0.0000000000, 0.2066335976, -0.0213403124, -0.0000000000, -0.4435375035, 0.0000000000, 0.2394289374, -0.1696992815, -0.0000000000, -0.3775078654, -0.0000000000, 0.2162744701, -0.0000000000, -0.0005485379, 0.5769455433, -0.0042797173, -0.0000000000, 0.1502175778, 0.0000000000, 0.0000000000, 0.5422236919, 0.0000000000, -0.0000000000, 0.0879134089, -0.1674928069, 0.0041090576, 0.0000000000, 0.0595742986, 0.2484695166, -0.2179965675, 0.0000000000, -0.0000000000, -0.0000000000, 0.0000000000, 0.0000000000, 0.0000000000, -0.0000000000, -0.0000000000, -0.0000000000, 0.1668853462, 0.5570208430, 0.0000000000, 0.0000000000, -0.0000000000, 0.8636638522, 0.0000000000, -0.0000000000, 1.1935703754, 0.0000000000, -0.1024720594, -0.0107878819, 0.9036586285, -0.0000000000, -0.0000000000, 0.0000000000, -0.0000000000, 0.0000000000, 0.4740332663, 0.0000000000, 0.0000000000, -0.5620785356, -0.0000000000, -0.0000000000, 0.0000000000, 0.0602155440, -0.0000000000, 0.0000000000, -0.1821296811, -0.0000000000, 0.2452170849, 0.0000000000, -0.5004813671, 0.0000000000, -0.9722436070, -0.0000000000, -0.0544752218, 0.0006132739, 0.0000000000, -0.7079409957, 0.0057724952, 0.5631283522, -0.0000000000, -0.4304876924, 0.0000000000, 0.0000000000, -0.5059438348, 0.0000000000, -1.2893792391, 0.4280543625, 0.0000000000, -0.0000000000, -0.2113397419, 0.0978502929, -0.1825824976, 0.0000000000, -0.0519883595, 0.0608437657, -0.4320605099, 0.0000000000, -0.4773267210, 0.2932551205, 0.1245511174, 0.8748659492, 0.4300888479, -0.3141441047, 0.0000000000, 0.0000000000, -0.1776749194, -0.0000000000, 0.2216703594, 0.0000000000, -0.4834985733, -0.0000000000, -0.0000000000, -0.6017178893, -0.0000000000, 0.0000000000, -0.6164675951, 0.7637896538, -0.0000000000, -0.0000000000, 0.0000000000, 0.5717545152, -0.2565287948, -0.0000000000, -1.2933534384, -0.0000000000, -0.0000000000, -0.0000000000, 0.2440346926, -0.1977166533, 0.0000000000, -0.1600952893, 0.0000000000, -0.0000000000, 0.0000000000, -0.8447944522, -0.0000000000, 1.0514233112, -0.7289409041, -0.0000000000, -0.7267465591, 0.8546721339, 0.5850805044, 0.4235778749, 0.4382607341, -0.2452982068, -0.0000000000, -0.7342746854, 0.0000000000, -0.0000000000, -0.2062844783, 0.0949548706, 0.8558411002, 0.1021080688, -0.0000000000, -0.0264450256, -0.0000000000, 0.0000000000, 0.0000000000, 0.8088580370, -0.1139540076, 0.0000000000, -0.0000000000, 0.0000000000, -0.0000000000, -0.2780148089, -0.0000000000, 0.0000000000, 0.0000000000, -0.6896480322, 0.0000000000, 0.0000000000, -0.0000000000, -0.1078623161, -0.5673431158, -0.0592973493, 0.0000000000, -0.0000000000, 0.2307613194, 0.0000000000, 0.0000000000, 0.0000000000, 0.5837715864, 0.0937173963, 0.0000000000, -0.1283835769, -0.0000000000, 0.5935784578, 0.6839421988, 0.9534895420, 0.3206472099, -0.7758216858, -0.2911053002, -0.6572332978, -0.7522096634, -0.0000000000, 0.0000000000, -0.0000000000, -0.0000000000, -0.2370719165, -0.4216884673, 0.0000000000, -0.2985775173, -0.8788052201, 0.2089051902, -0.3445641100, 0.0000000000, 0.0000000000, -0.0000000000, 0.0000000000, -0.0000000000, -0.5866426229, 0.0408980884, -0.0000000000, -0.0000000000, -0.2469246835, -0.4231896698, 0.0411864184, -0.0000000000, -0.1455825418, -0.8928620219, -0.0000000000, 0.0964271799, -0.0000000000, -0.7911224961, 0.0000000000, 0.0000000000, 0.0000000000, 0.0000000000, -0.0000000000, -1.0801352262, -0.4099768996, 0.0000000000, 0.0000000000, -0.0000000000, -0.0000000000, 0.0000000000, 0.0120046232, 0.0000000000, 0.7645657063, 0.0000000000, 0.4162512422, 1.1670931578, -0.2224110812, -0.4040573537, -0.0000000000, 0.4465704262, 0.0000000000, 0.0000000000, -0.4540337622, -0.3066663444, 0.2459741831, -0.0000000000, -0.0022060170, -0.0000000000, -0.0000000000, -0.9648029208, -0.7588592172, 0.1229181141, 0.4416000843, -0.0000000000, -0.2476874590, 0.0000000000, 0.0000000000, -0.0000000000, 0.0000000000, 0.0000000000, -0.0000000000, -0.7466344833, 0.0000000000, -0.9917173386, -0.5285472274, -0.0102570076, 0.7217208147, -0.0000000000, 0.6846199036, 0.0000000000, -0.2837888598, 0.2636320293, 0.0000000000, -0.0000000000, -0.0000000000, -0.9246088862, -0.5165546536, -0.0000000000, -0.3363856375, 0.0999203995, 0.1909540743, 0.0489687882, 0.6703507900, -0.0000000000, 0.0470259972, 0.0000000000, 0.0000000000, 0.0000000000, 0.6039310694, 0.0000000000, 0.5625232458, 0.0000000000, -0.4930063784, -0.2409735769, -0.0000000000, 0.0010454822, -0.0000000000, 0.0000000000, 0.4466450214, -0.6706467271, 0.0000000000, 0.3459104598, 0.8763605356, -0.0000000000, 0.0000000000, -1.0568174124, 0.6584919095, -0.0000000000, 0.2126263231, 0.0000000000, -0.0000000000, -0.0000000000, 0.0000000000, 0.0000000000, -0.0927472711, 0.0000000000, 0.6508468390, 0.3399206698, 0.0000000000, 0.0000000000, -0.0000000000, 0.4831149876, 0.0000000000, -0.2100694627, 0.0000000000, 0.0000000000, 0.3887173235, 0.2333310097, 0.2474347502, -0.0000000000, -0.0000000000, -0.5026730299, 0.0000000000, 0.0000000000, -0.0000000000, 0.2754776180, -0.0000000000, 0.0000000000, 0.0000000000, -0.8001821041, -0.3213666975, 0.0000000000, -0.3026609719, 0.0000000000, 0.0000000000, 0.0000000000, -0.3193011284, -0.0000000000, -0.0000000000, 0.0000000000, 0.9324996471, -0.0000000000, -0.0137010766, -1.0540162325, 0.0000000000, 0.6532174349, -0.4407017827, -0.5385084152, 0.0000000000, -0.0000000000, -0.2582549155, 0.0585704073, 0.0000000000, 0.0000000000, 0.0000000000, 0.0000000000, 0.0000000000, 0.0000000000, -0.3560866714, -0.2150423676, 0.3085635602, -0.0000000000, 0.1399445832, -0.2943578959, 0.6921653748, -0.4915654361, 0.0000000000, 0.7003123164, -1.3284560442, 0.0000000000, 0.0000000000, -0.7440536022, -0.7830207944, -0.0000000000, -0.0024885384, 0.0000000000, -0.0000000000, -0.0000000000, 0.6966620684, 0.0000000000, 0.0788144991, 0.4076801836, 0.0278043877, -0.0000000000, -0.0000000000, 1.3788821697, -0.2680226564, -0.0000000000, -0.0000000000, 0.0012085880, -0.0135569423, 0.0425458029, 0.0000000000, 0.1209340543, -0.0047247205, -0.6905276775, 0.3719741702, 0.0376762040, 0.0000000000, -0.3556012511, 0.3819200695, 0.0000000000, 0.1554111391, 0.3583625555, -0.6903538704, -0.0000000000, 0.8483806849, -0.0000000000, -0.0000000000, 0.0092165302, -1.0734875202, -0.0000000000, 0.0000000000, 0.9828588963, -0.2974172533, -0.0000000000, 0.5547377467, -0.5372061133, -1.2925410271, -0.3498044312, -0.2844955325, -0.0000000000, -0.3693194091, -0.6846840382, 0.0000000000, 0.5575927496, -0.0000000000, 0.0000000000, -0.0000000000, -0.5016424656, -0.7554961443, 0.0000000000, -0.0000000000, -0.0256968550, 0.0000000000, 0.0000000000, 0.0000000000, 0.2435610443, 0.0000000000, 0.0000000000, -0.0000000000, -0.6249792576, 0.9348996282, 0.0000000000, 0.0000000000, 0.0000000000, 0.0000000000, 0.9204244614, -0.0000000000, -0.0000000000, 0.5262024403, 1.4113888741, 0.0000000000, -0.0000000000, 0.0823732167, -0.0000000000, 0.0036516222, -0.0000000000, 0.0000000000, -0.0000000000, -0.0000000000, -0.8171917200, -0.4815117121, 0.1904444844, -0.0000000000, 0.4297396541, 0.0000000000, -0.0000000000, -0.0000000000, -0.0000000000, -0.0000000000, -0.9193132520, 0.0000000000, -0.0000000000, 0.0000000000, 0.3505669534, 0.0737520382, 0.2353205830, -0.2524322271, -0.0000000000, 0.0000000000, -0.6006258726, 0.2307071984, -0.0000000000, 0.0000000000, 0.2224233299, 0.3987602890, -0.3348038495, 0.0000000000, 0.5028171539, 0.0000000000, -0.0000000000, -0.3130400479, 0.0000000000, -0.4661364257, 0.5625739098, 0.3698270619, -0.2096654028, 0.3735358715, -0.0000000000, 0.0000000000, 0.0000000000, 0.0000000000, -0.0000000000, -0.9236977696, 0.0000000000, -0.4446029961, 0.1236241907, 0.1029050872, -0.0094593950, -0.0048648431, 0.0405505374, 0.0000000000, -0.3654227555, 0.0000000000, 0.0000000000, -0.0000000000, 0.0000000000, -0.0501455031, -0.0000000000, 0.0000000000, 0.0000000000, 0.2834126949, -0.6747277975, 0.1520899981, -0.0000000000, -0.0159888119, 0.0000000000, 0.4741884768, 0.0000000000, -0.0000000000, -0.0000000000, 0.0000000000, 0.0000000000, -0.0000000000, 0.4923978746, 0.0000000000, 0.0000000000, -0.0000000000, 0.0000000000, 0.0000000000, -0.0000000000, 0.0000000000, -0.4269774258, 0.4551752508, -0.0000000000, 0.1085108221, 0.0000000000, -0.3871417940, 1.2325048447, 0.2847453952, -0.4781619906, -0.0000000000, 0.0051243179, 0.3276753724, 0.5560778975, -0.4866808355, 0.2577957213, -0.0000000000, 0.0000000000, -0.8379829526, 0.4426234066, -0.0401714109, -0.0013744065, 0.0727709755, 0.8103954792, 0.4077992141, -0.6925768256, -0.0000000000, 0.0000000000, 0.0000000000, -0.0000000000, -0.2540900707, -0.0000000000, -0.8049098253, 0.0000000000, 0.4775116444, 0.0000000000, 0.0441441238, -0.0000000000, -0.0091741178, 1.1786478758, 0.0000000000, -0.0000000000, -0.0000000000, -0.1406778693, -1.1091725826, 0.0000000000, -0.0000000000, 0.1752242446, -1.0634527206, 0.3413187861, 1.2046289444, -0.2798653841, 0.0213839374, -0.0000000000, 0.0000000000, -0.2908082008, -0.9948088527, -0.0338827446, 0.0000000000, 0.0000000000, -0.2300229371, -0.0000000000, -1.1196292639, -0.5577636957, 0.7372495532, -0.0000000000, 0.4638285637, -0.0000000000, 0.1343947500, -0.0000000000, 0.0000000000, 0.2640388608, 0.0000000000, 0.0000000000, -0.0000000000, 0.0000000000, -0.0000000000, 0.1797095835, -0.1793408543, -0.0000000000, 0.0000000000, 0.0000000000, -0.0000000000, 0.1419166028, -1.3354517221, -0.1288897395, 0.0000000000, -0.0000000000, -0.0000000000, -0.0052943970, -0.1393867135, 0.0000000000, -0.0198423788, 0.0228668470, -1.1038138866, -0.4771991074, -0.0000000000, 0.0000000000, 0.0000000000, 0.0000000000, 0.0000000000, 0.0000000000, -0.0000000000, 0.2980138659, -0.7190961242, -0.6720566750, 0.7637639046, 0.0000000000, -0.4489146173, -0.0000000000, 0.0158962924, -0.0385696068, -0.8574177027, 0.6612322927, 0.3424228430, -0.3655270040, 0.0000000000, -0.0000000000, 0.0410698913, -0.0000000000, 0.0000000000, 0.0000000000, -0.9512867928, -0.3543680012, -0.0806942806, -0.5418865085, -0.0000000000, -0.2888187766, -0.0241993945, -0.0749527439, 0.1651521921, -0.3178853691, -0.0000000000, -0.0000000000, -0.1696015447, 0.0000000000, -0.0399821736, 0.0122881671, -1.2007164955, -0.5200082660, -0.0000000000, 0.0000000000, -0.7156304717, 0.2804897428, -0.0000000000, 0.0000000000, -0.0000000000, 0.3014008701, 0.5226742029, -0.3578376174, 0.0000000000, 0.0000000000, 0.4733929038, 0.0000000000, 0.0000000000, 0.7809527516, -0.0000000000, -0.0771928951, 0.6473526359, 0.0000000000, 0.0000000000, 0.6277751327, 0.0000000000, -0.2955808342, 0.0732569247, -0.3670291305, -0.7359281182, -0.0258291420, 0.1381710023, -0.0000000000, 0.0745294914, 0.0000000000, -0.0000000000, -0.4984333813, -0.4421783090, 0.0035853751, 0.0000000000, -0.2149276435, 0.3440894783, -0.0000000000, 0.4633467495, 0.0000000000, 0.0000000000, -0.6674615741, -0.0000000000, -0.0000000000, -0.0000000000, 0.0000000000, 0.4185500443, 0.0000000000, 1.4224817753, 0.0369737037, 0.5168015957, 0.1385684162, 0.9134060144, 0.1889313459, 0.7835717201, -0.0206353813, 0.0000000000, 0.0000000000, -0.0704141334, 0.0000000000, 0.0000000000, 0.0000000000, -0.2819806933, -0.0000000000, 0.3453477025, -0.0018944311, -0.5488958955, -0.6746690869, -0.1722477227, -0.0000000000, -0.0000000000, 0.0000000000, -0.6842221618, 0.0601379871, -0.0112499101, -0.0019463697, 0.0383650362, -0.7631459236, -0.0000000000, -0.0000000000, 0.7582686543, -0.0000000000, -0.0530842692, -0.3730818927, -0.5266798139, -0.4007903636, -0.0000000000, 0.0000000000, 0.0000000000, -0.0000000000, -0.0000000000, 0.7601059079, -0.0087937471, 0.8692456484, 0.2410420030, -0.5639436245, -0.7731009126, 0.0000000000, -0.0000000000, -0.3082724810, 0.0000000000, -0.0000000000, -0.0000000000, -0.0000000000, -0.0000000000, -0.0604592077, 0.0000000000, 0.4243394732, -0.0000000000, 0.2346198112, -0.0000000000, -0.0000000000, -0.0000000000, -0.0000000000, -0.9993892312, 0.0263711475, 0.0000000000, 0.0016453650, 0.0000000000, -0.5140697360, 0.0000000000, -0.5674508810, 0.0249628797, -0.0000000000, -0.0000000000, -0.0000000000, 0.3621660471, 0.1461539716, 0.1933263242, 0.0000000000, -0.6859272122, 0.4420782328, -0.1362675279, -0.0000000000, -0.5392952561, 0.0000000000, -0.2725889981, 0.0000000000, -0.0000000000, -0.1880944669, 0.0000000000, 0.0083784042, 0.0000000000, -0.1363223344, -0.0032599748, 0.9289415479, -0.0000000000, 0.0610697158, 0.0000000000, 0.4379239082, 0.5109122992, 0.5973713398, -0.0228380114, -0.2041379660, 0.0000000000, -0.4610430300, -0.7253291607, 0.0000000000, -0.0643688068, -0.5875316858, -0.3285256326, -0.3768866062, -0.0000000000, -0.1618632823, 0.0735736713, -0.0000000000, -0.0515833348, 0.0000000000, 0.0000000000, -0.2182311267, 0.8620032072, 0.7608918548, -0.5702522993, -0.4670119286, 1.0129314661, -0.4064707160, 0.1314187646, 0.0000000000, -0.0000000000, 0.8693095446, -0.0000000000, -0.0000000000, -0.0000000000, 0.0000000000, 0.4529350996, -0.0000000000, -0.2161159962, 0.0000000000, 0.0000000000, -0.0000000000, 0.0000000000, -0.4584788978, 0.4430543482, -0.0000000000, 0.0000000000, -0.0000000000, -0.0000000000, -0.0000000000, -0.0000000000, -0.6710379720, 0.0000000000, 0.2737237215, 0.0000000000, -0.0174725894, 0.0000000000, -0.0000000000, -0.0000000000, -0.0000000000, 0.3425735533, -0.0000000000, 0.0000000000, 0.4151668549, 0.0000000000, -0.7842709422, -0.0000000000, -0.0785782263, 0.1308618039, -0.1356327981, -0.0000000000, -0.0000000000, 0.4681120813, -0.2249379009, -0.0000000000, -0.0000000000, 0.0000000000, 0.0000000000, -0.0000000000, 0.0034934874, 0.0000000000, -0.0000000000, -0.5152392387, -0.1795916110, -0.0000000000, -0.0000000000, 0.0000000000, 0.0000000000, -0.0914950371, -0.0000000000, -0.0000000000, 1.0010876656, -0.0000000000, -0.0000000000, -0.0000000000, 0.6414468288, 0.5163640976, -0.0000000000, -0.0000000000, -1.0696690083, 0.7429757118, 0.0000000000, -0.4261346161, 0.0000000000, -0.0000000000, 0.6474395394, 0.0000000000, 0.0000000000, 0.0022437796, -0.0000000000, 0.0000000000, 0.5913057327, 0.3732151091, -0.7422552705, 0.0000000000, 0.9262008667, 0.0000000000, 0.0635462254, -0.4578753412, 0.0000000000, -1.1609379053, -0.0000000000, -0.9514378905, 0.7220624685, 0.8944950700, 0.0000000000, 0.4711294174, 0.2831148207, 0.0000000000, -0.0313640162, -0.0710794330, 0.0000000000, 0.0000000000, 0.0000000000, -0.0000000000, -0.0000000000, 0.0000000000, 0.2381065935, 0.5108507872, 0.0000000000, 0.0000000000, -0.8940789104, 0.0000000000, -0.3441894948, -0.0000000000, 0.6272848845, -0.0000000000, 0.0000000000, -0.0000000000, 0.3092428744, -0.0000000000, 0.2376938164, 0.0000000000, 0.0000000000, 0.0000000000, 0.0000000000, -0.0000000000, -0.0000000000, -0.0000000000, -0.1916222721, -0.7327374816, -0.7222683430, 0.0000000000, -0.1231475323, 0.0535132736, 0.0000000000, -0.1209900007, -0.0000000000, 0.0000000000, 0.0000000000, -0.7304660678, -0.0417354256, -0.0000000000, 0.0072952905, -0.2059255689, 0.0000000000, -0.1364661902, -0.3283994794, -0.3626445830, -0.4471928477, 0.0000000000, -0.3313153982, -0.9556096792, -0.0000000000, -0.1742309928, -0.0655761957, 0.0000000000, -0.0073314062, 0.1174246669, -0.0000000000, 0.0300498512, -0.1263973713, 0.0000000000, 0.0137486327, 0.3528531194, -0.0000000000, 0.3172977567, -0.4820000529, -1.0458929539, -0.4652426243, -0.0000000000, -0.0773108527, 0.0000000000, 0.0408140309, -0.0000000000, -0.8210281134, -0.0000000000, 0.0000000000, -1.0212149620, 0.2043122947, 0.1837230921, -0.0000000000, -0.7846521139, -0.0000000000, -0.0000000000, -0.0000000000, -0.6067920923, -0.5344889760, -0.0000000000, 0.2631730139, 0.0000000000, 0.2920879424, 0.0000000000, -0.6362397075, -0.0000000000, 0.4341276884, -1.2846754789, -0.5044980049, -0.0000000000, -0.0000000000, -0.0000000000, -0.7510266900, 0.0000000000, -0.0000000000, -0.0000000000, 0.1658859551, -0.4922189116, 0.0000000000, -0.1993077546, 0.0000000000, 0.3791330755, -0.4158751965, -0.0000000000, -0.4345877171, 0.0000000000, -0.4238728583, -0.7129964232, -0.5349888206, 0.5499750972, -0.0000000000, 0.0000000000, -0.1876230389, -0.0000000000, 0.0000000000, -0.4426426291, 0.0000000000, 0.7651365399, 0.0000000000, -0.0000000000, 0.4540147185, -0.8812041283, -0.0000000000, 0.0000000000, -0.1859807372, 0.0000000000, 0.0000000000, 0.0000000000, -0.0000000000, -0.0000000000, -0.0000000000, -0.0000000000, 0.8160408735, -0.0000000000, 0.0000000000, -0.1411829591, 0.8603330851, -0.0000000000, -0.0000000000, -0.0000000000, -0.0000000000, 0.3006880581, -0.8778373003, -0.0000000000, -0.0852675512, -0.0000000000, -0.0000000000, 0.0000000000, -0.0000000000, 0.0000000000, -0.0000000000, 0.3214100003, -0.0675592944, -0.0000000000, -0.1954352260, 0.4572253227, -0.0000000000, 0.0000000000, 0.5001657009, -0.4871457219, -0.0000000000, -0.6528058052, -0.8649211526, 0.6417173743, -0.0644725263, -0.0000000000, -0.1627875566, 0.6963587403, -0.0283403713, 0.2577080131, -0.1983971000, 0.1779952645, 0.0000000000, 0.0000000000, -0.0042983373, -0.2361331135, 0.1455631852, -0.5120602250, -0.4240702987, -0.0431654714, -0.0000000000, -0.0000000000, -0.3349925876, -0.0281360187, -0.7984194756, 0.0000000000, 0.0879129767, -0.6326983571, 0.0000000000, -0.0000000000, 0.6946530938, 0.4892507195, -0.0000000000, 0.6221467257, 0.0713531449, 0.0000000000, 0.0000000000, -0.0000000000, 0.0000000000, 0.0000000000, -0.0000000000, -0.0000000000, -0.3478892148, -0.5989835858, -0.5052611828, -0.5152620077, -0.0920359418, 0.0000000000, 0.0000000000, 0.3694073856, 0.0000000000, -0.2662070990, -0.1980653703, -0.0000000000, 0.5131469369, -0.3212231994, 0.0000000000, -0.4259351492, 0.0000000000, -0.0000000000, -0.1222379133, 0.0000000000, -0.0000000000, -0.0247203838, -0.0000000000, 0.0000000000, 0.0019253318, 0.5803691745, -0.0000000000, -0.6869401932, 0.6755298376, -0.0524574034, -0.6851885915, 0.4041742086, -0.0000000000, -0.0000000000, 0.6215235591, 0.3161371052, 0.0000000000, 0.0000000000, -0.0000000000, 0.0326864012, -0.0000000000, 0.7062376738, 0.0000000000, -0.0000000000, 1.0879628658, 0.4483346045, -0.5367794037, -0.6760339141, 0.9093016982, -0.2535684407, -0.0000000000, 0.0417169631, -0.0354155712, 0.0000000000, 0.1952324659, 0.0000000000, -0.4079893529, 0.0000000000, -0.4772165716, -0.0620724969, -0.0000000000, 0.3215743005, -0.0000000000, 0.0000000000, 1.0813776255, 0.0000000000, -1.0080899000, -0.0000000000, 0.6822721362, -0.8927408457, -1.0602463484, 0.0000000000, -0.0000000000, 0.0000000000, 0.2561115324, -0.0305412747, 0.0000000000, -0.6701310873, -0.1940399110, -0.3549443185, 0.0000000000, 0.0000000000, 0.2434628755, -0.0000000000, -0.3463509381, -0.0000000000, 0.0000000000, -0.0000000000, 0.6693184376, 0.1878676713, -0.0000000000, 0.0000000000, -0.0000000000, 0.2598709762, -0.0338892490, -0.0000000000, -0.7970963717, 0.0000000000, 0.1785269529, -0.5014518499, -0.0000000000, -0.0000000000, 0.2865992486, 0.0000000000, 0.4517412782, 0.5102909803, -0.0000000000, -0.0000000000, 0.1376701891, -0.0433426537, -0.0000000000, -0.0201785378, 0.0000000000, -0.2720239758, -0.8383102417, 0.2135219872, -0.1337691694, -0.0000000000, -0.0000000000, 0.0000000000, 0.3819533587, -0.0000000000, 1.0221570730, 0.0000000000, 0.0000000000, 0.9469016790, -0.0000000000, 0.0000000000, -0.0000000000, -0.0000000000, -0.7076894641, 0.0000000000, 0.4808051586, -0.0000000000, 0.0000000000, 0.1111849993, -0.0000000000, -0.0000000000, -0.0000000000, 0.0000000000, -0.4621485174, 0.0000000000, 0.0068535293, 0.0666869357, 0.5906402469, 0.0000000000, -0.4561976492, -0.0000000000, 0.8659474850, 0.0000000000, 0.0000000000, -0.0000000000, -0.0000000000, 0.0000000000, -0.2876483500, 0.0000000000, 0.2759185135, -0.0321875364, 0.1789897084, 0.5627709627, -0.2312088907, 0.0000000000, 0.0000000000, -0.0000000000, 0.0000000000, 0.3922799230, -0.7953584790, -0.1428062618, 0.1470767707, -0.0000000000, 0.0000000000, 1.2100871801, -0.0000000000, 0.4096540809, -0.0000000000, 0.9770859480, -0.0053003640, -0.0000000000, -0.0882491842, -0.4500890374, 0.2209623456, 0.4527264237, -0.3769978285, -0.0000000000, 0.0000000000, -1.0976700783, -0.1237204969, 0.0000000000, 0.6161265969, 0.4200865328, -0.3514364064, -0.0000000000, -0.6053631306, -0.0000000000, 0.0000000000, -0.0000000000, -0.0000000000, 0.0000000000, -0.0000000000, 0.1206797734, 0.0000000000, -0.0000000000, -0.6583327055, 0.1175354347, -0.3321607709, -0.0000000000, -0.4635771513, -0.1162157431, 0.0000000000, -0.0000000000, 0.0000000000, -0.0000000000, -0.1081408188, 0.0000000000, 0.2996634543, -0.0964810476, 0.1947134137, -0.0000000000, 0.0000000000, 0.6406217217, 0.0000000000, 0.0000000000, -0.7676306963, 0.0000000000, 0.6532660723, 0.3589467704, 0.0000000000, -0.1098437756, -0.0000000000, 0.6168856621, 0.2880020440, 0.0000000000, -0.7137592435, 0.0000000000, 0.0000000000, 0.0000000000, -0.0000000000, 0.0000000000, 0.0045249201, 0.5528812408, 0.0000000000, -0.4897886813, -0.0000000000, -0.0000000000, 0.0684889629, -0.0000000000, 0.0476918630, -0.4468311965, -0.0000000000, -0.1666891724, -0.2939103246, 0.6454695463, 0.0000000000, 0.8001344800, -0.0000000000, 0.0000000000, 0.0000000000, 0.9357571602, 0.2906595767, -0.4300634861, 0.0000000000, 0.2761353254, 0.0000000000, 0.0000000000, 0.1735979468, -0.1336086392, -0.0000000000, -0.0761601701, -0.0011118851, -0.7469798923, 0.3561370075, -0.0000000000, -1.0396177769, -0.2339575738, 0.9473481774, 0.0000000000, 0.0000000000, 0.4519674480, -0.0000000000, 0.4771223068, -0.0000000000, 0.0000000000, -1.4282972813, 0.2032804638, 0.0000000000, -0.0000000000, -0.0000000000, 0.0000000000, -0.0000000000, -0.0000000000, -0.0000000000, -0.2165109664, 0.0000000000, 0.8633781075, 0.7760222554, 0.0000000000, 0.4031659365, -0.0000000000, 0.4109886587, 0.0000000000, -0.0000000000, -0.0000000000, -0.0000000000, 0.0000000000, -0.5218229890, 0.0000000000, 0.0000000000, 0.0000000000, 0.0003153787, -0.0056459564, 0.0000000000, -0.0000000000, -0.6593553424, -0.4040912986, -1.1201064587, -0.0000000000, -0.0000000000, -0.0000000000, -0.0000000000, 0.5795932412, 0.0000000000, -0.6702715755, 0.0000000000, -0.4570297599, 1.3441472054, -0.0000000000, -0.3665407002, -0.0000000000, -0.0000000000, -0.0000000000, -0.5947999358, -0.3811426163, -0.4597692192, 0.0000000000, -0.5181283951, 0.9080697298, -0.0000000000, -0.6710411906, -0.7183742523, 0.0000000000, -0.5118356347, -0.8245174885, -0.0000000000, -0.6464855075, -0.0000000000, -0.2164605409, 0.2897672355, 0.0000000000, 0.1288741678, -0.0000000000, 0.0000000000, -0.7492803335, 0.0000000000, -0.0000000000, -0.0518266298, -0.0000000000, 0.0000000000, 0.0000000000, 0.0017534848, 0.6429347992, 0.7792971134, 0.3619389534, 0.9727329016, 0.0000000000, 0.0000000000, -0.0000000000, 0.0000000000, 0.0000000000, -0.0000000000, 0.0000000000, 0.0000000000, -0.2171254307, 0.0000000000, 0.0000000000, -0.0000000000, -0.0000000000, -0.5040204525, -0.0000000000, -0.2965409160, -0.0000000000, 0.2644152045, 0.5699528456, -0.0000000000, 0.0000000000, -0.0000000000, -1.3160094023, 0.1793155968, -0.0000000000, -0.0000000000, 0.0000000000, -0.0000000000, 0.0000000000, 0.0000000000, -0.6285550594, -0.2368695438, -0.3815712035, -0.0000000000, 0.0000000000, 0.0000000000, 0.0000000000, -0.0000000000, -0.0000000000, -0.3443234563, -0.0000000000, -0.1847076714, 0.0000000000, -0.0000000000, -0.0000000000, -0.3535350263, 0.0169908758, 0.3506520987, -0.8323228955, 0.0000000000, -0.0000000000, 0.9435766339, 0.3507098258, 0.2589743137, -0.2392613888, 0.1189657301, -0.7493866086, 0.0000000000, 0.3774804771, -0.0000000000, -0.0000000000, -0.6453405023, -0.0000000000, -0.6557046175, 0.0016264759, 0.0000000000, 0.6006137729, 0.2011439204, 0.3753538132, 0.4832975268, -0.6570068598, 0.1886862516, -0.0000000000, -0.0579748414, -0.0559289157, 0.9172636271, 0.4256621599, -0.0000000000, -0.0000000000, 0.0000000000, 0.4938666523, -0.7466096282, -0.2049230337, -0.0000000000, 0.4622775316, 0.7641305923, 0.0000000000, 0.3607012033, 0.0000000000, 0.0000000000, -0.0000000000, -0.2590491772, -0.0277190153, -0.5111392140, 0.0000000000, 0.0831241384, 0.0000000000, -0.0000000000, -0.0621622317, 0.0000000000, -0.1303036660, -0.5780839920, 0.7260196805, -0.0000000000, -0.8723930120, 0.0000000000, -0.9045263529, 0.3116560280, -1.1430082321, -0.3700191975, 0.3808386326, 0.7904196978, 0.0000000000, -0.0000000000, -0.0000000000, -0.3471687138, 0.2357472479, -0.0000000000, -0.0000000000, 0.0000000000, -0.0600468442, -0.0119821737, -0.0000000000, 0.0520325676, -0.0000000000, 0.0000000000, 0.0000000000, 0.0126057621, 0.0000000000, -0.0000000000, 0.0000000000, 0.7615733147, 0.0000000000, -0.0068199914, 0.0000000000, -0.0000000000, 1.0107454062, -0.0000000000, -0.0000000000, -0.0000000000, -0.0000000000, -0.0000000000, 0.9337481856, 0.0000000000, -0.5164914727, 0.7467250228, -0.4677861035, 1.3884165287, -0.5670078397, -0.2872746885, -0.0000000000, 0.8141222000, 0.0000000000, 0.0000000000, 0.4402424097, 0.7198369503, -0.0000000000, -0.0000000000, -0.8160093427, -0.7162165642, 0.0000000000, -0.0000000000, 0.0000000000, -0.1491239965, 0.4674902856, 0.0000000000, -0.0000000000, -0.4546145797, 0.8820859194, -0.8509666920, -0.5626409054, 0.5706449151, -0.1745971590, -0.0000000000, 0.0000000000, 0.0446008854, -0.0000000000, 0.5271706581, 0.0000000000, -0.6114661098, 0.2784362733, 0.0000000000, 0.0000000000, 0.0000000000, -0.0000000000, -0.0000000000, 0.0000000000, -0.7360373139, -0.3575007021, -0.1339821070, 0.0000000000, -0.0000000000, -0.0790293589, 0.0000000000, 0.0000000000, -0.0000000000, 0.0000000000, -0.0000000000, -0.8123770356, -0.0401749797, -0.9360029101, -0.7717443109, 0.1378783435, 0.0000000000, 0.4323501885, -0.2632043660, -0.3412482738, -0.8274368644, -0.7613386512, -0.7173931003, 0.5287571549, -0.0000000000, 0.0000000000, -0.0000000000, -0.0000000000, -0.0000000000, -0.9416491985, -0.0000000000, 0.3897596002, -0.3440032601, 0.5688551664, 0.4715766311, 0.0000000000, -0.0000000000, 0.0000000000, -0.0000000000, -0.0395475514, -0.4705481529, -0.0000000000, -0.2836714983, 0.5521518588, 0.0000000000, -0.0000000000, 0.0000000000, 0.0000000000, 0.0000000000, -0.0000000000, -0.6113758683, -0.0000000000, -0.2422136366, -0.0000000000, 0.0000000000, 0.0000000000, -0.0000000000, 0.0000000000, -0.0000000000, 0.6910108328};
#endif

#endif
