//Numpy array shape [42, 64]
//Min -0.367835372686
//Max 0.366621464491
//Number of zeros 1344

#ifndef W22_H_
#define W22_H_

#ifndef __SYNTHESIS__
dense_1_weight_t w22[2688];
#else
dense_1_weight_t w22[2688] = {-0.0000000000, -0.1783779860, -0.1203934625, -0.0000000000, 0.0000000000, -0.0000000000, -0.0000000000, -0.0000000000, -0.1407007575, 0.0352779515, 0.1144718975, -0.0000000000, 0.6115644574, 0.0000000000, 0.0000000000, -0.1639502496, -0.5847939849, 0.1440726668, -0.0000000000, 0.0000000000, 0.0000000000, 0.0000000000, 0.3785614371, 0.0000000000, -0.0000000000, 0.7279834151, 0.0000000000, 0.0000000000, -0.0000000000, -0.0000000000, 0.0000000000, -0.9140992165, -1.0112358332, 0.0000000000, -0.0000000000, 0.2932750583, 0.0000000000, -0.3209016323, -0.0000000000, 0.0000000000, -0.0000000000, -0.0000000000, -1.0312681198, 0.0000000000, 0.5308896303, 0.5719164610, -0.0000000000, 0.4623617828, -0.0000000000, 0.0000000000, -0.2435360104, 0.5048650503, -0.3334659338, 1.2291988134, -0.9699430466, 0.0000000000, -0.5505247116, -0.0000000000, -0.5852556825, 0.0455490276, 0.0871468410, 0.4525106251, -0.3197382689, 0.0000000000, 0.0000000000, -0.0000000000, -0.0000000000, 0.0000000000, 0.6793394089, 0.0000000000, 0.3309399188, -0.0000000000, 0.4858093858, -0.0000000000, -0.0000000000, 0.0000000000, 0.0000000000, 0.0000000000, 0.0000000000, 0.0000000000, 0.0096100038, 0.4244356155, 0.1229523644, 0.2340348810, -0.2126092613, -0.6710100174, 0.0000000000, 0.0000000000, -0.3331460357, 0.0832307860, 0.0000000000, -0.1116099283, 0.2826111019, 0.0000000000, -0.0000000000, -0.0000000000, -0.0000000000, -0.0000000000, 0.0000000000, 0.2077317983, -0.0000000000, 0.0000000000, -0.9955868721, -0.6226622462, -0.0000000000, 0.0000000000, -0.0000000000, -0.1994832307, 0.0000000000, -0.0000000000, -0.0000000000, -0.3655058146, 0.0000000000, 0.6287381649, -0.0034881486, -0.0000000000, 0.1647256464, -0.0964746475, 0.0000000000, 0.0000000000, -0.2290385514, -0.0000000000, -0.0000000000, -0.0000000000, -0.0000000000, 0.0508971922, 0.6709616184, -0.0000000000, 0.0000000000, -0.7396616340, 0.0000000000, -0.3164749444, -0.0000000000, -0.6049304008, -0.5389834046, 0.0000000000, -0.7680083513, 0.0083019482, -0.0000000000, -0.7270815969, 0.6835566163, 0.0000000000, -0.0000000000, -0.0000000000, -0.9460732341, -0.0000000000, -0.0000000000, -0.0000000000, -0.7638034821, -0.0000000000, 0.0000000000, -0.0000000000, 0.5899016857, 0.0000000000, -0.0000000000, 0.0000000000, -0.3547736704, -1.0285288095, -0.2355033010, -0.8895911574, -0.0000000000, -0.0000000000, 0.0000000000, 0.0000000000, 0.0000000000, -0.0000000000, -0.0000000000, -0.0000000000, 0.4288431704, 0.0000000000, 0.8411985040, -0.0000000000, -0.0000000000, 0.4198657274, 0.0000000000, -0.0000000000, 0.3837712109, -0.0665754676, -0.0000000000, -0.2976078987, -0.2211015821, -0.7024533153, 0.4393522143, -0.2457626760, -0.0000000000, 0.0000000000, 0.0000000000, 0.0000000000, -0.0000000000, -0.0000000000, 0.0000000000, 0.9748620391, -0.9737536907, -0.0402665883, -0.0000000000, -0.0000000000, 0.4274660647, -0.0000000000, -0.0000000000, -0.0000000000, 0.6396661401, 0.0000000000, 0.4883749783, 0.0000000000, 0.6860985756, 0.3357150853, 0.8442209363, 0.1519659013, -0.6074396372, 0.3466748893, -0.3565357924, 0.0000000000, 0.4390917122, -0.0000000000, -0.5613616109, 0.3990828991, 0.0000000000, 0.0000000000, 0.5921649933, 0.0000000000, 0.9038672447, -0.7310617566, 0.0000000000, 0.1641420424, -0.0000000000, 0.0000000000, -0.0000000000, -0.0000000000, 0.4054812193, 0.3219464123, -0.0000000000, 0.3344249129, -0.0000000000, 0.3689208627, 0.5023550391, 0.0834328607, -0.0000000000, -0.7783020139, -0.0000000000, -0.0000000000, 0.0240829289, -0.0000000000, 0.0000000000, 0.0000000000, 0.0000000000, 0.0000000000, -0.0000000000, 0.5498608351, -0.0000000000, -0.9150279164, -0.5874212384, 0.4332617819, 0.0000000000, -0.0662834346, -0.1788614839, -0.5065513253, 0.0000000000, 0.3631477654, 1.0339149237, 0.0000000000, 0.3675401807, -0.0000000000, -0.2927362323, -0.0000000000, 0.0000000000, -0.0000000000, 0.0000000000, -0.0000000000, 0.0000000000, 0.0025375152, 0.0654610395, -0.4225566387, -0.0000000000, -0.0000000000, -0.0000000000, -0.3411806822, -0.3634658754, 0.0000000000, 0.1271653026, 0.4568175077, 0.0000000000, -0.5764241815, -0.4600681663, 0.0067086997, 0.3977850676, -0.6348844171, -0.0792514011, -0.0000000000, -0.0000000000, -0.0000000000, 0.5244091153, -0.0000000000, 0.4507250488, 0.0000000000, -0.0000000000, 0.2844466567, -0.6370269656, -0.0000000000, 0.2409926802, -0.0000000000, -1.1761283875, 0.2234695554, -0.0000000000, 0.3959844112, -0.2827550173, -0.7449343801, 0.0122462520, 0.0000000000, 0.0000000000, -0.2796404064, -0.5619439483, -0.7131767869, 0.0000000000, -0.4970691800, -0.0000000000, 0.8481342793, -0.2068860978, -0.4834724069, 0.0276000686, 0.3322401345, -0.8838313222, -0.6061937809, 0.0141068548, -0.8131580353, 0.7978439331, 0.0000000000, -0.3495267630, 0.0000000000, -0.0692976788, -0.1517251581, 0.6031172872, -0.0000000000, -0.2261553258, -0.2961989343, 0.0411740802, -0.0889733136, 0.2962711453, -0.2196510434, -0.0168561228, -0.0000000000, -0.1434261501, 0.0000000000, -0.8186772466, 0.0000000000, -0.1268895417, 0.0000000000, 0.5360031128, -0.0000000000, 0.0000000000, -0.2388882190, 0.0000000000, -1.4135851860, -0.0000000000, 0.0000000000, 0.0000000000, -0.3928027749, 0.4879749417, 0.0000000000, 0.4557575583, 0.3566612303, -0.0000000000, -0.0000000000, 0.0000000000, -0.2893274128, -0.1776496619, -0.0000000000, -0.3053863347, -0.3627358377, -0.0393159576, 0.6432271600, 0.0000000000, 0.0000000000, 0.0000000000, -0.0000000000, -1.4615465403, 0.4158265889, -1.1248003244, 0.0887066722, 0.0000000000, -0.0000000000, 0.1789786369, 0.9106979370, -0.0000000000, -0.0638602152, -0.0000000000, -0.0000000000, 1.0008850098, -0.2803482115, 0.0000000000, -0.0000000000, -0.1400686800, -0.0000000000, -0.7849077582, -0.2505636513, 0.3990987241, -0.0000000000, 0.0000000000, -0.4853150845, 0.5460248590, 0.0000000000, -0.0000000000, -0.0000000000, -0.0000000000, 0.3993103504, -0.4271659255, -0.0000000000, -0.0000000000, 0.0000000000, -0.0000000000, 0.0000000000, -0.0000000000, 0.0000000000, 0.0000000000, -0.0000000000, 0.3493179083, -0.0000000000, -0.0000000000, 1.5993032455, 0.0000000000, -0.9057922959, 0.0000000000, 0.0000000000, 0.5130060911, -0.0483338200, -0.0000000000, -0.0000000000, 0.0000000000, 0.3924108744, -0.0000000000, 0.6910345554, -0.0000000000, 0.5616672635, 0.6271970868, -0.0000000000, 0.1577164978, 0.0000000000, 0.0000000000, -0.0000000000, 0.0000000000, -0.0000000000, -0.4461018145, -0.4345549941, 0.0000000000, -0.0000000000, -0.0000000000, 0.0000000000, -0.0000000000, -0.0000000000, 0.0000000000, 0.6434216499, -0.0000000000, 0.1242249683, -0.0288178045, 0.0000000000, 0.0000000000, 0.0000000000, 0.0000000000, -0.0000000000, -0.0000000000, 0.0000000000, 0.0000000000, 0.6097039580, -0.0000000000, -0.1655901521, 0.0000000000, 0.3946448267, 0.0000000000, -0.1198249608, 0.0593644716, -0.0000000000, -0.0000000000, 0.0000000000, 0.0235399064, 0.0000000000, -0.0000000000, -0.0000000000, 0.2771728337, -0.0000000000, -0.5207628012, -0.4988350570, -0.0000000000, 0.4329192638, -0.2442256510, 0.0000000000, -0.0000000000, 0.2550861537, -0.0000000000, 0.0000000000, -0.0000000000, -0.0000000000, -0.0000000000, -0.0000000000, -0.0000000000, -0.0000000000, -0.0000000000, 0.0000000000, -0.0000000000, 0.2943164408, -0.7449216843, 0.1234218851, 0.0000000000, -0.0000000000, 0.5923371911, -0.0000000000, 0.2898012698, -0.0264470018, -1.4568365812, -0.0000000000, 0.0000000000, -0.6654967666, -0.0000000000, -0.0000000000, -0.1966403574, -0.0735544562, -0.0000000000, -0.0187019575, -0.5048570633, -1.1588128805, -0.0000000000, 0.0000000000, 0.0000000000, 0.0000000000, -0.0000000000, -0.0000000000, 0.0000000000, 0.2142372578, 0.0000000000, -0.0000000000, 0.5301278830, -0.0028389089, -0.0000000000, -0.0000000000, 1.6128256321, -0.7898833156, -0.0000000000, -0.6300082207, 0.1856122017, 0.0000000000, 0.0000000000, 0.0000000000, 0.0000000000, -0.7473418117, 0.0000000000, -0.1393564492, 0.0000000000, 0.0000000000, -0.0000000000, 0.0000000000, 0.4322411716, -0.0000000000, -0.0000000000, -0.0000000000, 0.0000000000, -1.0436645746, 0.0000000000, -0.0000000000, -0.8154421449, 0.0734610111, -0.1174179167, 0.0000000000, -0.0067955004, 0.0030236519, 0.4604767561, 0.6537702084, 0.0000000000, -1.0346852541, 0.6785969138, -0.7948255539, 0.3774760365, 0.8839370608, 0.0000000000, -0.0000000000, -0.8363274932, -0.0000000000, -0.0000000000, 0.5614051819, 0.0000000000, 0.3321579993, -0.0000000000, -0.0000000000, -0.0000000000, 0.0000000000, -0.0000000000, 0.0000000000, 0.0000000000, 0.9247992039, -0.5109738708, -0.0000000000, 0.0000000000, -0.0000000000, 0.0000000000, -0.4330188036, -0.0000000000, -0.0000000000, 0.7737705708, -0.0000000000, 0.0000000000, 0.0000000000, -0.0000000000, -0.8486550450, -0.1137612239, -0.9861301780, -0.0000000000, 0.5089231133, -0.3571772873, 0.9734095335, 0.0000000000, -0.4703636467, -0.8730325699, -0.0000000000, 0.6370865703, 0.0000000000, -0.0000000000, -0.6450176835, -0.1106727347, 0.1394899040, -0.7688752413, -0.0197878871, -0.0099062668, 0.0000000000, -0.0000000000, 0.6492161751, -0.0000000000, 0.1933995187, -0.6481160522, -0.2656493187, -0.0996825248, -0.5327875018, 0.0000000000, 0.3431291282, 0.2872517407, -0.0000000000, -0.3397092223, 0.6897778511, -0.0308917444, -0.0000000000, -0.0000000000, -0.0000000000, 0.0000000000, 0.3916931748, 0.3948751092, -0.0000000000, 0.7561137676, 1.0422230959, 0.0000000000, -0.9470161200, 0.0000000000, -0.0000000000, -0.6516584754, 0.0000000000, -0.0000000000, -0.0000000000, -0.0000000000, -0.0000000000, 0.5970328450, -0.4027424455, 0.7845336199, -0.2160699815, -0.0000000000, -1.0648171902, -0.0000000000, -0.0000000000, 0.4646585286, 0.0000000000, 0.1610879749, 0.0000000000, -0.0031564359, 0.0000000000, -0.2592676282, -0.0000000000, -0.0000000000, -0.0000000000, 0.3658589423, -0.3537693620, 0.0000000000, -0.0000000000, 0.0000000000, -0.0000000000, 0.0089733303, 0.0410709716, 0.0000000000, 0.0000000000, 0.0000000000, 0.1719747782, -0.0000000000, 0.0233748555, -0.2681146860, 0.5858744979, 0.3604762852, -0.0000000000, 0.5308165550, -0.0000000000, -0.3580297530, 0.4682657123, -0.0000000000, -0.0264116023, -0.0000000000, 0.2824881971, -0.0763041973, -0.0000000000, -0.0000000000, 0.9797461033, -0.0000000000, -0.0000000000, -0.0000000000, 0.1746145189, -0.4719690382, 0.7395846248, -0.0000000000, 0.0000000000, 0.0000000000, 0.0000000000, -1.1260390282, 0.0000000000, -0.4526559412, 0.0398496874, -0.4354976714, -0.5319636464, -0.5470831394, 0.1924028397, -0.0000000000, 0.0608685799, 0.0000000000, -0.0000000000, 0.0013200160, -0.2225237042, -0.0000000000, -0.6420745254, 0.0000000000, -0.4442442954, -0.0000000000, 0.0000000000, 0.0000000000, -0.0000000000, -0.6279626489, -0.3786712587, 0.0000000000, -0.0000000000, 0.0000000000, 0.0000000000, 0.0000000000, -0.3097965419, -0.2823156118, 0.4903737307, -0.2644450366, -0.0000000000, -0.4825777113, 0.0206021015, -0.9912618399, 0.0000000000, 0.0000000000, -0.5051808953, 0.8309736252, 0.6384408474, 0.6363152266, 0.0629228055, -0.8692539334, -0.3415911496, -0.8453761935, 0.0046270825, 0.0000000000, -0.0000000000, 0.0000000000, -0.0000000000, -0.0000000000, -0.0000000000, 1.1978472471, -0.0000000000, 0.0092596076, -0.0000000000, 0.0000000000, -0.0000000000, -0.0000000000, 0.0000000000, -0.0000000000, 0.0000000000, 0.2379927933, 0.8242027760, 0.0000000000, 0.3163355291, 0.0000000000, -0.1772413105, 0.0143563915, 0.0000000000, 0.0000000000, 0.1143547297, 0.3112547696, -0.0000000000, 0.0000000000, -0.6326575875, -0.0000000000, -0.2495559007, 0.3268570304, -0.0000000000, 0.5909217000, 0.0000000000, -0.6827564836, -0.5090964437, 0.0010835016, 0.0000000000, 0.7715250254, 0.0000000000, -0.0000000000, 0.0000000000, -0.3243923783, 0.7162207365, 0.0000000000, -0.0000000000, 0.0000000000, 0.0000000000, 0.0000000000, 0.0000000000, -0.3213738203, 0.0000000000, -0.3240858614, 0.0000000000, 0.5726475716, 0.8563956022, 0.6332450509, 0.0000000000, 0.1219984293, -0.0000000000, -0.2983794212, -0.0000000000, -0.0000000000, 0.0000000000, 0.2480241060, -0.0000000000, -0.2627687752, -0.0000000000, -0.0000000000, 0.0000000000, -0.1009836271, -0.0000000000, 0.0704587176, -0.4524641633, 0.6632175446, 0.3132721484, -0.0000000000, 0.0118902819, 0.0000000000, 0.0000000000, -0.0000000000, 0.3361568451, -0.0000000000, -0.6265335083, -0.4144499600, -0.0000000000, 0.0000000000, 0.4705844223, -0.0806689039, -0.0000000000, -0.0000000000, -0.5529526472, -0.0000000000, 0.5024894476, -0.4531665742, 0.2477638274, -0.0000000000, 0.6213005185, -0.0290261582, 0.2424669713, -0.9782441258, 0.0005093171, 0.6242655516, -0.0000000000, 0.1218253002, -0.0000000000, 0.0438155718, -0.1587999910, -0.2316966951, -0.0000000000, -0.3213117719, -0.0000000000, 0.1354724616, 1.3348897696, 0.1313646883, -0.5701628923, -0.0000000000, -0.3374707699, 0.6211562157, 0.3058295846, -0.0000000000, 0.0000000000, -0.1753459126, 0.3836174011, -0.4623905420, -0.0000000000, -0.0000000000, -0.4227475524, 0.0168062728, -0.0000000000, -0.4161761999, -0.8292602301, 0.3036838174, -0.0000000000, -0.0000000000, 0.9057354331, -0.5713097453, 0.0000000000, 0.9050438404, 0.3165670037, -0.0074807913, 0.4623255730, -0.1090789959, -0.0000004700, 0.4700429142, 0.0000000000, -0.6774692535, -0.0000000000, 0.1012954339, -0.1044861451, -0.0000000000, 0.0000000000, -0.3390686512, 0.0344733596, -0.0000000000, 0.0063239406, 0.0279784780, 0.0000000000, 0.0000000000, 0.0000000000, 0.0000000000, -0.4162389934, 0.0000000000, -0.0798947662, -0.0000000000, 0.0000000000, 0.7204819918, -0.0000000000, 0.0000000000, 0.0000000000, -0.5634077787, 0.4642152488, -0.1541543603, -0.2358204275, 0.0000134039, 0.2470454127, 0.0000000000, 0.0000000000, 0.0000000000, 0.0000000000, -0.0000000000, -0.5478507280, 0.8636111617, -0.7972534895, -0.2632107437, 0.0007224996, 0.5971803069, 0.4614036381, 0.0000000000, -0.0000000000, 0.9101586342, 0.3149830103, 0.0038032427, -0.0000000000, 0.0000000000, -0.0000000000, 0.1290415078, 0.0000000000, 0.2668481469, -0.0000000000, -0.0000000000, 0.7565702796, -0.0000000000, -0.0000000000, 0.9085792303, -0.0000000000, 0.7675903440, -0.7988468409, -0.0000000000, 0.0000000000, 0.0000000000, 0.0000000000, 0.7981268764, 0.3523392677, 0.3851617277, -0.0000000000, 0.9377338290, 0.4800792634, -0.0000000000, -0.0000000000, 0.0000000000, -0.0000000000, 0.0000000000, -0.4183924794, 0.4626401365, 0.0000000000, 0.0670198575, 0.0000000000, 0.0000000000, 0.2411007732, -0.4015375376, -0.0000000000, -0.0000000000, -0.0000000000, 0.8667472601, 0.3150673211, -0.3470481932, -0.0000000000, 0.0990990102, -0.0000000000, -0.0000000000, -0.0000000000, -0.0000000000, 0.0000000000, -0.0000000000, 0.2400658578, -0.0000000000, -0.0627451316, 0.7822641134, 0.7283830643, -0.3077908754, -0.0000000000, -0.0203422252, 0.3873212039, -0.2129516304, 0.0000000000, 0.9845641851, -0.0000000000, -0.0878384113, 0.2731483877, -0.0000000000, -0.0000000000, -0.7325300574, -0.6435354948, 0.0000000000, -0.2935251296, -1.1955870390, -0.4952623546, 0.0000000000, -0.0147950891, -0.4704479277, -0.2978087664, 0.5786513686, -0.3279724419, -0.5753821731, 0.0000000000, -0.0000000000, -0.9447537065, 0.1003186256, -0.0000000000, 0.7242064476, -0.8744670153, 0.3380093873, -0.6353423595, -0.0048041935, -0.0095693674, 0.2482151687, -0.0000000000, -0.7397890687, -0.7197566628, -0.0000000000, -0.0000000000, 0.0000000000, -0.0000000000, -0.0000000000, 0.5630965233, -0.1774690449, 0.7432203293, 0.5550729036, -0.3132854700, -0.0032042034, -0.7683910728, 0.0000000000, -0.5746152401, -0.2968901992, -1.1741826534, -0.0000000000, 0.0000000000, 0.0000000000, 0.0000000000, -0.6675454974, -0.6394727826, 0.2451553047, 0.0000000000, -0.9754184484, -0.0000000000, 0.0000000000, -0.7474099398, -0.0000000000, 0.0000000000, 0.0949952900, 0.0000000000, 0.0000000000, -0.0000000000, -0.0000000000, -0.6578281522, -0.6624663472, -0.0000000000, -0.4771023095, 0.0000000000, -0.0000000000, 0.0000000000, 0.0000000000, 0.0000000000, -0.0000000000, -0.0000000000, -0.0000000000, -0.8654060364, -0.2148444653, -0.0000000000, 0.0052574966, -0.0000000000, 0.0000000000, -0.0000000000, -0.0000000000, -0.5605360866, -0.0000000000, 0.1727028787, -0.9882273078, 0.1562518924, 0.0000000000, -0.3420417905, 0.1994905770, -0.0000000000, -0.5160326362, 0.0000000000, 0.0000000000, 0.0000000000, 0.0000000000, 0.0000000000, 0.0000000000, 0.0000000000, 0.4912177622, -0.0000000000, -0.0000000000, -0.0000000000, -0.2442693561, -0.4217609465, 0.0000000000, 0.1758275479, -0.0000000000, 0.0000000000, -0.0000000000, -0.6182643771, -0.0003506969, -0.0000000000, 0.2660793662, -0.6256945729, -0.1415538788, -0.2028337568, -0.0000000000, -0.0000000000, 0.6989193559, -0.4632274210, 0.0000000000, 0.0000000000, -0.6155422926, -0.6571466327, -0.7048487663, 0.0000000000, -0.2164101154, -0.2629708350, -0.0000000000, -0.0000000000, -0.5096720457, -0.0000000000, 0.0045839730, 0.0000000000, 0.0000000000, -0.8573043346, -0.0168739390, 0.0000000000, 0.0000000000, -0.1177227572, 0.1323974282, -0.0000000000, 0.1043090299, -0.0000000000, 0.8496519327, -0.0000000000, 0.4282973409, -0.0000000000, -0.3584575951, 0.0000000000, 0.2400051355, 0.8869345188, -0.0822004825, -0.7251650691, -0.3580980599, 0.2817404270, 0.0000000000, 0.6326993108, -0.0000000000, -0.0000000000, -0.6135872602, 0.0000000000, -0.2832354605, 0.2105818838, 0.6305055022, -0.0000000000, 0.5253197551, 0.5102469325, 0.0000000000, -0.0000000000, -0.0000000000, -0.0000000000, 0.0000000000, 0.0000000000, -0.0000000000, -0.0606320202, 0.0753749982, 0.0000000000, -0.3019258678, -0.4245471358, -0.0000000000, 0.0000000000, -0.0000000000, 0.1889409423, -0.6097415686, -0.0000000000, 0.0000000000, -0.0000000000, -0.0000000000, 0.1081429645, -0.2219088376, 0.0000000000, -0.0000000000, -0.1054875627, 0.0174499415, 0.0000000000, -0.6320044398, -0.4094917774, 0.0000000000, 0.3835893273, 0.0000000000, -0.0000000000, -0.0000000000, 0.0000000000, -0.4927912951, -0.8988630176, 0.0000000000, -0.0000000000, 0.0000000000, 0.0362286717, 0.0000000000, 0.5163596869, -0.6825180650, -0.4831402302, 0.0039483081, -0.0000000000, 0.0753297135, 0.8687797785, 0.3682102561, -0.9068434238, -0.1526282877, 0.0591236986, -0.0000000000, 0.0000000000, -0.0000000000, -0.4363640547, 0.2857922614, 0.0000000000, 0.0000000000, 0.0039147954, -0.3061111569, -0.0289583988, -0.0095521258, -0.0000000000, 0.0000000000, 1.3566614389, 0.5986507535, 1.0701125860, -0.0000000000, -0.0950286090, -0.0000000000, 0.1684071720, 0.0000000000, -0.4429231584, 0.0000000000, 0.0000000000, 0.0000000000, -0.9118481874, -0.0000000000, -0.0000000000, 0.4432203770, -0.7840766907, -0.1749787033, 0.0000000000, 0.1325623989, -0.2274841070, -0.4482288361, -0.0000000000, 0.0000000000, -1.1169790030, -0.0000000000, -0.3595901728, -1.0048269033, 0.0014583073, -0.0000000000, -0.0000000000, -0.0000000000, 0.0000000000, -0.0000000000, -0.0000000000, 0.0000000000, 0.0155389253, -0.0000000000, 0.0000000000, -0.0000000000, -0.0000000000, 0.4395924509, -0.0000000000, -0.0000000000, 0.0000000000, 0.2556022406, -0.0000000000, -0.0000000000, -0.3502767682, 0.0000000000, -0.0000000000, -0.0000000000, -0.0000000000, 0.0000000000, 0.0000000000, -0.0000000000, -0.0000000000, -0.0000000000, 1.4765553474, -0.0031719746, 0.0000000000, -0.6871790886, -0.0000000000, -0.0000000000, -0.2455198765, -0.5838192701, -0.3730279207, -0.0000000000, -0.0000000000, -0.3173802793, -0.0000000000, -0.0465390757, -0.0000000000, 0.0000000000, -0.0596160516, -0.1935055703, 0.0000000000, 0.0000000000, -1.1190661192, -0.0000000000, 0.0000000000, -0.2100808024, -0.6164951324, -0.7239049673, 0.1227739230, 0.0000000000, -0.4797312319, -0.0000000000, 0.1506355703, -0.0000000000, -0.4528088272, 0.0000000000, 0.6445079446, 0.0261060242, 0.0511627309, -0.0000000000, -0.6373170018, -0.4224796891, -0.0000000000, -0.1477944106, 0.0000000000, 0.0000000000, 0.0000000000, 0.1333163679, -1.0578173399, -1.1556591988, 0.0021837312, -0.5992768407, -0.0000000000, 0.0000000000, -0.0000000000, 0.2715731263, -0.3225445747, 0.0000000000, -0.3939188719, 0.3668940663, 0.0000000000, -0.0000000000, -0.0000000000, -0.0000000000, -0.1497732997, -0.4761310220, 0.0000000000, -0.8371104598, -0.1792394072, -0.0447401442, 0.0000000000, 0.0000000000, 0.1519695371, -0.0744275078, 0.0000000000, 0.0000000000, 0.2805985510, -0.3011983037, -0.6396257281, 0.0000000000, -0.9016880989, -0.1356419921, 0.0000000000, 0.0357882939, 0.0000000000, 0.0200890414, 0.0000000000, 0.9570731521, -0.4163081050, -0.2151146531, 0.0000000000, 0.0000000000, -0.0000000000, 0.0000000000, 0.0000000000, -0.0000000000, 0.5596604347, 0.0000000000, -0.5570132136, 0.0000000000, 0.6881596446, -0.0000000000, 0.0000000000, -0.0000000000, 0.1574655473, -0.0000000000, 0.5758976936, 0.0000000000, 0.0000000000, 0.6495412588, 0.0000000000, 0.5534671545, 0.0490166321, 0.0000000000, -0.2883175313, -0.0000000000, -0.0953038633, 0.0874035731, 0.0000000000, -0.0000000000, 1.1009240150, -0.0000000000, 0.3451662064, 0.0000000000, 0.0000000000, -0.0000000000, 0.3426703215, -0.5020950437, 0.0036098268, -0.0205107555, 0.0000000000, 0.0000000000, 1.1349954605, -0.0000000000, -0.0000000000, 0.0013160184, -0.5020221472, -0.4623765051, 0.0000000000, -0.2206415236, -0.0000000000, -0.0000000000, 0.2975072265, -0.0000000000, 0.5974489450, -0.6182655096, 0.0000000000, -0.0000000000, 0.0000000000, 0.0934522599, 0.3783797622, 0.9975846410, 0.0000000000, 0.0000000000, 0.0000000000, -0.3811216354, -0.4942232072, 0.5597593784, -1.0048851967, 0.4424437582, -0.5044063926, -1.1816419363, 0.7467133403, 0.3529808223, -0.0000000000, -0.0000000000, -0.4478891492, 0.0482795872, -0.5674675703, -0.0000000000, 0.0316393040, -0.5045053959, -0.9788095951, 0.0000000000, -0.0000000000, 0.5030611753, 0.0000000000, -0.2940235734, -0.5924445391, 0.0000000000, -0.2762208879, -0.0000000000, 0.9282423258, 0.0000000000, -0.0000000000, -0.0564673692, 0.0000000000, -0.5991797447, -0.6718990803, 0.0000000000, 0.0000000000, -0.0000000000, -0.2136428952, 0.5042313337, -0.0000000000, -0.4951671660, -0.0042233611, 0.0000000000, -0.0000000000, -0.0000000000, -0.3299187124, 0.4585754275, 0.0000000000, 0.3524294794, 0.0345211551, 0.7550319433, -0.4635089636, -0.0000000000, -0.6176072359, -0.0000000000, 0.0367077664, -0.0000000000, 0.0000000000, -0.0000000000, -0.2140906900, 0.8225967288, -0.2903325856, 0.1378231496, -1.2239853144, -0.0000000000, -0.0000000000, -0.5390890837, -0.3135547042, 0.0045073889, 0.6570990682, -0.7735005021, 0.0230980497, -0.0000000000, -0.2852620780, 0.0000000000, -0.0000000000, -0.2827782035, 0.0000000000, -0.0000000000, -0.0000000000, 0.0029519352, -0.1331910640, -0.1532003134, -0.3798174262, -0.0000000000, -0.0192967858, -0.8877303600, 0.0000000000, 0.4424727261, 0.3210695982, -0.0000000000, -0.0000000000, -0.2655750513, 0.0000000000, 0.5905575752, 0.8236677051, 0.8251881599, 0.5253720284, -0.9467540383, -0.3743719161, 0.4182050228, -0.7303774953, 0.0192307681, 0.6940183043, -0.0215415098, 0.5933895707, 0.0000000000, -0.0000000000, -0.1714738458, 0.0000000000, -0.6733518243, 0.0000000000, 0.0000000000, -0.0000000000, 0.1986227036, 0.0000000000, -0.0000000000, -0.0000000000, -0.3147889078, 0.5796985030, 0.0000000000, 1.0837625265, 0.2575658262, 1.3514090776, -0.0000000000, 0.6331390142, -0.0000000000, 0.4363588393, -0.0000000000, -0.4322350025, 0.0000000000, -0.0008701757, -0.1033086181, 0.0000000000, 0.1039372832, 0.0000000000, 0.0000000000, 0.0000000000, -0.2379511446, -0.0000000000, -0.5738506913, -0.0000000000, -0.0000000000, -0.0000000000, -0.4408923388, -0.0000000000, 0.0000000000, 0.5888639688, 0.0000000000, 0.2604296803, -0.0000000000, -0.7349016666, -0.1722278595, -0.0000000000, 0.0884801447, -0.0000000000, -0.8760029674, -0.0000000000, 0.0000000000, -0.2389068604, -0.0000000000, 0.0000000000, -0.7786907554, 0.0000000000, -0.1342435181, 0.0000000000, -0.4270066917, 0.0000000000, -0.0000000000, -0.9725158811, -0.3786328733, 0.0000000000, -0.1373201907, -0.6672278643, 0.0000000000, -0.3798545897, -0.0000000000, 0.6955937147, 0.8542828560, -0.0000000000, 0.2064358592, 0.3070674837, -0.0000000000, 0.2550320625, 0.3952153921, 0.0000000000, -0.0000000000, -0.0000000000, 0.2070954740, -0.0000000000, 0.8131567836, -0.6618193388, 0.0000000000, -0.0000000000, -1.1295400858, -0.6352313161, -0.4202711880, 0.2328049392, -0.0009611450, -0.0000000000, 1.0956673622, 0.0000000000, 0.8509294391, 0.0000000000, -0.7757239342, 0.0000000000, -0.2431997657, 0.0000000000, 0.0560916886, 0.0000000000, 1.2502870560, -0.6113603115, -0.0000000000, -0.3867135942, -0.6697549820, -0.3881290853, 0.4640450180, -0.0000000000, 0.0000000000, -0.0000000000, 0.0852652118, 0.0000000000, 0.0814845413, 0.0000000000, 0.0000000000, -0.0000000000, -0.0000000000, -0.0000000000, 0.0000000000, -0.6616157293, 0.0644701496, -0.0000000000, 0.0000000000, 0.5944294930, -0.5173045397, -0.0000000000, 0.0000000000, -0.9469887018, -0.0000000000, -0.2713831961, -0.8691313863, -0.0000000000, 0.0000000000, 0.3498510718, -0.0000000000, 0.0000000000, 0.0000000000, -0.7446573973, 0.0000000000, 0.0000000000, 0.0000000000, -0.6350218654, -0.0000000000, 0.0000000000, -0.0000000000, -0.1549242586, -0.5544986725, 0.3264558911, 0.3520461619, -0.0000000000, -0.3429077864, 0.0000000000, -0.3121890724, 0.0115457121, -0.4902022481, -0.8188921213, 0.8593384624, -0.3506981730, 0.0000000000, -0.6751491427, -0.3723999858, -0.8908576965, -0.1474090368, -0.2529357374, 0.0000000000, -0.0000000000, 0.5746203065, 0.0000000000, -0.0000000000, 0.0000000000, -0.0000000000, -0.1354175508, -0.0000000000, -0.0000000000, 0.0000000000, -0.0551212132, -0.9729087949, -0.0000000000, -0.0000000000, -0.0000000000, -0.8145548701, 0.0000000000, -0.1479336470, 0.4433382452, 0.5784100890, 0.7059804797, -0.1298164129, -0.0000000000, 0.0830726773, -0.0000000000, -0.0000000000, -1.2093364000, 0.5618464351, 0.3008324206, 0.0000000000, -0.3133717477, -0.0000000000, 0.2063103616, -0.1189464852, -0.0000000000, -0.2249977142, -0.0000000000, -0.1159495711, 0.0910542831, -0.0000000000, 0.3774873316, 0.1139386371, 0.4107795060, -0.0000000000, -0.0000000000, -0.3138810396, -0.1070084572, 0.0473328643, 0.0000000000, -0.7112118602, 0.1964695603, 0.0000000000, 0.0000000000, 0.0000000000, -0.4438290298, -0.0143223079, -0.0088138748, -0.0000000000, 0.2612923384, 0.0000000000, 0.0000000000, -0.0000000000, -0.5978934169, 0.0000000000, -0.8548089266, -0.0143125271, -0.2485416979, 0.0000000000, -0.0000000000, 0.0024477043, -0.5498758554, 0.0003475146, 0.0000000000, 0.2751670778, 0.0000000000, -0.4944280386, -0.0000000000, -0.1859479994, -0.3487104475, -0.0000000000, 0.0000000000, -1.0657392740, -0.0000000000, -0.4929066598, -0.8017197847, 0.6841649413, 0.0000000000, -0.5271160007, -0.3361780047, -0.0096541736, -0.0000000000, 0.0000000000, -0.0000000000, 0.0000000000, 0.0000000000, 0.0000000000, -0.0168077350, -0.6179682612, -0.0000000000, -0.0630034730, -0.3259350359, 0.0000000000, -0.0000000000, -0.0000000000, 1.3684383631, -0.1562220156, 0.0320961177, 0.0000000000, -0.1819084436, 0.0000000000, 0.1908321828, -0.4887003303, 0.0000000000, -0.4337986708, -0.2077690214, 0.0000000000, 0.0000000000, 0.1879882962, 0.0000000000, 0.0000000000, -0.0000000000, -0.0000000000, -0.0000000000, -0.0000000000, -0.0000000000, 0.0301814601, -0.0000000000, 0.2097517252, -0.0000000000, -0.2641209066, 0.2070842832, 0.1771381199, 0.1324371547, -0.2826927602, -0.0000000000, 0.5538756251, -1.4261163473, 0.0000000000, -0.1373296082, -0.0000000000, 0.7987561226, 0.0000000000, 0.0000000000, 0.5794633031, 0.0680920109, -0.9744734168, -0.0000000000, 0.2642160356, -0.0533301085, 0.0180181526, 0.4320571721, 0.0000000000, -0.3023940921, -0.1688827425, 0.0000000000, 0.0000000000, 0.0000000000, -0.0000000000, 0.0000000000, 0.0000000000, 0.3020598888, -0.0000000000, -0.0390628800, 0.1032168344, 0.3790790737, 0.0000000000, -0.2741609216, -0.2769495845, 0.0000000000, -0.6676706672, -0.1139329672, 0.0000000000, -0.3905663490, -0.0000000000, -0.3145928383, 0.0776651874, 0.0000000000, 0.6782090664, 0.3279660642, 0.5686289072, 0.0000000000, 0.0000000000, 0.4929921925, -0.2641329765, -0.2145217657, -0.0000000000, -0.0000000000, -0.0132172890, 0.0000000000, 0.0000000000, -0.0000000000, -0.0000000000, -0.0000000000, -0.2066707760, -0.3871834278, -0.0000000000, -0.5548537970, -0.0000000000, 0.0000000000, 0.0000000000, 0.7337389588, -0.5713728666, -0.7112502456, 0.0000000000, 0.5169472098, -0.1873813123, 0.0000000000, 0.6437434554, -0.4458954632, 0.0034981309, 0.0136862295, -0.4446357191, 0.0000000000, -0.0000000000, 1.3804370165, 0.3898817599, -0.4296130836, -0.0000000000, -0.0000000000, 0.1100729629, -0.0000000000, -0.0000000000, 0.0000000000, -0.0000000000, -0.4433715343, 0.0000000000, 0.0000000000, -0.0000000000, 0.0000000000, 0.7362515926, -0.2547909915, 1.0986692905, -0.0000000000, -0.0000000000, 0.0000000000, 0.0021424696, -0.0000000000, -0.0000000000, -1.0559237003, -0.5218308568, 0.8436810374, -0.6325020194, -0.0000000000, -0.0000000000, -0.0000000000, 0.1979413927, -0.0000000000, -0.0550555997, -0.3185384870, 0.0000000000, 0.0000000000, 0.1047450751, -0.0000000000, -0.0000000000, -0.0000000000, -0.9653205872, 0.0000000000, 0.0000000000, 0.8100993633, -0.0000000000, -0.0000000000, -0.0000000000, -0.9621852040, 0.0000000000, -0.0000000000, -0.4185565412, -0.0000000000, -0.0000000000, -0.0000000000, -0.0000000000, -0.0000000000, -0.0000000000, -0.8070852757, -0.0000000000, 0.0120019885, 0.0000000000, 0.0000000000, 0.4017199278, -0.1454086453, 0.0000000000, -0.6991471648, 0.0000000000, 0.9693310261, -0.0000000000, 0.0000000000, -0.0000000000, 0.0143015785, -0.0000000000, -0.2278204113, -0.1852745563, 0.8122991920, 1.2391140461, 0.3012893200, -0.0000000000, 0.0000000000, 0.0661405250, 0.3134693503, -0.0000000000, 0.6863887310, -0.6340498328, 0.0000000000, -0.3699162602, -0.3687028885, -0.1492459625, -0.0000000000, 0.1216534600, -0.6760431528, -0.0000000000, -0.0000000000, -0.0000000000, -0.2716661394, 0.4999198318, -0.3396860063, 0.0000000000, -0.6385974884, 0.0000000000, 0.0118079707, -0.4190581739, 0.4921687841, -0.0831210688, 0.0194230303, 0.0000000000, 0.9404391646, -0.0000000000, 0.0000000000, 0.4005711079, 0.0000000000, -0.8222469091, 0.0000000000, 0.3103712797, 0.0607855804, 0.5189681649, 0.0376066118, -0.2049714178, -0.0185146239, 0.0000000000, -0.5663014054, 0.0236410946, 0.3488973081, 0.3694346845, -0.0000000000, -0.6793233156, 0.2530809343, -0.6014845967, -0.0000000000, 0.1032075956, 0.0000000000, -0.0000000000, -0.0000000000, 0.0000000000, 0.2554051280, 0.0000000000, -0.7815623879, 0.0000000000, 0.3493025005, -0.1146896034, 0.1163895056, 0.0000000000, -0.0000000000, 0.0000000000, 0.4527229369, -0.0000000000, -0.0000000000, -0.0000000000, -0.1041684821, 0.0279581957, -0.0000000000, 0.0000000000, 0.0000000000, -0.0000000000, 0.4756432474, -0.1171232760, 0.7013845444, -0.0811720788, 0.0000000000, -0.0000000000, -0.5949118733, 0.4015826285, -0.2189514190, 0.0000000000, 0.0000000000, 0.4901709855, -0.7493726015, 0.0281912852, -0.4243092835, -0.0000000000, -0.4566659331, -0.5029287934, 0.2375593036, 0.0000000000, -0.3854328990, 0.4787792861, -0.1393487155, -0.0025756413, 0.0000000000, 0.3898406923, -1.0242927074, -1.3098094463, 0.9860581160, -0.0000000000, -0.0000000000, 0.0000000000, 0.5185354948, -0.0000000000, 0.4554376006, 0.4362305999, -1.2885203362, 0.0000000000, -0.0000000000, 0.0000000000, 0.9397674799, 0.2659836113, -0.0000000000, -0.4786077738, -0.0000000000, -0.2733872235, 0.0000000000, 0.8394452333, -0.6847758293, 0.2537636757, -0.0000000000, -0.0000000000, 0.0000000000, 0.0000000000, -0.0000000000, -0.0000000000, 0.0000000000, -0.0000000000, -0.6614757776, 0.0000000000, -0.0000000000, -0.0000000000, 0.0000000000, -0.0000000000, 0.5784416795, 0.0000000000, 0.0000000000, 0.1821899712, -0.0000000000, 0.0000000000, 0.2769591212, 0.4402340055, 0.0000000000, -0.3435288370, 0.0000000000, 0.0000000000, 0.4693761170, -0.0000000000, 0.9238340259, 0.0000000000, 0.0000000000, 0.2121888399, 0.4274003804, 0.0000000000, 0.7571119666, 0.0000000000, 0.3873743415, 0.0000000000, -0.0000000000, 1.0020669699, 0.0000000000, 0.2027412951, -0.0000000000, 0.3405871987, 0.6158340573, 0.0000000000, 0.0000000000, 0.0000000000, 0.0000000000, 0.0000000000, -0.0000000000, 0.3200364709, 0.2251774073, -0.0000000000, -0.0000000000, -0.0000000000, 0.1219224706, -0.0000000000, -0.0000000000, 0.6910348535, 0.7319804430, -1.0773538351, -0.6403186321, -0.6602719426, -0.1997813433, 0.0000000000, -0.5167414546, -0.0000000000, -0.0000000000, 0.0560694933, 0.0000000000, -0.0000000000, -0.0000000000, 0.0225791018, 0.2639729679, -0.0092109535, -0.6213057041, 0.2674772441, 0.1108675450, 0.0000000000, 0.0000000000, 0.0000000000, -0.1551244557, -0.1643655449, -1.5243543386, 0.0000000000, 0.1096552536, 0.0000000000, -0.4855623245, 0.0000000000, -0.0000000000, 0.1749197841, -0.0000000000, -0.5436077714, -0.0000000000, -0.2560327053, -0.0682656690, -0.4495595992, -0.0000000000, -0.0000000000, -0.0000000000, 0.3595635891, -1.4085301161, -0.5602265000, -0.0000000000, -0.8436504602, -0.0000000000, -0.1891205609, 0.1841786206, 0.6461228132, -0.2228627503, -0.0000000000, -0.0000000000, 0.0000000000, 0.2803050578, 0.0000000000, -0.0000000000, -0.0000000000, -0.9134506583, 0.0000000000, 1.3246637583, -0.0000000000, -0.0000000000, -0.0293796211, 0.3064972460, -0.0000000000, 0.0000000000, 0.0000000000, -0.1315994263, -0.0000000000, -0.0000000000, -0.0965306237, 0.7441976666, -0.0000000000, -0.0000000000, -0.0000000000, -1.2288603783, 0.0000000000, -0.0000000000, 0.8035082221, -0.2092614919, 0.9219340682, 0.4074983597, 0.3605388105, -0.0000000000, -0.0000000000, 0.0000000000, 0.8400126100, 0.5665044188, -0.4507627785, -0.6113071442, 0.0000000000, 0.0000000000, -0.4265761673, 0.0000000000, 0.6849606633, 0.5578376651, -0.0000000000, -0.0000000000, 0.1581291705, 0.0000000000, -0.1290246546, 0.0000000000, -0.0713080317, 0.0000000000, -0.0171147790, 0.7581918836, -0.6162562966, -0.1976265758, 0.0000000000, -0.0000000000, 0.0701545775, 0.0000000000, -0.0000000000, 0.0910023972, -0.0000000000, -0.0000000000, -0.0000000000, 0.0000000000, 0.0000000000, 0.9927637577, -0.9129149318, 0.4694002867, 0.0000000000, -0.0000000000, 0.0000000000, -0.1548348665, 0.6914682388, -0.5552061200, -0.2972342372, 0.0392131507, 0.3369843364, -0.0000000000, 0.3944356143, -0.0000000000, 0.0000000000, -0.5046558380, -0.0000000000, -0.0000000000, 0.5423064232, 0.6647658944, -0.1491167396, -0.0000000000, 0.0046761143, -0.2710687816, -0.3327283859, 0.2271694839, 0.7144701481, -0.0000000000, 0.5780803561, -0.0000000000, 0.6792871952, -0.9600246549, 0.1174421236, 0.4217396379, -0.1755142957, 0.2166478634, -0.0000000000, 0.0899652615, -0.9225044847, -0.0000000000, 0.0415358022, -0.0000000000, 0.0000000000, -0.0000000000, 0.4420333505, -0.0000000000, 0.0000000000, 0.0000000000, -0.0000000000, 0.0377667136, -0.0000000000, 0.0000000000, 0.3067618012, -0.3475641608, 0.0000000000, 0.7325326800, 0.0000000000, -0.7826179862, 0.0000000000, 1.3727869987, 0.8412406445, 0.5990547538, 0.0000000000, 0.0000000000, -0.0000000000, 0.0000000000, -0.0000000000, 0.0000000000, 0.6216530204, 0.0986682326, -0.0743542537, 0.0000000000, -0.4511493146, -0.0000000000, -0.6332683563, -0.0116033396, -0.0000000000, -0.0121116927, -0.8432488441, -0.0000000000, 0.1426903158, 0.0000000000, 0.4160610437, -0.0036861624, -0.0000000000, -0.0000000000, 0.4140170813, -0.0000000000, -0.0000000000, -0.0000000000, -0.2507462204, -0.0000000000, -0.7400338650, -0.4966014028, 0.6578849554, 0.2674950361, 0.2815597653, -0.0737078488, 0.0000000000, -0.0000000000, -0.0000000000, 0.0000000000, -0.2349120528, -0.0000000000, -0.0862511843, 0.1420736015, 0.0298702903, 0.3153859973, 0.0000000000, -1.0296238661, -0.0000000000, 0.0000000000, -0.0000000000, -0.0000000000, -0.4826669991, 0.0000000000, 0.1948195547, 0.0000000000, 0.0000000000, -0.0745542347, -0.0077594984, 0.0000000000, 0.0000000000, -0.0000000000, 0.0000000000, 0.3666680753, 0.2203475237, 0.8175728321, 1.0555639267, 0.0000000000, 0.4428682029, 0.3702774346, -0.0053986949, 0.0035659822, 0.0000000000, 0.7440503240, -0.8674811125, 0.0000000000, -0.0000000000, 0.0000000000, -0.9333910346, 0.3265790045, 0.0000000000, -0.6421529055, -0.0000000000, -0.0000000000, 0.8973895311, -1.8123531342, 0.0000000000, 0.0046076896, -0.7675878406, -0.1142208800, -0.0000000000, -0.0130950166, -0.9064106941, -0.0000000000, 0.0000000000, 0.0000000000, -1.1292729378, 0.0000000000, 0.0000000000, -0.0000000000, -0.0000000000, 0.0000000000, -0.0046658539, 0.2710820436, 0.1634285748, 0.0000000000, -0.0000000000, -0.6197668910, 0.0000000000, -0.2290958613, -0.0000000000, 0.0000000000, 0.0000000000, -0.0000000000, 0.0000000000, 0.0000000000, -0.5863113999, -0.0000000000, -0.0000000000, -0.6431397796, 0.0000000000, 0.8216836452, -0.0000000000, -0.0000000000, -0.0529594421, -0.4379764199, -0.5789529085, -0.0000000000, 0.0000000000, 0.4860893190, -0.0000000000, 0.0000000000, -0.4685497582, -0.0000000000, 0.0000000000, 0.3529317379, -0.0000000000, 0.0674541891, 0.0000000000, 0.0000000000, -0.5525830388, 0.2874007821, 0.0000000000, -0.0000000000, -0.0000000000, 0.4826786816, -0.7716808319, -0.0000000000, 0.0000000000, -0.0000000000, 0.0000000000, 0.9566183686, -0.4715777338, -0.3032149673, -0.0000000000, -0.7295568585, -0.0367586650, -0.0000000000, -0.4192025363, -0.0000000000, -0.4243099391, -0.3927024603, 0.3462441862, 0.7002691031, -0.2354273945, -0.0000000000, 0.0000000000, -0.6758654714, 0.4243479371, -0.2836291194, 0.6306132078, -0.6069437861, 0.1400808394, 0.0000000000, 0.7854437232, -0.4997268319, -0.0000000000, -0.0000000000, -0.8319028020, -0.2897183895, -0.8313523531, 0.0552110150, 0.0067787874, -0.0000000000, -1.0909045935, 0.4352176785, -0.0000000000, -0.0000000000, 0.0000000000, 0.0000000000, 0.0000000000, 0.0000000000, 0.1785376072, -0.0000000000, -0.0000000000, -0.0000000000, -0.4945017397, 0.0000000000, -0.2375815958, -0.0000000000, -0.0000000000, -0.0466831401, -0.2355353236, -0.8191996217, 0.0126510188, 0.2486818284, -0.2965644598, 0.0000000000, -0.0000000000, 0.0000000000, -0.7766520381, 0.0000000000, -0.4452774823, -0.0000000000, 0.0000000000, -0.0000000000, -0.0000000000, 0.0000000000, -0.0000000000, -0.0000000000, 0.0000000000, 0.9506162405, 0.1494642347, 0.0000000000, 0.0000000000, -0.2900766134, 0.3239580393, -0.0000000000, -0.0000000000, -0.7981873751, 0.3718064725, -0.2510478795, -0.0000000000, -0.0000000000, -0.9209629297, -0.0000000000, 0.0000000000, -0.0557111204, 0.0000000000, 0.0000000000, -0.5087746382, -0.0000000000, 0.0000000000, 0.8178274632, 0.4350962937, -0.0000000000, 0.0000000000, -0.0000000000, -0.4067848027, 0.7599659562, -0.0000000000, 0.0000000000, -0.0437409803, -0.5962578058, 0.0000000000, -0.4519522786, 0.0796338990, -0.0000000000, -0.0000000000, -0.5646558404, -0.0000000000, -0.0000000000, 0.0000000000, -0.0000000000, -0.0000000000, 0.3193327785, 0.5633512139, -0.3946086168, -0.0000000000, -0.0000000000, 0.0000000000, -0.0000000000, 0.0000000000, -0.0000000000, 0.0000000000, -0.7387719750, 0.1110557988, -0.0000000000};
#endif

#endif
