//Numpy array shape [64, 10]
//Min -0.693543672562
//Max 0.654202163219
//Number of zeros 0

#ifndef W26_H_
#define W26_H_

#ifndef __SYNTHESIS__
output_dense_weight_t w26[640];
#else
output_dense_weight_t w26[640] = {0.2976560593, -0.2646681070, -0.3593328595, 0.2471573800, -0.3141110539, 0.3421533108, 0.3087172210, -0.2366605997, 0.5099765062, -0.3442347348, -0.1593131572, 0.1313341707, 0.4712889194, 0.1814834625, -0.3857597113, 0.3579151928, 0.1645012796, 0.0108860936, -0.2711403668, -0.6935436726, -0.0622454211, 0.2242550701, -0.2416582555, -0.3987384140, -0.2737898827, -0.6210893989, -0.0962700471, 0.4911510050, 0.5359162092, -0.1812122315, -0.3607561290, -0.4045615196, -0.2310214788, -0.0847767517, -0.1587171704, -0.1072493643, 0.3447771966, -0.2124361396, 0.5364933610, 0.2824564874, -0.0366712101, -0.1265502572, 0.2854821980, 0.1874467880, -0.5183929801, -0.2666485310, -0.3082771003, 0.5200028419, -0.6461973786, 0.1077367142, -0.3129948676, 0.1704109162, -0.0126068955, 0.2414115518, -0.0137464255, 0.6302999854, -0.5262343287, 0.2642315626, -0.5184395313, -0.0720733777, -0.2498528063, -0.0252320692, -0.3055338264, 0.0987645388, -0.4808973670, 0.5243139863, 0.4545476139, 0.0343050286, 0.2184424549, -0.0981797054, -0.2861471176, 0.2601003647, -0.0220263656, -0.1577620059, 0.0772591680, 0.2801186144, -0.0434247851, 0.2876656055, -0.1920623481, 0.1880818456, -0.0081786262, -0.4067263007, 0.1496142298, -0.3607922792, -0.5817607045, 0.4549053609, -0.1451086849, 0.2235185951, 0.1343205869, 0.2466180325, -0.2289378047, -0.4963681102, 0.4908220172, -0.2103199214, 0.0962197930, -0.0682665929, -0.0832157880, 0.5185168386, 0.1673049033, -0.1078321710, -0.5978550315, 0.2100989521, -0.2210483700, 0.1323546320, 0.3715609312, 0.5018572211, 0.0875321850, -0.6129066348, -0.1535661519, -0.0190047026, -0.1359231174, -0.1495712101, 0.5070750713, 0.2936683297, -0.0778777003, -0.4903941453, -0.3586954176, 0.3248354495, -0.1157558039, -0.0597004481, 0.2776772082, -0.3592862189, 0.0108967163, -0.0375403278, -0.3621778190, -0.4052931964, 0.3120474815, 0.2158315629, -0.5933502913, -0.0457486361, 0.4491563141, 0.2098011672, 0.0014491517, -0.5262561440, -0.0265135113, -0.4338780344, 0.2336289883, -0.0617401265, 0.1326967925, 0.1262620538, 0.4070394337, -0.2144302577, 0.1023564711, 0.1443613470, 0.4450019002, -0.2588962317, -0.3899864554, -0.2257050127, 0.2709828913, 0.3795825243, 0.3055174053, -0.5729569197, 0.0965274051, 0.3016341031, -0.2326326966, 0.2065047026, 0.3091352582, -0.6734208465, 0.4249708652, 0.3553889692, -0.2438305467, 0.1216016412, -0.0787987635, -0.3480409384, 0.2847065330, 0.3904065192, 0.5012910366, -0.2300126851, 0.0999853387, -0.3005104959, -0.2575652301, -0.0662800744, 0.3923537433, 0.4839461744, 0.1548379511, -0.0842216834, -0.2552081048, -0.2567662299, -0.0726872310, -0.2315434515, -0.1262508035, 0.3815810084, 0.4659188092, 0.1377768219, -0.5184547305, 0.1250948161, 0.3307980597, 0.1432368904, -0.3027905822, 0.1960891336, -0.6461358070, 0.2249455750, 0.4794610143, 0.2614198327, -0.1988990605, -0.1010003015, -0.1796777397, 0.2922592759, -0.0711201280, -0.0465330221, 0.4871202111, 0.1545134485, 0.2953030765, -0.2382862270, 0.0574250966, -0.3357814550, -0.5619568825, -0.3745132089, -0.1534258276, 0.0075094914, -0.0851003900, 0.4178136289, -0.2860974669, -0.4324798882, -0.0878353268, -0.1875029206, -0.0766117722, -0.5506288409, 0.3581587672, 0.3235394061, 0.2037040293, 0.0290155299, -0.1987301260, 0.4132353365, -0.4354897141, -0.1901950836, 0.3877921700, -0.3093000650, 0.3315268159, -0.4182542861, -0.3447702229, -0.1527509391, -0.4864452481, 0.3216030002, 0.0146602644, 0.4044351280, 0.0941070318, -0.3332765400, -0.0937221721, 0.5410541296, 0.5535606146, -0.0938696936, -0.3210695982, -0.2287108451, 0.3993150890, -0.3755410612, 0.1352402419, -0.0363741517, -0.3628982902, 0.0577391610, -0.3903856575, -0.2454593480, 0.3337181211, 0.2033750266, 0.4864444137, -0.3152765930, 0.4174324870, 0.0684415475, -0.1607251465, -0.3286631107, 0.1941932738, -0.0868518054, 0.5128358006, 0.0801426247, -0.5481161475, -0.3805479705, 0.0419512130, -0.2444416136, -0.0681227520, 0.3190126717, -0.2344042063, -0.1374709308, 0.1767947525, -0.2140407860, 0.3178763986, -0.0295176115, -0.2893261611, 0.4731423855, 0.0292945057, -0.2087235302, -0.3480220139, -0.4227667749, -0.0130456332, 0.2426977307, -0.2591845393, 0.3169100881, -0.2947757244, 0.2278204709, -0.2350032479, 0.3688261807, -0.2248355895, 0.2378817350, -0.4716489911, 0.3896113932, -0.0682248771, 0.2255493999, 0.2578334808, -0.6751321554, 0.2326932102, -0.2090165168, -0.2853690088, -0.2800794542, 0.2319490761, -0.4779830575, 0.4817301929, 0.2787748277, 0.2424312681, -0.2147139758, 0.0419734083, -0.0690975413, 0.6542021632, -0.0951272175, -0.2722949088, -0.1806950122, 0.2052728534, -0.4087904394, -0.3183444440, 0.0552180223, -0.0377288796, -0.1823341995, 0.0173516367, 0.0352978073, -0.1666456759, 0.2641617656, 0.5788678527, -0.0257824976, -0.4273842871, -0.2054586709, -0.2199429125, -0.3792977035, -0.3842689395, 0.1554981619, 0.0370101593, -0.1416561604, 0.2611446083, -0.0424870104, -0.5035285950, -0.3585889637, -0.5069003701, -0.2658080757, -0.2970816791, -0.1499060988, -0.6362258792, 0.3225569427, -0.1876089573, 0.0816156343, -0.0787712783, 0.3159320951, -0.2065786272, 0.0184574183, 0.3051429689, -0.1533737630, 0.0833002850, 0.1285496354, -0.4731006026, 0.1509560049, 0.2772905529, -0.0470397994, -0.5589528084, 0.1720315516, -0.0115027018, -0.2412026972, 0.0631286204, -0.2303040624, 0.4703619480, -0.3952551186, 0.1956926435, 0.2438681275, -0.2165904194, -0.2650488615, 0.1558143795, -0.1708250046, 0.1341146529, -0.0963150784, 0.1655001342, -0.2779154778, -0.5385177732, -0.2561113834, -0.1666924804, 0.4519125223, 0.3236408830, 0.5708896518, -0.1247301176, -0.4885473847, 0.2455089390, -0.1532117277, -0.2472158074, -0.2741411924, -0.4212340415, 0.1459180862, -0.2875486016, 0.3484652638, 0.2526687086, 0.0606297515, -0.2681134641, 0.2653864324, 0.0038527548, -0.2504993379, -0.2830759287, -0.3235519230, 0.1807184964, -0.4761411846, -0.5669673085, -0.4581547678, 0.1331090927, 0.3519817591, 0.1469923407, -0.2847070992, 0.3189657629, 0.3130354285, 0.6180042028, 0.4074859023, -0.0004852425, 0.1906032115, -0.5932384729, -0.1106822416, 0.0735427439, 0.3991004527, 0.2164290249, -0.3866850436, 0.3902013004, 0.0707018226, -0.4354492426, 0.1022016555, -0.1308366060, 0.0012417869, -0.4112890065, 0.5277127624, 0.0493079759, 0.5085828900, 0.3904179633, 0.2138093263, -0.2268712670, 0.4064716995, -0.2589808702, 0.1393288523, -0.2557643950, -0.0970021710, -0.6386404634, 0.0516764708, -0.0294570718, 0.0723854527, -0.0227060579, 0.2244005203, -0.0772512183, -0.3457276225, -0.2655799389, -0.4553703964, -0.0604483970, -0.1668342948, -0.1388698518, 0.1210054159, -0.4714016914, -0.0172272492, 0.1864407361, -0.4968640804, -0.4376904666, 0.4979273081, -0.2398974448, 0.0693222657, -0.4255363345, 0.5103187561, -0.1116644964, -0.0240832381, -0.3900003433, 0.2123235464, -0.1250416040, 0.3651358783, 0.0000293761, -0.4332316816, -0.0133756278, 0.5578920245, -0.2732745707, -0.4979986250, -0.2455502003, -0.4014802575, 0.2542163134, 0.2913359404, -0.4339742064, -0.2189572006, -0.2950224876, 0.3417081237, -0.6006535888, 0.3515439630, 0.2156982422, -0.2902807593, -0.3694610000, 0.1847459674, -0.2464782000, -0.1754811704, 0.0087099969, 0.2719304264, 0.4069833457, -0.1779333353, -0.4324416220, 0.6461043358, -0.0274269022, -0.6722983122, -0.2590424120, -0.1201898754, -0.1579374522, -0.3810774386, -0.2064085007, 0.5027369857, 0.4369421899, -0.3489235640, -0.1993901730, 0.0885878950, -0.3215602338, 0.0075788973, 0.2978867590, -0.2219765484, -0.2402120978, 0.1025776789, 0.2857270837, 0.1936273575, 0.5680393577, -0.3047302663, -0.1639714539, -0.4217281044, -0.2133252919, -0.3530052304, 0.4034743011, -0.1876748651, 0.2634986937, -0.0684587583, -0.3861227930, -0.0983612686, -0.0697644055, 0.2197829038, -0.5665029287, -0.1046890095, 0.4184764028, 0.3708237708, -0.1049267501, 0.0217335355, -0.4211347699, -0.1157962829, 0.6312155128, 0.0580617189, -0.2576017380, 0.1392091066, 0.0175350048, -0.1148895547, -0.1738858074, -0.5369113088, -0.1535573304, -0.2647473216, 0.5041139126, 0.5475907326, 0.2582351863, 0.2736623883, 0.3254892528, -0.1720396429, -0.5410219431, -0.1107708216, -0.4254584610, -0.3682104647, -0.4581296742, 0.2311440557, 0.0371696390, -0.3600230813, -0.1292194128, 0.2537295818, 0.2075649351, 0.3005534410, -0.1162877157, -0.4911026955, 0.1544480622, 0.4530979395, -0.1188053563, 0.1365250945, -0.3398207724, -0.3183673322, 0.4416547716, -0.2229420692, 0.0292694084, 0.1142788306, -0.0526332967, -0.4667201042, -0.3088568449, -0.3906316459, 0.1874194443, -0.1504328251, 0.3898367882, -0.3133606911, 0.1758586913, 0.5438028574, 0.0130070597, -0.3641548753, 0.2174772620, 0.2206463963, -0.2633906305, 0.0299229231, -0.0204739422, -0.1448041201, -0.0008518099, -0.2388370186, 0.1989320219, -0.2733367682, -0.2860729694, 0.4414994121, 0.4154280424, -0.1095462516, 0.1191286519, -0.3625139296, 0.4185025692, 0.1669335067, -0.2111040652, -0.5235176086, -0.0877204388, 0.0204041153, 0.3789906204, -0.3460665345, 0.1434941292, -0.2966939807, 0.3140801191, -0.0339058191, 0.4846062064, -0.4862881005, -0.0331221744, 0.4962911606, 0.1754075885, 0.3424951136, 0.0418949835, 0.2593584955, -0.5543102622, -0.0787468404, 0.0533806048, -0.1071982682, -0.6060931087, 0.4855471253, -0.1221681684, 0.1022442430, 0.2476686686, -0.1391216367, -0.2410027683, 0.0889702737, 0.0491818972, -0.2429002821};
#endif

#endif
