//Numpy array shape [3, 3, 3, 16]
//Min -1.000000000000
//Max 0.968750000000
//Number of zeros 220

#ifndef W2_H_
#define W2_H_

#ifndef __SYNTHESIS__
weight2_t w2[432];
#else
weight2_t w2[432] = {0.00000, 0.00000, 0.96875, 0.96875, 0.00000, -0.87500, 0.00000, 0.96875, 0.96875, 0.00000, -1.00000, 0.00000, 0.96875, -1.00000, -1.00000, 0.56250, 0.00000, -1.00000, 0.00000, 0.96875, 0.00000, -1.00000, -1.00000, 0.00000, 0.96875, 0.96875, 0.00000, 0.00000, 0.00000, 0.00000, 0.00000, 0.00000, 0.96875, -1.00000, -1.00000, 0.96875, 0.00000, 0.00000, -1.00000, -1.00000, 0.96875, 0.00000, 0.00000, 0.00000, 0.00000, -1.00000, 0.00000, 0.00000, 0.00000, -1.00000, -0.84375, 0.00000, -0.84375, 0.00000, 0.00000, 0.00000, 0.00000, 0.00000, 0.00000, 0.00000, 0.00000, 0.00000, 0.00000, 0.00000, 0.00000, 0.00000, -1.00000, 0.00000, 0.00000, 0.00000, 0.00000, -1.00000, -0.28125, -1.00000, 0.00000, 0.00000, 0.96875, 0.00000, 0.00000, -0.50000, 0.00000, 0.00000, 0.00000, -1.00000, 0.00000, 0.00000, -1.00000, 0.00000, 0.00000, 0.00000, 0.00000, 0.00000, 0.96875, 0.00000, 0.00000, 0.00000, -0.84375, -1.00000, 0.00000, 0.00000, -1.00000, 0.00000, 0.00000, -1.00000, 0.00000, -1.00000, 0.00000, 0.96875, -1.00000, 0.96875, 0.00000, 0.96875, 0.00000, -1.00000, 0.00000, 0.00000, -1.00000, 0.96875, 0.00000, -1.00000, 0.90625, 0.00000, -0.12500, 0.96875, 0.00000, 0.96875, 0.00000, 0.96875, 0.00000, 0.00000, 0.00000, 0.96875, -1.00000, 0.00000, 0.00000, 0.96875, 0.68750, 0.96875, 0.96875, 0.96875, 0.00000, 0.96875, 0.00000, 0.96875, 0.96875, 0.53125, 0.00000, -1.00000, 0.96875, 0.00000, 0.00000, -1.00000, 0.96875, 0.00000, -1.00000, 0.00000, 0.96875, 0.68750, 0.40625, 0.00000, 0.96875, 0.00000, -1.00000, -1.00000, 0.96875, 0.00000, -1.00000, 0.00000, 0.00000, -1.00000, -1.00000, 0.00000, 0.96875, 0.96875, 0.00000, -1.00000, 0.00000, 0.40625, 0.00000, -1.00000, 0.00000, -0.06250, 0.00000, -1.00000, 0.96875, 0.00000, 0.00000, 0.00000, 0.96875, 0.50000, 0.09375, 0.00000, -0.28125, -1.00000, -1.00000, -1.00000, 0.00000, 0.00000, 0.12500, -1.00000, -0.87500, -1.00000, 0.96875, 0.00000, 0.96875, 0.96875, 0.96875, 0.00000, 0.00000, -1.00000, 0.00000, -1.00000, 0.00000, 0.00000, 0.00000, 0.00000, 0.00000, 0.00000, -1.00000, 0.00000, 0.00000, -1.00000, 0.96875, 0.00000, 0.00000, 0.00000, 0.96875, 0.00000, 0.84375, 0.00000, 0.96875, 0.00000, -1.00000, 0.00000, 0.00000, -1.00000, -1.00000, 0.96875, 0.00000, 0.00000, 0.00000, 0.96875, 0.96875, 0.96875, 0.00000, 0.00000, 0.00000, 0.00000, 0.00000, 0.00000, 0.96875, 0.00000, 0.00000, 0.00000, 0.00000, 0.81250, -1.00000, 0.96875, 0.96875, -1.00000, 0.00000, 0.00000, 0.96875, 0.96875, 0.00000, -1.00000, 0.96875, 0.00000, 0.00000, -1.00000, 0.00000, 0.96875, 0.00000, 0.62500, 0.00000, 0.96875, 0.00000, 0.00000, -0.78125, 0.00000, 0.00000, 0.00000, -0.09375, 0.00000, 0.96875, 0.00000, -0.90625, 0.00000, 0.96875, 0.96875, -1.00000, -1.00000, 0.96875, 0.00000, 0.00000, 0.00000, -0.84375, 0.00000, -1.00000, 0.00000, 0.00000, 0.96875, 0.00000, -1.00000, 0.96875, 0.96875, 0.00000, 0.96875, 0.00000, 0.00000, 0.00000, 0.96875, -0.71875, -1.00000, -1.00000, 0.00000, 0.00000, -1.00000, 0.78125, -1.00000, 0.50000, -0.40625, -1.00000, 0.00000, 0.96875, 0.96875, 0.00000, 0.00000, 0.00000, 0.00000, 0.96875, 0.00000, 0.00000, -1.00000, 0.00000, -1.00000, 0.59375, 0.96875, -1.00000, 0.00000, 0.00000, 0.00000, 0.00000, 0.96875, 0.00000, 0.81250, -1.00000, 0.00000, -1.00000, -1.00000, 0.00000, -1.00000, -1.00000, 0.00000, 0.00000, 0.00000, 0.00000, 0.00000, 0.96875, 0.00000, -1.00000, 0.00000, 0.00000, -1.00000, -0.87500, 0.00000, 0.00000, -1.00000, 0.00000, 0.96875, 0.00000, 0.00000, -1.00000, -1.00000, 0.96875, 0.96875, 0.00000, -0.40625, -1.00000, -1.00000, -1.00000, 0.00000, 0.96875, 0.00000, -1.00000, 0.00000, 0.96875, 0.00000, -1.00000, 0.00000, 0.03125, 0.96875, 0.00000, 0.96875, 0.96875, -1.00000, -1.00000, -1.00000, 0.00000, 0.00000, -1.00000, 0.00000, 0.00000, 0.00000, 0.00000, -1.00000, 0.96875, 0.96875, 0.00000, -0.34375, 0.00000, -1.00000, -1.00000, 0.00000, 0.00000, 0.96875, -1.00000, 0.00000, 0.96875, -1.00000, 0.00000, 0.00000, -0.03125, 0.00000, 0.00000, 0.96875, 0.46875, 0.96875, -1.00000, 0.00000, -1.00000, 0.00000};
#endif

#endif
