//Numpy array shape [64, 10]
//Min -0.847199738026
//Max 0.833619654179
//Number of zeros 0

#ifndef W23_H_
#define W23_H_

#ifndef __SYNTHESIS__
output_dense_weight_t w23[640];
#else
output_dense_weight_t w23[640] = {-0.4845436513, -0.3242904246, -0.3192411065, 0.4667175710, 0.3581095934, 0.7198677063, -0.3294020891, -0.0449800305, -0.3647308052, -0.1752069741, -0.6290950775, 0.4100045264, -0.3270135522, 0.2859869003, -0.3738823533, 0.5595542192, 0.4744950831, 0.6014438868, -0.3169838190, -0.1950393319, -0.1030568779, 0.1240810677, 0.2512556911, 0.6955106854, 0.3612317443, -0.4705057144, -0.3689738214, -0.2366002351, -0.4130971730, 0.4095321596, -0.3829821646, 0.3913331032, 0.0389353149, -0.4088245928, 0.5855634212, 0.2937626839, 0.2401723117, 0.0978267863, -0.0388907902, -0.7363039851, 0.2648558915, -0.3808431327, 0.6081822515, -0.3609121442, -0.4097135365, -0.5500190854, -0.3745954633, 0.0746293440, -0.3446713388, 0.4248036444, 0.5675065517, 0.3423876762, -0.2264467627, -0.0847197622, -0.1713422686, -0.4806493521, -0.4409772456, -0.0951798558, 0.1287200600, -0.0424711742, -0.0400342308, -0.3312550187, 0.0094448691, -0.2463815957, -0.8454113603, 0.3760116398, -0.0083974293, -0.0056065614, 0.5943126678, 0.3306781948, 0.0313986391, 0.3618285954, -0.4352213442, -0.3526341617, -0.4633024037, -0.5882304907, 0.3459093571, -0.2061922401, 0.6839411259, 0.3341470063, 0.5165784955, 0.1140669435, 0.2727852166, -0.6726232171, -0.4042910039, -0.3270713091, 0.0829735473, 0.6047872305, -0.2274255008, -0.2958642244, -0.0244899783, 0.6368778348, -0.5118051171, -0.3124928176, 0.5292522311, -0.0056406781, 0.1384906471, -0.5780556798, 0.0447964743, -0.2632916868, -0.1530379504, 0.5196436048, -0.4555942118, -0.5530964136, 0.3219037652, -0.3210852146, -0.6262702942, -0.2576593459, 0.1007394195, 0.6678702831, -0.6635392308, 0.0603351593, 0.2675738335, 0.5077985525, -0.0339705870, 0.1981245130, -0.7784519792, -0.5225530267, 0.4741920829, 0.0877464563, -0.0068582296, -0.1845550686, -0.1764907390, -0.5578731298, -0.1197270676, 0.8336196542, -0.4292417467, -0.1744983941, -0.0520597734, 0.5590054989, -0.5285743475, -0.3969758451, -0.0826006159, 0.3211629987, 0.1399857998, 0.4287508130, 0.2962919474, 0.5508370996, -0.7114315033, -0.2423972636, 0.1364975423, 0.5319936872, -0.3497395217, 0.5792197585, -0.0380248763, -0.2909714282, -0.5972887874, -0.3197015822, -0.3419715166, -0.4745902419, -0.0391404368, -0.3228254318, -0.3771578074, 0.0092974491, -0.4513790309, 0.4145124257, 0.2179986835, -0.5540689826, 0.6071600318, -0.4233655930, -0.3701034486, -0.0605914518, 0.5626301765, -0.5870228410, 0.3919942975, -0.3166554868, -0.4030308127, 0.4688409865, -0.4395741224, -0.3734316528, -0.3682002723, 0.2988588810, 0.2336239964, 0.2200577855, -0.1722524464, -0.1311888546, -0.0714747831, -0.3582229614, 0.6057658792, -0.1453102529, 0.1798964143, -0.3664626479, -0.1146910787, 0.3989816308, -0.4843355119, 0.2170723975, 0.4189735651, -0.7008946538, 0.4219461679, -0.0254256818, -0.5373359919, 0.1768934727, 0.7199339271, 0.5310876966, -0.2792875171, -0.3509173393, -0.5967345238, 0.5311732888, -0.2166395187, -0.0095773907, 0.6107872725, 0.5633432865, -0.1050406843, -0.6306887269, -0.5077527761, -0.0102300625, 0.5039103627, -0.2675998211, -0.4908621311, -0.1531801969, -0.7402179241, -0.2142332792, -0.3080731928, 0.3895290196, -0.2519520521, 0.6442924738, 0.3444104791, -0.4652724564, -0.0247501638, 0.0741664097, 0.2694197297, -0.0792192891, -0.5341553688, -0.1564085037, -0.4364448488, 0.1038031206, 0.6797323823, 0.5849114060, 0.2028755397, -0.1930913329, -0.3246870041, -0.3146426976, 0.4168840945, 0.5565394759, 0.0304937959, -0.5463650823, -0.1570637673, 0.5365732908, -0.8360610604, -0.4460081458, 0.2927354574, 0.3890003562, -0.2670618594, 0.6638159156, -0.5017755628, -0.1984451860, 0.3422913849, -0.2582249343, -0.8023611307, 0.2388452142, 0.5748123527, -0.2859633863, 0.2872564197, -0.3186281919, -0.5703424215, -0.5988604426, -0.6388261318, 0.7480788827, -0.1999484152, 0.4521685541, -0.1539046466, -0.0732919201, 0.1939343661, 0.1078385338, 0.4538754523, 0.0672066882, 0.5619341135, -0.0285553522, -0.6044564247, -0.4447227418, -0.1742629558, -0.1734894961, 0.4124397635, -0.3228435516, 0.4241223931, 0.3465400636, -0.6376374960, 0.0218483545, -0.5652009845, 0.2881855667, -0.5748748779, 0.0933929160, 0.1316707432, 0.1280402094, -0.1073379144, -0.5049700141, -0.5470998287, 0.5509711504, 0.6805866361, -0.3006986678, -0.4847503603, 0.1531158984, -0.1083171517, 0.3696140945, -0.2586031854, 0.4554984868, -0.7332904339, -0.4283848405, 0.3457838893, -0.3251485229, 0.3659717739, 0.2368020266, 0.0408067629, 0.6983982921, -0.5273600817, 0.3449099958, -0.0950957835, 0.1565143615, -0.8175323009, -0.1351289451, 0.3093174696, -0.4003247023, 0.6630454659, -0.1831794381, -0.5902047157, -0.4819135368, 0.4605802298, -0.5630699396, -0.0388564020, 0.0648141354, 0.6344711781, 0.4495052993, -0.1683921963, -0.2872773409, 0.1614582688, -0.5597775578, 0.1108697429, 0.1519192904, -0.3832474053, 0.5712053776, -0.6086370945, 0.4754267335, 0.4757682383, 0.0931271315, 0.3775993288, -0.0233211815, -0.2968634069, -0.5233479142, -0.2366610020, -0.2365935445, -0.3113657534, -0.3626551330, 0.2102443278, -0.0477469750, 0.7176777124, -0.5662196279, -0.5786859989, -0.0449492671, -0.0142900171, 0.5157423615, -0.2289070338, 0.4859656990, 0.4259254932, 0.3827590048, 0.4509162009, -0.3253089190, -0.3541834652, -0.2180116773, 0.0845220536, 0.0270804558, -0.5792992711, -0.3670459092, 0.3269144893, -0.2629837692, 0.2769300044, 0.4567840695, 0.4163439870, -0.7052831054, 0.2081218064, 0.3340329230, 0.4289165735, -0.2862482071, -0.3774944842, -0.4825358391, 0.3996797204, -0.4565387666, 0.7473546267, -0.0457925685, 0.2224794179, 0.0645280927, 0.2496941686, -0.4900861084, -0.2433858663, 0.3910633624, -0.3363356292, 0.2001140714, 0.4403189123, 0.5475174189, -0.5944124460, -0.4136256278, 0.5585587621, 0.4252434671, 0.4617879689, -0.1826194823, -0.6281303167, 0.1331209540, -0.2481879294, 0.2674605846, -0.1442929953, -0.4034911990, -0.4126160145, 0.0235789996, -0.2890233994, -0.3603277206, -0.4187728465, 0.3086279333, 0.4967356622, -0.4682039022, 0.2067806721, -0.4936211109, -0.2135472745, 0.4655166566, -0.6278223395, -0.2349485308, 0.6048917174, -0.3896143734, -0.2183319479, 0.8304721117, -0.0269604325, -0.0192745309, -0.1385067701, -0.3530290723, -0.1050145105, 0.2948965132, 0.3414133787, 0.2052696198, 0.3358081579, -0.4179818332, -0.2043114007, -0.3326107264, 0.5602481961, 0.5562589765, -0.5035484433, -0.5424887538, 0.2826790214, -0.0632272437, -0.2489123791, 0.0350547247, 0.0707090199, 0.1265574992, -0.5368889570, 0.4541482329, 0.4892717898, -0.4866374731, -0.3000035286, -0.0563108325, -0.1478290409, 0.4214816093, -0.5162338018, -0.0590692014, -0.0015832606, 0.1798645556, -0.3698195219, 0.4996757507, 0.1443867981, 0.6915018559, -0.5673194528, -0.2250623405, -0.3283328712, 0.3191669881, -0.1103895828, -0.5927511454, -0.2775203586, -0.4465748966, 0.3646709621, -0.4726899862, 0.4629659057, -0.3661850691, 0.5080775023, 0.3894404769, 0.3568865359, -0.5055688024, -0.3579806387, -0.3679129779, 0.2479356825, 0.4726338089, 0.3855291903, -0.0489910468, 0.2448742688, -0.4042814672, 0.5497744083, -0.1937589645, 0.4239462912, 0.1125677451, 0.2221265286, 0.0976927131, 0.1060956940, -0.5168560743, -0.6896522045, -0.4607164860, -0.5274428129, 0.3375319541, 0.5142035484, -0.2463746816, -0.1462181807, -0.3933973014, -0.1598241776, 0.4915695786, 0.2921203375, -0.5427646041, 0.1883081496, 0.2754924297, -0.4190927148, -0.3352677524, -0.2355096638, 0.4400922656, 0.2343976498, -0.4073812962, 0.0654571429, 0.2810843885, 0.2546119988, -0.6930198669, -0.8471997380, -0.2164425850, 0.3980241418, -0.3332077563, 0.5446466804, -0.0677496716, 0.2694483995, 0.3902437091, -0.4416350722, 0.3626134098, 0.1106707156, 0.5465859175, 0.5884756446, -0.4129003584, 0.0497276820, -0.0586282089, 0.6558738947, -0.3195844889, -0.5253046751, -0.3556473553, 0.4019679725, 0.0276684649, -0.6884359717, 0.2250004113, -0.1803718507, -0.5839505792, 0.3609388173, 0.3558482230, 0.4296896160, -0.4106868804, 0.3571918905, 0.4286501110, -0.2360439897, -0.7644783854, 0.0213174671, -0.5101239681, 0.7157963514, -0.5189127922, 0.0746034458, -0.4933710694, -0.5515417457, 0.5603134632, -0.3604437411, 0.3146136701, -0.5536215305, -0.2777550220, 0.0301119406, 0.6609170437, -0.4619867504, -0.4447463155, 0.5182025433, -0.5459415317, -0.3425126076, 0.3674127460, -0.0095552308, 0.7386828661, -0.1604286283, 0.3202084005, -0.0805673003, 0.6826744080, -0.4327538311, 0.3437774479, -0.4807755649, 0.3308033347, -0.3774573803, 0.7025663853, -0.5099260807, -0.0073264148, 0.5448757410, 0.4250485599, -0.3640733659, -0.4927735031, 0.4530789852, -0.5146192312, 0.0787280649, 0.3489908278, 0.2471116632, -0.4562888741, -0.2105235606, 0.3058690727, 0.2276905030, 0.7862029076, 0.0189672243, -0.6086815000, 0.2690075934, 0.3481239974, -0.3513132036, -0.1827368438, -0.3869754374, -0.1281539202, -0.6465923786, 0.1751945317, 0.7906407714, -0.2477913052, 0.2346474379, -0.5535685420, 0.3671715558, -0.4080648422, 0.4716240466, 0.2699786723, 0.3689420819, -0.7087268233, 0.6908550262, -0.2021517456, -0.4588088095, -0.2682923973, -0.1282276809, -0.5752602220, 0.3191765547, -0.5673094392, -0.2523295879, -0.1171619743, 0.3409931064, -0.4431907237, -0.2292376757, -0.2916889489, 0.3765803576, 0.3177337646, 0.6471852660, -0.1143118739, 0.3219951987, 0.2570282817, -0.0292914528, -0.5282847285, -0.2563933730, -0.1186417416, -0.5197435021, 0.5783907175};
#endif

#endif
